{"learner":{"attributes":{"scikit_learn":"{\"_estimator_type\": \"regressor\"}"},"feature_names":[],"feature_types":[],"gradient_booster":{"model":{"gbtree_model_param":{"num_parallel_tree":"1","num_trees":"100"},"iteration_indptr":[0,1,2,3,4,5,6,7,8,9,10,11,12,13,14,15,16,17,18,19,20,21,22,23,24,25,26,27,28,29,30,31,32,33,34,35,36,37,38,39,40,41,42,43,44,45,46,47,48,49,50,51,52,53,54,55,56,57,58,59,60,61,62,63,64,65,66,67,68,69,70,71,72,73,74,75,76,77,78,79,80,81,82,83,84,85,86,87,88,89,90,91,92,93,94,95,96,97,98,99,100],"tree_info":[0,0,0,0,0,0,0,0,0,0,0,0,0,0,0,0,0,0,0,0,0,0,0,0,0,0,0,0,0,0,0,0,0,0,0,0,0,0,0,0,0,0,0,0,0,0,0,0,0,0,0,0,0,0,0,0,0,0,0,0,0,0,0,0,0,0,0,0,0,0,0,0,0,0,0,0,0,0,0,0,0,0,0,0,0,0,0,0,0,0,0,0,0,0,0,0,0,0,0,0],"trees":[{"base_weights":[9.294992E-4,-5.849379E3,2.0755872E3,-1.0654948E4,3.892236E3,-1.3816179E2,6.404248E3,-1.7607887E4,-1.9331975E2,6.875939E3,-3.372582E3,2.0775056E3,-8.493109E3,-1.1376504E2,7.94459E3,-5.659204E3,-1.133831E3,2.499254E3,-2.6007463E3,5.2366907E2,2.2658706E3,1.7161691E3,-3.233831E3,-3.1951858E3,4.103482E3,-1.9602275E3,-4.8507466E3,1.9882255E3,-2.045108E3,2.9213098E3,3.0342725E3,2.574254E3,-9.467892E3,-4.051514E3,7.499953E3,-4.3084746E3,2.3492537E3,2.3492537E3,-4.372582E3,-1.2574644E2,-4.8448965E3,-4.3632466E3,1.5458705E3,2.7050283E3,5.258705E2,1.2661691E3,-3.233831E3],"categories":[],"categories_nodes":[],"categories_segments":[],"categories_sizes":[],"default_left":[0,0,0,0,0,0,0,0,0,0,0,0,0,0,0,0,0,0,0,0,0,0,0,0,0,0,0,0,0,0,0,0,0,0,0,0,0,0,0,0,0,0,0,0,0,0,0],"id":0,"left_children":[1,3,5,7,9,11,13,15,17,19,21,23,25,27,29,-1,-1,-1,-1,-1,-1,-1,-1,31,33,35,-1,-1,-1,-1,37,-1,39,41,43,-1,-1,-1,45,-1,-1,-1,-1,-1,-1,-1,-1],"loss_changes":[1.019835E9,1.07137965E9,5.95004E8,1.0876822E9,1.9659816E8,7.951394E8,2.1174317E8,8.503706E7,5.779673E8,7.654368E6,2.6371925E8,3.7631123E8,4.196251E8,2.7111885E8,1.201337E8,0E0,0E0,0E0,0E0,0E0,0E0,0E0,0E0,8.199183E8,7.228415E8,8.4099866E8,0E0,0E0,0E0,0E0,2.4740611E8,0E0,4.1646144E8,8.4757357E8,1.4110349E8,0E0,0E0,0E0,2.106604E8,0E0,0E0,0E0,0E0,0E0,0E0,0E0,0E0],"parents":[2147483647,0,0,1,1,2,2,3,3,4,4,5,5,6,6,7,7,8,8,9,9,10,10,11,11,12,12,13,13,14,14,23,23,24,24,25,25,30,30,32,32,33,33,34,34,38,38],"right_children":[2,4,6,8,10,12,14,16,18,20,22,24,26,28,30,-1,-1,-1,-1,-1,-1,-1,-1,32,34,36,-1,-1,-1,-1,38,-1,40,42,44,-1,-1,-1,46,-1,-1,-1,-1,-1,-1,-1,-1],"split_conditions":[3.3E1,3.15E4,3.3E4,3.1E4,3.1E4,3.1E4,1.3E1,3.2E1,1.2E4,3.2E4,3.1E4,6.5E3,3.3E4,3.1E4,3.3E4,-5.659204E3,-1.133831E3,2.499254E3,-2.6007463E3,5.2366907E2,2.2658706E3,1.7161691E3,-3.233831E3,1.3E1,1.3E1,1.3E1,-4.8507466E3,1.9882255E3,-2.045108E3,2.9213098E3,3.3E4,2.574254E3,3.1E4,6.5E3,3.3E4,-4.3084746E3,2.3492537E3,2.3492537E3,3.1E4,-1.2574644E2,-4.8448965E3,-4.3632466E3,1.5458705E3,2.7050283E3,5.258705E2,1.2661691E3,-3.233831E3],"split_indices":[1,2,4,0,3,4,2,1,4,2,0,3,0,1,2,0,0,0,0,0,0,0,0,0,2,0,0,0,0,0,0,0,2,0,0,0,0,0,3,0,0,0,0,0,0,0,0],"split_type":[0,0,0,0,0,0,0,0,0,0,0,0,0,0,0,0,0,0,0,0,0,0,0,0,0,0,0,0,0,0,0,0,0,0,0,0,0,0,0,0,0,0,0,0,0,0,0],"sum_hessian":[8.2E1,2.1E1,6.1E1,1.4E1,7E0,4.1E1,2E1,8E0,6E0,5E0,2E0,3.3E1,8E0,4E0,1.6E1,7E0,1E0,3E0,3E0,1E0,4E0,1E0,1E0,9E0,2.4E1,5E0,3E0,2E0,2E0,1.1E1,5E0,3E0,6E0,7E0,1.7E1,2E0,3E0,3E0,2E0,3E0,3E0,3E0,4E0,1.3E1,4E0,1E0,1E0],"tree_param":{"num_deleted":"0","num_feature":"5","num_nodes":"47","size_leaf_vector":"1"}},{"base_weights":[-1.3457173E2,-4.3501406E3,1.3634458E3,-7.918099E3,2.8835493E3,-3.0606702E2,4.6375454E3,-1.3080303E4,-1.498231E2,5.27808E3,-2.8666953E3,1.3959336E3,-6.70184E3,-9.101192E1,5.755501E3,-4.173663E3,-9.637565E2,1.9369215E3,-6.718595E3,4.4511856E2,1.7220614E3,1.4587437E3,-2.7487566E3,-2.6550217E3,3.1944575E3,-1.6986963E3,-3.7593289E3,1.5905806E3,-1.6360865E3,2.1179495E3,2.1875889E3,-7.916254E2,-2.8437192E3,1.786345E3,-3.2622002E3,-3.0090444E3,5.429461E3,-3.4467798E3,1.8206715E3,1.8206715E3,-3.7166953E3,-8.637005E2,2.1514326E3,2.0133746E3,-2.4718235E3,1.9514844E3,3.9966144E2,1.0762437E3,-2.7487566E3],"categories":[],"categories_nodes":[],"categories_segments":[],"categories_sizes":[],"default_left":[0,0,0,0,0,0,0,0,0,0,0,0,0,0,0,0,0,0,0,0,0,0,0,0,0,0,0,0,0,0,0,0,0,0,0,0,0,0,0,0,0,0,0,0,0,0,0,0,0],"id":1,"left_children":[1,3,5,7,9,11,13,15,17,19,21,23,25,27,29,-1,-1,-1,31,-1,-1,-1,-1,33,35,37,-1,-1,-1,-1,39,-1,-1,41,-1,43,45,-1,-1,-1,47,-1,-1,-1,-1,-1,-1,-1,-1],"loss_changes":[5.3007584E8,5.9064134E8,3.4032077E8,5.995616E8,1.2528376E8,4.665509E8,1.1153645E8,2.9188608E7,3.4714163E8,2.003856E6,1.9053717E8,2.5619651E8,2.4119491E8,1.735161E8,6.3669504E7,0E0,0E0,0E0,2.003624E7,0E0,0E0,0E0,0E0,4.2096314E8,3.4909382E8,5.2602272E8,0E0,0E0,0E0,0E0,1.6005462E8,0E0,0E0,2.2163334E8,0E0,4.111816E8,7.065187E7,0E0,0E0,0E0,1.5220213E8,0E0,0E0,0E0,0E0,0E0,0E0,0E0,0E0],"parents":[2147483647,0,0,1,1,2,2,3,3,4,4,5,5,6,6,7,7,8,8,9,9,10,10,11,11,12,12,13,13,14,14,18,18,23,23,24,24,25,25,30,30,33,33,35,35,36,36,40,40],"right_children":[2,4,6,8,10,12,14,16,18,20,22,24,26,28,30,-1,-1,-1,32,-1,-1,-1,-1,34,36,38,-1,-1,-1,-1,40,-1,-1,42,-1,44,46,-1,-1,-1,48,-1,-1,-1,-1,-1,-1,-1,-1],"split_conditions":[3.3E1,3.15E4,3.3E4,3.1E4,3.1E4,3.1E4,1.3E1,3.2E1,1.2E4,3.2E4,3.1E4,1.3E1,3.3E4,3.1E4,3.3E4,-4.173663E3,-9.637565E2,1.9369215E3,1.3E1,4.4511856E2,1.7220614E3,1.4587437E3,-2.7487566E3,3.15E4,6.5E3,1.3E1,-3.7593289E3,1.5905806E3,-1.6360865E3,2.1179495E3,3.3E4,-7.916254E2,-2.8437192E3,2.505E4,-3.2622002E3,3.1E4,3.3E4,-3.4467798E3,1.8206715E3,1.8206715E3,3.1E4,-8.637005E2,2.1514326E3,2.0133746E3,-2.4718235E3,1.9514844E3,3.9966144E2,1.0762437E3,-2.7487566E3],"split_indices":[1,2,4,0,3,4,2,1,4,2,0,2,0,1,2,0,0,0,2,0,0,0,0,3,3,0,0,0,0,0,0,0,0,3,0,2,0,0,0,0,3,0,0,0,0,0,0,0,0],"split_type":[0,0,0,0,0,0,0,0,0,0,0,0,0,0,0,0,0,0,0,0,0,0,0,0,0,0,0,0,0,0,0,0,0,0,0,0,0,0,0,0,0,0,0,0,0,0,0,0,0],"sum_hessian":[8.2E1,2.1E1,6.1E1,1.4E1,7E0,4.1E1,2E1,8E0,6E0,5E0,2E0,3.3E1,8E0,4E0,1.6E1,7E0,1E0,3E0,3E0,1E0,4E0,1E0,1E0,1E1,2.3E1,5E0,3E0,2E0,2E0,1.1E1,5E0,2E0,1E0,7E0,3E0,6E0,1.7E1,2E0,3E0,3E0,2E0,4E0,3E0,2E0,4E0,1.3E1,4E0,1E0,1E0],"tree_param":{"num_deleted":"0","num_feature":"5","num_nodes":"49","size_leaf_vector":"1"}},{"base_weights":[-2.0510716E2,-3.3159473E3,9.0204755E2,-5.9983926E3,2.1281309E3,2.3425422E3,-1.6423801E3,-9.727036E3,-3.4750836E2,1.216756E3,-2.4366912E3,-2.7274849E3,3.695283E3,-9.907832E3,6.191799E2,-3.0780767E3,-8.191931E2,1.501114E3,-5.611853E3,1.239932E3,-2.336443E3,-2.6124795E3,3.798792E3,7.6062805E2,4.486561E3,1.1615737E3,-4.296224E3,-2.4238203E3,4.2696045E3,-6.333004E2,-2.4171614E3,1.965373E3,-1.081652E3,-2.0241155E3,1.2154202E3,1.6378314E3,3.4740142E3,-7.5521206E3,3.10845E3,2.2260168E3,2.6523224E2,1.7008047E3,-1.6094456E3,2.992544E2,1.3837539E3,1.1615737E3,-3.183393E3,1.4717028E3,-8.81652E2,1.2676836E3,-2.336443E3],"categories":[],"categories_nodes":[],"categories_segments":[],"categories_sizes":[],"default_left":[0,0,0,0,0,0,0,0,0,0,0,0,0,0,0,0,0,0,0,0,0,0,0,0,0,0,0,0,0,0,0,0,0,0,0,0,0,0,0,0,0,0,0,0,0,0,0,0,0,0,0],"id":2,"left_children":[1,3,5,7,9,11,13,15,17,-1,19,21,23,25,27,-1,-1,-1,29,-1,-1,-1,31,33,35,-1,-1,37,39,-1,-1,-1,-1,41,-1,-1,43,45,47,-1,49,-1,-1,-1,-1,-1,-1,-1,-1,-1,-1],"loss_changes":[2.888582E8,3.3404106E8,2.3109187E8,3.126718E8,8.028054E7,2.8441613E8,4.3606947E8,5.558336E6,2.2527483E8,0E0,1.376631E8,3.8437088E8,7.089552E7,3.5949286E8,2.2140538E8,0E0,0E0,0E0,1.7234472E7,0E0,0E0,0E0,1.2552039E8,8.151215E7,5.660928E6,0E0,0E0,3.3555795E8,1.1157218E8,0E0,0E0,0E0,0E0,1.5892293E8,0E0,0E0,3.769131E7,2.5077571E8,7.962706E7,0E0,1.923818E8,0E0,0E0,0E0,0E0,0E0,0E0,0E0,0E0,0E0,0E0],"parents":[2147483647,0,0,1,1,2,2,3,3,4,4,5,5,6,6,7,7,8,8,10,10,11,11,12,12,13,13,14,14,18,18,22,22,23,23,24,24,27,27,28,28,33,33,36,36,37,37,38,38,40,40],"right_children":[2,4,6,8,10,12,14,16,18,-1,20,22,24,26,28,-1,-1,-1,30,-1,-1,-1,32,34,36,-1,-1,38,40,-1,-1,-1,-1,42,-1,-1,44,46,48,-1,50,-1,-1,-1,-1,-1,-1,-1,-1,-1,-1],"split_conditions":[3.3E1,3.15E4,3.3E4,3.1E4,3.1E4,1.3E1,3.2E1,3.2E1,1.2E4,1.216756E3,3.1E4,3.3E4,1.3E1,3.1E4,3.3E4,-3.0780767E3,-8.191931E2,1.501114E3,1.3E1,1.239932E3,-2.336443E3,-2.6124795E3,3.1E4,3.15E4,3.15E4,1.1615737E3,-4.296224E3,3.3E4,3.1E4,-6.333004E2,-2.4171614E3,1.965373E3,-1.081652E3,1.3E1,1.2154202E3,1.6378314E3,3.1E4,1.3E1,3.1E4,2.2260168E3,3.3E4,1.7008047E3,-1.6094456E3,2.992544E2,1.3837539E3,1.1615737E3,-3.183393E3,1.4717028E3,-8.81652E2,1.2676836E3,-2.336443E3],"split_indices":[1,2,0,0,3,2,4,1,4,0,0,1,3,1,1,0,0,0,2,0,0,0,4,4,3,0,0,4,4,0,0,0,0,4,0,0,1,2,1,0,3,0,0,0,0,0,0,0,0,0,0],"split_type":[0,0,0,0,0,0,0,0,0,0,0,0,0,0,0,0,0,0,0,0,0,0,0,0,0,0,0,0,0,0,0,0,0,0,0,0,0,0,0,0,0,0,0,0,0,0,0,0,0,0,0],"sum_hessian":[8.2E1,2.1E1,6.1E1,1.4E1,7E0,3.9E1,2.2E1,8E0,6E0,5E0,2E0,8E0,3.1E1,4E0,1.8E1,7E0,1E0,3E0,3E0,1E0,1E0,4E0,4E0,7E0,2.4E1,1E0,3E0,1E1,8E0,2E0,1E0,3E0,1E0,4E0,3E0,1E1,1.4E1,5E0,5E0,4E0,4E0,1E0,3E0,5E0,9E0,1E0,4E0,4E0,1E0,3E0,1E0],"tree_param":{"num_deleted":"0","num_feature":"5","num_nodes":"51","size_leaf_vector":"1"}},{"base_weights":[-2.1389642E2,-2.5632708E3,6.232025E2,-4.5619824E3,1.5047223E3,1.712251E3,-1.2978906E3,-8.563435E2,-2.3092122E3,1.237437E3,-8.9227637E2,-2.1013235E3,2.731311E3,-7.5624126E3,4.1897784E2,-1.729586E3,1.7408519E3,2.1946152E3,-1.9859764E3,-6.618281E3,2.8358987E3,6.95787E2,3.2734263E3,9.873375E2,-3.3295735E3,-1.8268348E3,3.117307E3,1.1633635E3,-5.0664026E2,1.9583731E2,7.4728796E2,-2.2396008E3,-4.845094E2,1.5231641E3,-9.194041E2,-1.3986091E3,9.419507E2,2.1283313E3,1.1684802E3,-5.6234536E3,2.2742566E3,1.6917726E3,-2.8089258E1,1.445684E3,-1.2473203E3,1.1851721E3,1.5680475E2,9.873375E2,-2.4193784E3,1.118494E3,-7.494041E2,9.824548E2,-1.9859764E3],"categories":[],"categories_nodes":[],"categories_segments":[],"categories_sizes":[],"default_left":[0,0,0,0,0,0,0,0,0,0,0,0,0,0,0,0,0,0,0,0,0,0,0,0,0,0,0,0,0,0,0,0,0,0,0,0,0,0,0,0,0,0,0,0,0,0,0,0,0,0,0,0,0],"id":3,"left_children":[1,3,5,7,9,11,13,15,-1,-1,17,19,21,23,25,-1,27,29,-1,31,33,35,37,-1,-1,39,41,-1,-1,-1,-1,-1,-1,-1,-1,43,-1,45,-1,47,49,-1,51,-1,-1,-1,-1,-1,-1,-1,-1,-1,-1],"loss_changes":[1.6483011E8,1.8574091E8,1.3193645E8,1.676878E8,5.392284E7,1.6118981E8,2.5054173E8,1.1203238E8,0E0,0E0,1.0293128E8,2.1947976E8,3.3034E7,2.2842637E8,1.20833704E8,0E0,5.052451E7,2.01568E5,0E0,9.133376E6,8.1685304E7,4.5341852E7,9.502448E6,0E0,0E0,1.8406227E8,7.155076E7,0E0,0E0,0E0,0E0,0E0,0E0,0E0,0E0,1.05810984E8,0E0,3.0119792E7,0E0,1.5711203E8,5.094829E7,0E0,1.3054132E8,0E0,0E0,0E0,0E0,0E0,0E0,0E0,0E0,0E0,0E0],"parents":[2147483647,0,0,1,1,2,2,3,3,4,4,5,5,6,6,7,7,10,10,11,11,12,12,13,13,14,14,16,16,17,17,19,19,20,20,21,21,22,22,25,25,26,26,35,35,37,37,39,39,40,40,42,42],"right_children":[2,4,6,8,10,12,14,16,-1,-1,18,20,22,24,26,-1,28,30,-1,32,34,36,38,-1,-1,40,42,-1,-1,-1,-1,-1,-1,-1,-1,44,-1,46,-1,48,50,-1,52,-1,-1,-1,-1,-1,-1,-1,-1,-1,-1],"split_conditions":[3.3E1,3.15E4,3.3E4,2.505E4,3.1E4,1.3E1,3.2E1,1.3E1,-2.3092122E3,1.237437E3,3.1E4,3.3E4,1.3E1,3.1E4,3.3E4,-1.729586E3,1.2E4,3.2E4,-1.9859764E3,6.5E3,3.1E4,3.15E4,3.3E1,9.873375E2,-3.3295735E3,3.3E4,3.1E4,1.1633635E3,-5.0664026E2,1.9583731E2,7.4728796E2,-2.2396008E3,-4.845094E2,1.5231641E3,-9.194041E2,1.3E1,9.419507E2,3.1E4,1.1684802E3,1.3E1,3.1E4,1.6917726E3,3.3E4,1.445684E3,-1.2473203E3,1.1851721E3,1.5680475E2,9.873375E2,-2.4193784E3,1.118494E3,-7.494041E2,9.824548E2,-1.9859764E3],"split_indices":[1,2,0,2,0,2,4,0,0,0,3,1,3,1,1,0,4,2,0,0,4,4,0,0,0,4,4,0,0,0,0,0,0,0,0,4,0,2,0,2,1,0,3,0,0,0,0,0,0,0,0,0,0],"split_type":[0,0,0,0,0,0,0,0,0,0,0,0,0,0,0,0,0,0,0,0,0,0,0,0,0,0,0,0,0,0,0,0,0,0,0,0,0,0,0,0,0,0,0,0,0,0,0,0,0,0,0,0,0],"sum_hessian":[8.2E1,2.1E1,6.1E1,1.4E1,7E0,3.9E1,2.2E1,7E0,7E0,3E0,4E0,8E0,3.1E1,4E0,1.8E1,2E0,5E0,3E0,1E0,4E0,4E0,7E0,2.4E1,1E0,3E0,1E1,8E0,3E0,2E0,1E0,2E0,3E0,1E0,3E0,1E0,4E0,3E0,1E1,1.4E1,5E0,5E0,4E0,4E0,1E0,3E0,4E0,6E0,1E0,4E0,4E0,1E0,3E0,1E0],"tree_param":{"num_deleted":"0","num_feature":"5","num_nodes":"53","size_leaf_vector":"1"}},{"base_weights":[-2.0242645E2,-1.9391754E3,4.1710428E2,-3.4188594E3,1.0776288E3,1.236836E3,-1.0266512E3,-7.335481E2,-5.6768135E3,9.590136E2,-8.3316345E2,-1.7065209E3,2.0260042E3,-5.762136E3,2.735632E2,-1.3836687E3,1.3280504E3,-1.8463553E3,-3.4993228E2,5.316037E2,-1.68808E3,-5.1776187E3,2.105881E3,1.0491064E3,1.3899558E3,8.392369E2,-2.5804197E3,-1.3754164E3,2.2585867E3,9.016068E2,-4.0531213E2,-1.7356906E3,-4.1183292E2,1.1804521E3,-7.8149347E2,-2.0051807E3,2.3889485E3,-4.175091E3,1.6534945E3,1.2857471E3,-2.2036699E2,-2.517353E3,9.856836E2,1.8015274E2,9.504568E2,8.392369E2,-1.8387277E3,8.500555E2,-6.3699347E2,7.6140234E2,-1.68808E3],"categories":[],"categories_nodes":[],"categories_segments":[],"categories_sizes":[],"default_left":[0,0,0,0,0,0,0,0,0,0,0,0,0,0,0,0,0,0,0,0,0,0,0,0,0,0,0,0,0,0,0,0,0,0,0,0,0,0,0,0,0,0,0,0,0,0,0,0,0,0,0],"id":4,"left_children":[1,3,5,7,9,11,13,15,17,-1,19,21,23,25,27,-1,29,-1,-1,-1,-1,31,33,-1,35,-1,-1,37,39,-1,-1,-1,-1,-1,-1,41,43,45,47,-1,49,-1,-1,-1,-1,-1,-1,-1,-1,-1,-1],"loss_changes":[9.0114296E7,1.0189043E8,7.464632E7,8.678541E7,3.505641E7,9.636955E7,1.4319066E8,7.009554E7,1.0058128E7,0E0,7.2414056E7,1.3000243E8,2.507972E7,1.4557666E8,6.52985E7,0E0,3.102228E7,0E0,0E0,0E0,0E0,3.62464E6,5.333002E7,0E0,8.619147E7,0E0,0E0,1.001831E8,4.617327E7,0E0,0E0,0E0,0E0,0E0,0E0,2.3029205E8,2.4576344E7,9.889204E7,3.275676E7,0E0,8.884788E7,0E0,0E0,0E0,0E0,0E0,0E0,0E0,0E0,0E0,0E0],"parents":[2147483647,0,0,1,1,2,2,3,3,4,4,5,5,6,6,7,7,8,8,10,10,11,11,12,12,13,13,14,14,16,16,21,21,22,22,24,24,27,27,28,28,35,35,36,36,37,37,38,38,40,40],"right_children":[2,4,6,8,10,12,14,16,18,-1,20,22,24,26,28,-1,30,-1,-1,-1,-1,32,34,-1,36,-1,-1,38,40,-1,-1,-1,-1,-1,-1,42,44,46,48,-1,50,-1,-1,-1,-1,-1,-1,-1,-1,-1,-1],"split_conditions":[3.3E1,3.15E4,3.3E4,2.505E4,3.1E4,1.3E1,3.2E1,1.3E1,1.3E1,9.590136E2,3.1E4,3.3E4,1.3E1,3.1E4,3.3E4,-1.3836687E3,1.2E4,-1.8463553E3,-3.4993228E2,5.316037E2,-1.68808E3,6.5E3,3.1E4,1.0491064E3,1.3E1,8.392369E2,-2.5804197E3,3.3E4,3.1E4,9.016068E2,-4.0531213E2,-1.7356906E3,-4.1183292E2,1.1804521E3,-7.8149347E2,3.3E4,3.1E4,1.3E1,3.1E4,1.2857471E3,3.3E4,-2.517353E3,9.856836E2,1.8015274E2,9.504568E2,8.392369E2,-1.8387277E3,8.500555E2,-6.3699347E2,7.6140234E2,-1.68808E3],"split_indices":[1,2,0,2,0,2,4,0,1,0,3,1,4,1,1,0,4,0,0,0,0,0,4,0,0,0,0,4,4,0,0,0,0,0,0,4,1,2,1,0,3,0,0,0,0,0,0,0,0,0,0],"split_type":[0,0,0,0,0,0,0,0,0,0,0,0,0,0,0,0,0,0,0,0,0,0,0,0,0,0,0,0,0,0,0,0,0,0,0,0,0,0,0,0,0,0,0,0,0,0,0,0,0,0,0],"sum_hessian":[8.2E1,2.1E1,6.1E1,1.4E1,7E0,3.9E1,2.2E1,7E0,7E0,3E0,4E0,8E0,3.1E1,4E0,1.8E1,2E0,5E0,6E0,1E0,3E0,1E0,4E0,4E0,8E0,2.3E1,1E0,3E0,1E1,8E0,3E0,2E0,3E0,1E0,3E0,1E0,5E0,1.8E1,5E0,5E0,4E0,4E0,2E0,3E0,6E0,1.2E1,1E0,4E0,4E0,1E0,3E0,1E0],"tree_param":{"num_deleted":"0","num_feature":"5","num_nodes":"51","size_leaf_vector":"1"}},{"base_weights":[-2.2061627E2,-1.5065648E3,2.3924637E2,5.8273895E2,-2.742077E3,-3.2719672E2,1.3607399E3,-1.00270374E3,2.1816697E3,-3.827125E3,-2.356543E1,4.2208173E2,-3.121449E3,8.195696E2,6.3014984E2,1.5599825E2,7.11585E2,-3.2424963E2,-4.378594E3,-1.4348679E3,2.3619897E3,2.0519766E3,-3.425401E2,-2.0138824E3,-1.1363168E3,1.2635294E3,-1.4275261E3,-1.4162488E3,-2.9744238E2,8.869819E2,8.67211E1,-1.4631461E3,8.98706E2,-4.214946E3,1.4999178E3,2.1419194E3,-1.2391421E3,-4.3879044E2,2.169538E3,4.630758E2,-2.9324255E3,1.0714653E3,-1.7298811E3,-4.233139E2,-1.9998251E3,-7.518512E2,1.01339075E3,7.799168E2,1.1527647E2,5.8441406E2,-8.038093E2,1.5965157E2,6.982269E2,1.1527647E2,-1.4348679E3],"categories":[],"categories_nodes":[],"categories_segments":[],"categories_sizes":[],"default_left":[0,0,0,0,0,0,0,0,0,0,0,0,0,0,0,0,0,0,0,0,0,0,0,0,0,0,0,0,0,0,0,0,0,0,0,0,0,0,0,0,0,0,0,0,0,0,0,0,0,0,0,0,0,0,0],"id":5,"left_children":[1,3,5,7,9,11,13,-1,15,17,19,21,23,-1,25,-1,-1,-1,27,-1,29,31,33,-1,35,37,39,-1,-1,-1,-1,41,-1,43,45,47,-1,49,51,-1,53,-1,-1,-1,-1,-1,-1,-1,-1,-1,-1,-1,-1,-1,-1],"loss_changes":[4.9443296E7,5.838784E7,3.983149E7,6.3775336E7,4.120583E7,8.925178E7,1.9315344E7,0E0,9.79888E5,1.0412432E7,6.8065336E7,4.307549E7,5.6538264E7,0E0,2.1353068E7,0E0,0E0,0E0,4.592944E6,0E0,4.075702E6,4.087296E7,1.7755592E8,0E0,7.755602E7,1.945977E7,2.2411348E7,0E0,0E0,0E0,0E0,8.55893E7,0E0,4.557581E7,1.3636762E8,2.219702E6,0E0,3.1958952E7,8.29532E5,0E0,2.0250078E7,0E0,0E0,0E0,0E0,0E0,0E0,0E0,0E0,0E0,0E0,0E0,0E0,0E0,0E0],"parents":[2147483647,0,0,1,1,2,2,3,3,4,4,5,5,6,6,8,8,9,9,10,10,11,11,12,12,14,14,18,18,20,20,21,21,22,22,24,24,25,25,26,26,31,31,33,33,34,34,35,35,37,37,38,38,40,40],"right_children":[2,4,6,8,10,12,14,-1,16,18,20,22,24,-1,26,-1,-1,-1,28,-1,30,32,34,-1,36,38,40,-1,-1,-1,-1,42,-1,44,46,48,-1,50,52,-1,54,-1,-1,-1,-1,-1,-1,-1,-1,-1,-1,-1,-1,-1,-1],"split_conditions":[3.3E1,1.2E4,3.3E4,1.3E1,3.15E4,3.1E4,2.505E4,-1.00270374E3,3.2E1,1.3E1,1.4E4,3.1E4,1.3E1,8.195696E2,3.3E4,1.5599825E2,7.11585E2,-3.2424963E2,1.3E1,-1.4348679E3,3.1E4,1.3E1,3.2E1,-2.0138824E3,3.3E4,1.3E1,3.1E4,-1.4162488E3,-2.9744238E2,8.869819E2,8.67211E1,1.3E1,8.98706E2,3.1E4,3.3E4,3.1E4,-1.2391421E3,3.1E4,6.5E3,4.630758E2,3.3E4,1.0714653E3,-1.7298811E3,-4.233139E2,-1.9998251E3,-7.518512E2,1.01339075E3,7.799168E2,1.1527647E2,5.8441406E2,-8.038093E2,1.5965157E2,6.982269E2,1.1527647E2,-1.4348679E3],"split_indices":[1,4,4,0,2,4,0,0,0,2,4,1,0,0,2,0,0,0,1,0,0,3,4,0,0,2,3,0,0,0,0,0,0,0,1,3,0,1,1,0,0,0,0,0,0,0,0,0,0,0,0,0,0,0,0],"split_type":[0,0,0,0,0,0,0,0,0,0,0,0,0,0,0,0,0,0,0,0,0,0,0,0,0,0,0,0,0,0,0,0,0,0,0,0,0,0,0,0,0,0,0,0,0,0,0,0,0,0,0,0,0,0,0],"sum_hessian":[8.2E1,2.1E1,6.1E1,8E0,1.3E1,4.1E1,2E1,2E0,6E0,9E0,4E0,3.3E1,8E0,6E0,1.4E1,1E0,5E0,2E0,7E0,1E0,3E0,1E1,2.3E1,2E0,6E0,1.1E1,3E0,6E0,1E0,2E0,1E0,2E0,8E0,7E0,1.6E1,3E0,3E0,4E0,7E0,1E0,2E0,1E0,1E0,4E0,3E0,5E0,1.1E1,2E0,1E0,2E0,2E0,1E0,6E0,1E0,1E0],"tree_param":{"num_deleted":"0","num_feature":"5","num_nodes":"55","size_leaf_vector":"1"}},{"base_weights":[-2.304775E2,-1.1743331E3,1.0815639E2,3.9290332E2,-2.0979612E3,-3.3092175E2,9.8116235E2,-8.02163E2,1.6511085E3,-2.8827812E3,-1.08728905E2,2.3894843E2,-2.4469956E3,6.635729E2,4.583095E2,1.3259854E2,5.336885E2,-2.5939963E2,-3.279227E3,-1.2196377E3,1.8968184E3,1.4582288E3,-3.298446E2,-1.611106E3,-8.445572E2,9.3742633E2,-1.2133975E3,-1.0520706E3,-2.5282603E2,7.095853E2,7.371299E1,-1.2436742E3,6.5905133E2,-3.253354E3,1.0653271E3,1.7231421E3,-9.603352E2,-3.5103223E2,1.5490781E3,3.9361438E2,-2.4925618E3,9.1074554E2,-1.4703989E3,-3.217185E2,-1.5498644E3,-5.638884E2,7.347083E2,6.239336E2,9.798487E1,4.6753128E2,-6.4304736E2,1.6265099E2,5.27794E2,9.798487E1,-1.2196377E3],"categories":[],"categories_nodes":[],"categories_segments":[],"categories_sizes":[],"default_left":[0,0,0,0,0,0,0,0,0,0,0,0,0,0,0,0,0,0,0,0,0,0,0,0,0,0,0,0,0,0,0,0,0,0,0,0,0,0,0,0,0,0,0,0,0,0,0,0,0,0,0,0,0,0,0],"id":6,"left_children":[1,3,5,7,9,11,13,-1,15,17,19,21,23,-1,25,-1,-1,-1,27,-1,29,31,33,-1,35,37,39,-1,-1,-1,-1,41,-1,43,45,47,-1,49,51,-1,53,-1,-1,-1,-1,-1,-1,-1,-1,-1,-1,-1,-1,-1,-1],"loss_changes":[2.6655596E7,3.2670258E7,2.4090392E7,3.914261E7,2.1543208E7,5.1231972E7,1.2499754E7,0E0,2.9583E5,5.165304E6,4.7388484E7,2.4060608E7,3.7624924E7,0E0,1.3952556E7,0E0,0E0,0E0,1.48232E6,0E0,2.512778E6,2.4684296E7,1.0135704E8,0E0,4.787254E7,1.0788921E7,1.61922E7,0E0,0E0,0E0,0E0,6.183827E7,0E0,2.7834736E7,7.387715E7,1.312918E6,0E0,2.0453728E7,9.5134E5,0E0,1.4630676E7,0E0,0E0,0E0,0E0,0E0,0E0,0E0,0E0,0E0,0E0,0E0,0E0,0E0,0E0],"parents":[2147483647,0,0,1,1,2,2,3,3,4,4,5,5,6,6,8,8,9,9,10,10,11,11,12,12,14,14,18,18,20,20,21,21,22,22,24,24,25,25,26,26,31,31,33,33,34,34,35,35,37,37,38,38,40,40],"right_children":[2,4,6,8,10,12,14,-1,16,18,20,22,24,-1,26,-1,-1,-1,28,-1,30,32,34,-1,36,38,40,-1,-1,-1,-1,42,-1,44,46,48,-1,50,52,-1,54,-1,-1,-1,-1,-1,-1,-1,-1,-1,-1,-1,-1,-1,-1],"split_conditions":[3.3E1,1.2E4,3.3E4,1.3E1,3.15E4,3.1E4,1.2E4,-8.02163E2,3.2E1,1.3E1,1.4E4,3.1E4,1.3E1,6.635729E2,3.3E4,1.3259854E2,5.336885E2,-2.5939963E2,1.3E1,-1.2196377E3,3.1E4,1.3E1,3.2E1,-1.611106E3,3.3E4,1.3E1,3.1E4,-1.0520706E3,-2.5282603E2,7.095853E2,7.371299E1,1.3E1,6.5905133E2,3.1E4,3.3E4,3.1E4,-9.603352E2,3.1E4,2.505E4,3.9361438E2,3.3E4,9.1074554E2,-1.4703989E3,-3.217185E2,-1.5498644E3,-5.638884E2,7.347083E2,6.239336E2,9.798487E1,4.6753128E2,-6.4304736E2,1.6265099E2,5.27794E2,9.798487E1,-1.2196377E3],"split_indices":[1,4,4,0,2,4,0,0,0,2,4,1,0,0,2,0,0,0,1,0,0,3,4,0,0,2,3,0,0,0,0,0,0,0,1,3,0,1,2,0,0,0,0,0,0,0,0,0,0,0,0,0,0,0,0],"split_type":[0,0,0,0,0,0,0,0,0,0,0,0,0,0,0,0,0,0,0,0,0,0,0,0,0,0,0,0,0,0,0,0,0,0,0,0,0,0,0,0,0,0,0,0,0,0,0,0,0,0,0,0,0,0,0],"sum_hessian":[8.2E1,2.1E1,6.1E1,8E0,1.3E1,4.1E1,2E1,2E0,6E0,9E0,4E0,3.3E1,8E0,5E0,1.5E1,1E0,5E0,2E0,7E0,1E0,3E0,1E1,2.3E1,2E0,6E0,1.2E1,3E0,6E0,1E0,2E0,1E0,2E0,8E0,7E0,1.6E1,3E0,3E0,4E0,8E0,1E0,2E0,1E0,1E0,4E0,3E0,5E0,1.1E1,2E0,1E0,2E0,2E0,2E0,6E0,1E0,1E0],"tree_param":{"num_deleted":"0","num_feature":"5","num_nodes":"55","size_leaf_vector":"1"}},{"base_weights":[-2.2322508E2,1.9314076E2,-7.7217883E2,1.5065559E3,-2.3805174E2,-1.5986473E3,6.407465E2,5.059804E2,4.04219E2,-9.693546E2,7.823679E2,-2.3803887E3,-8.1420105E2,1.3548057E3,-6.414856E1,2.5288565E2,-7.09871E1,-2.5581262E3,3.2734323E2,-1.02202783E3,1.2887604E3,-1.2270262E3,-1.2279908E3,-2.1532493E3,6.4116144E2,1.7579858E2,6.5853345E2,9.738073E2,-2.1186775E3,-1.2126097E3,-1.2819746E3,7.143906E2,-7.22111E2,2.263872E3,1.5255359E2,4.616989E2,-3.0331055E3,1.1340703E2,-1.563978E3,1.4481406E3,-9.1752435E2,2.1358751E2,-2.1490211E2,4.3809845E2,5.104167E-1,8.328721E1,-1.0366921E3,3.2985938E2,-7.0721173E2,-2.177842E1,4.547685E2,3.66513E2,-5.331864E2,9.564325E2,1.6278267E2,-7.2067676E2,2.5821173E2,-4.0312436E2,3.7469928E2,-4.048086E2,-1.2126504E3,-2.3830313E2,1.616792E2,-2.1992667E2,6.530161E2,8.328721E1,-4.961732E2,-3.2441602E2,3.2464572E2],"categories":[],"categories_nodes":[],"categories_segments":[],"categories_sizes":[],"default_left":[0,0,0,0,0,0,0,0,0,0,0,0,0,0,0,0,0,0,0,0,0,0,0,0,0,0,0,0,0,0,0,0,0,0,0,0,0,0,0,0,0,0,0,0,0,0,0,0,0,0,0,0,0,0,0,0,0,0,0,0,0,0,0,0,0,0,0,0,0],"id":7,"left_children":[1,3,5,7,9,11,13,-1,15,17,19,21,23,25,27,-1,-1,29,31,-1,33,-1,35,37,39,41,-1,43,45,47,-1,49,51,53,55,57,59,61,-1,63,65,-1,-1,-1,67,-1,-1,-1,-1,-1,-1,-1,-1,-1,-1,-1,-1,-1,-1,-1,-1,-1,-1,-1,-1,-1,-1,-1,-1],"loss_changes":[1.9120084E7,2.7542708E7,4.3062904E7,1.699896E6,2.8369116E7,1.2166272E7,7.133624E6,0E0,1.0429391E6,4.6160836E7,3.8331976E7,1.6650188E7,2.6714988E7,6.549185E6,1.9123264E7,0E0,0E0,1.7895472E7,5.79632E6,0E0,1.6273568E7,0E0,2.5801048E7,4.914316E7,1.0133493E7,2.4233205E6,0E0,2.84043E6,1.0570667E7,2.1119972E7,0E0,6.4177675E6,1.0375631E7,1.0996928E7,1.6541186E7,8.785466E6,1.34166E6,2.3594432E6,0E0,9.541726E6,3.0994372E6,0E0,0E0,0E0,4.680901E6,0E0,0E0,0E0,0E0,0E0,0E0,0E0,0E0,0E0,0E0,0E0,0E0,0E0,0E0,0E0,0E0,0E0,0E0,0E0,0E0,0E0,0E0,0E0,0E0],"parents":[2147483647,0,0,1,1,2,2,3,3,4,4,5,5,6,6,8,8,9,9,10,10,11,11,12,12,13,13,14,14,17,17,18,18,20,20,22,22,23,23,24,24,25,25,27,27,28,28,29,29,31,31,32,32,33,33,34,34,35,35,36,36,37,37,39,39,40,40,44,44],"right_children":[2,4,6,8,10,12,14,-1,16,18,20,22,24,26,28,-1,-1,30,32,-1,34,-1,36,38,40,42,-1,44,46,48,-1,50,52,54,56,58,60,62,-1,64,66,-1,-1,-1,68,-1,-1,-1,-1,-1,-1,-1,-1,-1,-1,-1,-1,-1,-1,-1,-1,-1,-1,-1,-1,-1,-1,-1,-1],"split_conditions":[3.15E4,1.3E1,3.3E4,3.1E4,3.3E4,1.4E4,3.1E4,5.059804E2,1.3E1,6.5E3,3.2E1,1.3E1,1.4E4,3.15E4,3.3E4,2.5288565E2,-7.09871E1,6.5E3,3E4,-1.02202783E3,3.1E4,-1.2270262E3,2.505E4,3.3E4,3.1E4,2.505E4,6.5853345E2,3.1E4,3.3E4,3.15E4,-1.2819746E3,1.3E1,1.3E1,1.3E1,1.3E1,1.3E1,1.3E1,3.2E4,-1.563978E3,3.3E4,3.1E4,2.1358751E2,-2.1490211E2,4.3809845E2,3.15E4,8.328721E1,-1.0366921E3,3.2985938E2,-7.0721173E2,-2.177842E1,4.547685E2,3.66513E2,-5.331864E2,9.564325E2,1.6278267E2,-7.2067676E2,2.5821173E2,-4.0312436E2,3.7469928E2,-4.048086E2,-1.2126504E3,-2.3830313E2,1.616792E2,-2.1992667E2,6.530161E2,8.328721E1,-4.961732E2,-3.2441602E2,3.2464572E2],"split_indices":[3,4,4,1,1,0,0,0,0,3,4,2,4,2,2,0,0,1,2,0,4,0,4,2,4,0,0,1,0,4,0,2,0,3,0,1,1,3,0,3,0,0,0,0,1,0,0,0,0,0,0,0,0,0,0,0,0,0,0,0,0,0,0,0,0,0,0,0,0],"split_type":[0,0,0,0,0,0,0,0,0,0,0,0,0,0,0,0,0,0,0,0,0,0,0,0,0,0,0,0,0,0,0,0,0,0,0,0,0,0,0,0,0,0,0,0,0,0,0,0,0,0,0,0,0,0,0,0,0,0,0,0,0,0,0,0,0,0,0,0,0],"sum_hessian":[8.2E1,4.7E1,3.5E1,1.1E1,3.6E1,2.2E1,1.3E1,9E0,2E0,2.1E1,1.5E1,1E1,1.2E1,6E0,7E0,1E0,1E0,9E0,1.2E1,1E0,1.4E1,3E0,7E0,6E0,6E0,3E0,3E0,5E0,2E0,6E0,3E0,9E0,3E0,7E0,7E0,4E0,3E0,4E0,2E0,4E0,2E0,2E0,1E0,3E0,2E0,1E0,1E0,2E0,4E0,5E0,4E0,1E0,2E0,4E0,3E0,1E0,6E0,1E0,3E0,2E0,1E0,1E0,3E0,1E0,3E0,1E0,1E0,1E0,1E0],"tree_param":{"num_deleted":"0","num_feature":"5","num_nodes":"69","size_leaf_vector":"1"}},{"base_weights":[-2.2157762E2,1.1289854E2,-6.6139087E2,1.1119124E3,-2.1415727E2,-1.3144144E3,4.5867572E2,1.231219E3,3.4358643E2,-8.919436E2,4.7490048E2,-1.9274457E3,-6.9458685E2,9.7096594E2,-1.9232394E2,6.6912225E2,1.4944297E3,2.1495294E2,-6.0339035E1,-1.6995205E1,-2.7848325E3,1.13027336E2,9.5834766E2,-8.984083E2,-2.982609E3,-1.7416464E3,4.5169928E2,1.22730225E2,1.4553613E3,7.5472003E2,-8.8118823E2,4.517051E1,2.8939066E2,6.982366E2,8.623336E2,5.240271E2,-1.0575428E3,-1.5429768E3,-1.0537089E3,2.9663324E2,-2.8599567E2,2.459297E1,3.215498E2,-7.8763794E2,3.1750424E2,-3.238469E2,-1.1674576E3,6.405977E1,-1.2511824E3,1.1003164E3,-7.798957E2,1.7086993E2,-1.8266675E2,5.1036343E2,7.079414E1,1.1317549E3,4.3359375E-1,7.5426956E1,3.5573984E2,6.3343396E2,-1.2482934E2,-8.6872363E2,-3.8041676E1,4.9585257E2,-5.6518658E1,-3.426557E2,2.9039197E2,1.4611172E2,-2.4417862E2,-1.869378E2,5.0608755E2,7.079414E1,-4.2174722E2,4.398041E2,1.5949922E2,-2.7575363E2,2.7594873E2],"categories":[],"categories_nodes":[],"categories_segments":[],"categories_sizes":[],"default_left":[0,0,0,0,0,0,0,0,0,0,0,0,0,0,0,0,0,0,0,0,0,0,0,0,0,0,0,0,0,0,0,0,0,0,0,0,0,0,0,0,0,0,0,0,0,0,0,0,0,0,0,0,0,0,0,0,0,0,0,0,0,0,0,0,0,0,0,0,0,0,0,0,0,0,0,0,0],"id":8,"left_children":[1,3,5,7,9,11,13,15,17,19,21,23,25,27,29,31,33,-1,-1,35,37,39,41,43,45,47,49,51,53,55,-1,-1,-1,-1,57,59,-1,61,-1,63,-1,-1,-1,-1,65,-1,-1,67,-1,69,71,-1,-1,-1,-1,73,75,-1,-1,-1,-1,-1,-1,-1,-1,-1,-1,-1,-1,-1,-1,-1,-1,-1,-1,-1,-1],"loss_changes":[1.2284556E7,1.5921322E7,2.6934368E7,6.76966E5,1.770384E7,7.400612E6,4.855751E6,4.79541E5,7.5352425E5,3.1420096E7,3.215665E6,9.264228E6,1.6389688E7,3.108435E6,2.0414086E7,6.20954E5,1.15227E6,0E0,0E0,2.8419074E7,1.428E3,2.6322355E6,7.07774E5,1.55332E7,4.448016E6,3.0969104E7,6.449967E6,1.6544589E6,1.097472E6,1.705863E6,0E0,0E0,0E0,0E0,6.899065E5,2.027941E7,0E0,7.29581E6,0E0,7.54719E6,0E0,0E0,0E0,0E0,5.853019E6,0E0,0E0,2.2532698E6,0E0,6.106407E6,2.2393435E6,0E0,0E0,0E0,0E0,2.29155E4,3.3819495E6,0E0,0E0,0E0,0E0,0E0,0E0,0E0,0E0,0E0,0E0,0E0,0E0,0E0,0E0,0E0,0E0,0E0,0E0,0E0,0E0],"parents":[2147483647,0,0,1,1,2,2,3,3,4,4,5,5,6,6,7,7,8,8,9,9,10,10,11,11,12,12,13,13,14,14,15,15,16,16,19,19,20,20,21,21,22,22,23,23,24,24,25,25,26,26,27,27,28,28,29,29,34,34,35,35,37,37,39,39,44,44,47,47,49,49,50,50,55,55,56,56],"right_children":[2,4,6,8,10,12,14,16,18,20,22,24,26,28,30,32,34,-1,-1,36,38,40,42,44,46,48,50,52,54,56,-1,-1,-1,-1,58,60,-1,62,-1,64,-1,-1,-1,-1,66,-1,-1,68,-1,70,72,-1,-1,-1,-1,74,76,-1,-1,-1,-1,-1,-1,-1,-1,-1,-1,-1,-1,-1,-1,-1,-1,-1,-1,-1,-1],"split_conditions":[3.15E4,1.3E1,3.3E4,3.1E4,6.5E3,1.4E4,3.3E4,1.3E1,1.3E1,3.3E4,3.2E4,2.505E4,1.4E4,3.15E4,3.3E4,3.15E4,1.3E1,2.1495294E2,-6.0339035E1,3.3E4,1.3E1,3.1E4,1.3E1,1.3E1,1.3E1,3.3E4,3.1E4,2.505E4,3.1E4,3.1E4,-8.8118823E2,4.517051E1,2.8939066E2,6.982366E2,1.3E1,3.1E4,-1.0575428E3,1.3E1,-1.0537089E3,3.1E4,-2.8599567E2,2.459297E1,3.215498E2,-7.8763794E2,1.3E1,-3.238469E2,-1.1674576E3,3.1E4,-1.2511824E3,3.3E4,3.1E4,1.7086993E2,-1.8266675E2,5.1036343E2,7.079414E1,1.3E1,3.15E4,7.5426956E1,3.5573984E2,6.3343396E2,-1.2482934E2,-8.6872363E2,-3.8041676E1,4.9585257E2,-5.6518658E1,-3.426557E2,2.9039197E2,1.4611172E2,-2.4417862E2,-1.869378E2,5.0608755E2,7.079414E1,-4.2174722E2,4.398041E2,1.5949922E2,-2.7575363E2,2.7594873E2],"split_indices":[3,4,4,1,3,0,0,1,0,0,1,4,4,2,2,0,3,0,0,2,3,1,2,2,1,2,4,0,0,1,0,0,0,0,0,4,0,2,0,4,0,0,0,0,1,0,0,2,0,3,0,0,0,0,0,2,1,0,0,0,0,0,0,0,0,0,0,0,0,0,0,0,0,0,0,0,0],"split_type":[0,0,0,0,0,0,0,0,0,0,0,0,0,0,0,0,0,0,0,0,0,0,0,0,0,0,0,0,0,0,0,0,0,0,0,0,0,0,0,0,0,0,0,0,0,0,0,0,0,0,0,0,0,0,0,0,0,0,0,0,0,0,0,0,0,0,0,0,0,0,0,0,0,0,0,0,0],"sum_hessian":[8.2E1,4.7E1,3.5E1,1.1E1,3.6E1,2.2E1,1.3E1,9E0,2E0,1.8E1,1.8E1,1E1,1.2E1,7E0,6E0,4E0,5E0,1E0,1E0,1.3E1,5E0,1.1E1,7E0,6E0,4E0,6E0,6E0,3E0,4E0,5E0,1E0,2E0,2E0,1E0,4E0,1.2E1,1E0,3E0,2E0,1E1,1E0,1E0,6E0,2E0,4E0,2E0,2E0,4E0,2E0,4E0,2E0,2E0,1E0,3E0,1E0,3E0,2E0,2E0,2E0,4E0,8E0,1E0,2E0,2E0,8E0,1E0,3E0,3E0,1E0,1E0,3E0,1E0,1E0,1E0,2E0,1E0,1E0],"tree_param":{"num_deleted":"0","num_feature":"5","num_nodes":"77","size_leaf_vector":"1"}},{"base_weights":[-2.010796E2,7.087573E1,-5.581012E2,4.2033527E2,-5.910996E2,-1.0814928E3,3.4162088E2,-4.8333487E2,6.4746436E2,-1.5750587E3,2.5517764E2,-1.7732457E3,-6.680231E2,7.5084644E2,-1.7486844E2,3.931919E2,-5.3493036E2,3.716889E2,1.1270747E3,3.521005E2,-6.8283856E2,1.2849165E3,-3.6969852E2,-1.2116769E3,-8.5563416E2,-1.4119023E3,-8.0505325E1,8.29624E1,1.1349844E3,6.2822003E2,-7.4900995E2,3.447242E2,-4.937609E2,1.0721417E3,-2.958875E2,-9.136464E2,1.8406588E3,2.0973341E2,-5.128818E1,5.0600452E2,1.1943165E1,-8.376592E2,5.3346875E2,3.0423517E2,-5.2549866E2,2.5228516E1,-1.0009459E3,-1.183174E3,8.5180273E2,1.366961E2,-1.5526671E2,3.955317E2,6.0174904E1,9.420537E2,3.684896E-1,-2.4309633E2,2.0903908E1,4.2012787E2,1.5882867E2,1.0112891E2,-8.989114E2,-5.938509E2,1.8270996E2,6.335029E2,2.3262306E2,-1.1026348E2,-4.0771744E2,-7.5468755E0,2.4760782E2,-2.2447443E2,1.2169791E2,-5.4905414E2,2.1072774E2,-1.5889717E2,3.7020786E2,3.738334E2,1.2759922E2,-2.3439053E2,2.3455635E2],"categories":[],"categories_nodes":[],"categories_segments":[],"categories_sizes":[],"default_left":[0,0,0,0,0,0,0,0,0,0,0,0,0,0,0,0,0,0,0,0,0,0,0,0,0,0,0,0,0,0,0,0,0,0,0,0,0,0,0,0,0,0,0,0,0,0,0,0,0,0,0,0,0,0,0,0,0,0,0,0,0,0,0,0,0,0,0,0,0,0,0,0,0,0,0,0,0,0,0],"id":9,"left_children":[1,3,5,7,9,11,13,15,17,19,21,23,25,27,29,31,-1,33,35,37,-1,39,41,43,-1,45,47,49,51,53,-1,-1,55,57,59,61,63,-1,-1,-1,-1,65,67,-1,-1,69,-1,71,73,-1,-1,-1,-1,75,77,-1,-1,-1,-1,-1,-1,-1,-1,-1,-1,-1,-1,-1,-1,-1,-1,-1,-1,-1,-1,-1,-1,-1,-1],"loss_changes":[8.098352E6,1.1352472E7,1.7322112E7,6.8809335E6,1.4557857E7,5.393866E6,3.0903485E6,8.67606E6,3.019963E6,1.161001E7,6.909624E6,1.39103E6,6.879011E6,1.9583155E6,1.4620929E7,3.9195595E6,0E0,8.734136E6,1.4787748E7,6.640441E5,0E0,1.9338135E6,3.405392E6,1.0189662E7,0E0,1.9445328E7,1.1288099E7,1.1310575E6,5.926445E5,1.1818985E6,0E0,0E0,5.915514E5,8.62052E5,1.8103692E7,6.074456E6,3.8349E5,0E0,0E0,0E0,0E0,7.260705E5,5.0993512E5,0E0,0E0,1.7748069E6,0E0,7.3855415E6,3.821769E6,0E0,0E0,0E0,0E0,9.8445E4,2.4434572E6,0E0,0E0,0E0,0E0,0E0,0E0,0E0,0E0,0E0,0E0,0E0,0E0,0E0,0E0,0E0,0E0,0E0,0E0,0E0,0E0,0E0,0E0,0E0,0E0],"parents":[2147483647,0,0,1,1,2,2,3,3,4,4,5,5,6,6,7,7,8,8,9,9,10,10,11,11,12,12,13,13,14,14,15,15,17,17,18,18,19,19,21,21,22,22,23,23,25,25,26,26,27,27,28,28,29,29,32,32,33,33,34,34,35,35,36,36,41,41,42,42,45,45,47,47,48,48,53,53,54,54],"right_children":[2,4,6,8,10,12,14,16,18,20,22,24,26,28,30,32,-1,34,36,38,-1,40,42,44,-1,46,48,50,52,54,-1,-1,56,58,60,62,64,-1,-1,-1,-1,66,68,-1,-1,70,-1,72,74,-1,-1,-1,-1,76,78,-1,-1,-1,-1,-1,-1,-1,-1,-1,-1,-1,-1,-1,-1,-1,-1,-1,-1,-1,-1,-1,-1,-1,-1],"split_conditions":[3.15E4,3.3E4,3.3E4,3.2E1,6.5E3,1.3E1,3.3E4,3.1E4,3.1E4,1.3E1,3.1E4,3.1E4,1.4E4,3.15E4,3.3E4,1.3E1,-5.3493036E2,2.505E4,1.3E1,1.3E1,-6.8283856E2,3.1E4,3.1E4,3.3E4,-8.5563416E2,3.3E4,3.1E4,2.505E4,3.1E4,3.1E4,-7.4900995E2,3.447242E2,1.3E1,1.2E4,6.5E3,3.1E4,3.15E4,2.0973341E2,-5.128818E1,5.0600452E2,1.1943165E1,1.4E4,2.505E4,3.0423517E2,-5.2549866E2,3.2E4,-1.0009459E3,3.3E4,3.3E4,1.366961E2,-1.5526671E2,3.955317E2,6.0174904E1,1.3E1,3.15E4,-2.4309633E2,2.0903908E1,4.2012787E2,1.5882867E2,1.0112891E2,-8.989114E2,-5.938509E2,1.8270996E2,6.335029E2,2.3262306E2,-1.1026348E2,-4.0771744E2,-7.5468755E0,2.4760782E2,-2.2447443E2,1.2169791E2,-5.4905414E2,2.1072774E2,-1.5889717E2,3.7020786E2,3.738334E2,1.2759922E2,-2.3439053E2,2.3455635E2],"split_indices":[3,0,4,2,3,0,0,4,1,4,4,2,4,2,2,3,0,0,0,1,0,1,1,3,0,2,2,0,0,1,0,0,0,3,1,2,2,0,0,0,0,1,2,0,0,3,0,1,3,0,0,0,0,2,1,0,0,0,0,0,0,0,0,0,0,0,0,0,0,0,0,0,0,0,0,0,0,0,0],"split_type":[0,0,0,0,0,0,0,0,0,0,0,0,0,0,0,0,0,0,0,0,0,0,0,0,0,0,0,0,0,0,0,0,0,0,0,0,0,0,0,0,0,0,0,0,0,0,0,0,0,0,0,0,0,0,0,0,0,0,0,0,0,0,0,0,0,0,0,0,0,0,0,0,0,0,0,0,0,0,0],"sum_hessian":[8.2E1,4.7E1,3.5E1,3.1E1,1.6E1,2.2E1,1.3E1,6E0,2.5E1,7E0,9E0,7E0,1.5E1,7E0,6E0,4E0,2E0,1.7E1,8E0,2E0,5E0,3E0,6E0,6E0,1E0,6E0,9E0,3E0,4E0,5E0,1E0,2E0,2E0,8E0,9E0,2E0,6E0,1E0,1E0,2E0,1E0,4E0,2E0,1E0,5E0,4E0,2E0,4E0,5E0,2E0,1E0,3E0,1E0,3E0,2E0,1E0,1E0,4E0,4E0,8E0,1E0,1E0,1E0,4E0,2E0,3E0,1E0,1E0,1E0,1E0,3E0,3E0,1E0,1E0,4E0,1E0,2E0,1E0,1E0],"tree_param":{"num_deleted":"0","num_feature":"5","num_nodes":"79","size_leaf_vector":"1"}},{"base_weights":[-1.7182211E2,4.0017105E1,-4.495016E2,7.1604034E2,-1.8031522E2,-8.573768E2,2.5268639E2,9.7153204E2,4.66853E2,-6.359893E2,-6.754818E1,-1.3758842E3,-5.4453705E2,5.8023474E2,-1.5775266E2,4.5719025E2,2.857578E1,-1.1263091E2,8.370695E2,-5.50395E2,6.4513043E2,-8.7978284E2,-7.27289E2,-1.146006E3,-6.9055084E1,5.3431396E1,8.856305E2,5.233535E2,-6.3665845E2,-5.3296875E1,-4.3594955E1,5.2633595E1,2.875843E2,-1.3419482E3,1.0083013E2,1.2951702E3,-8.55506E1,2.586E2,-1.3137466E3,3.727256E2,-7.134708E2,-8.9588715E2,6.314808E2,1.0935703E2,-1.3197672E2,3.0653717E2,5.1148537E1,7.847954E2,3.1315103E-1,-3.2982716E1,8.999122E0,-1.9655544E2,-6.6248926E2,1.0330076E2,-1.599425E2,5.767465E2,5.6168995E1,-2.812108E2,3.001831E2,-2.2932112E2,-6.090692E2,-1.9080322E2,2.762924E2,-4.255169E2,1.7911847E2,-1.350627E2,2.813582E2,3.177583E2,1.020793E2,-1.9923195E2,1.9937286E2],"categories":[],"categories_nodes":[],"categories_segments":[],"categories_sizes":[],"default_left":[0,0,0,0,0,0,0,0,0,0,0,0,0,0,0,0,0,0,0,0,0,0,0,0,0,0,0,0,0,0,0,0,0,0,0,0,0,0,0,0,0,0,0,0,0,0,0,0,0,0,0,0,0,0,0,0,0,0,0,0,0,0,0,0,0,0,0,0,0,0,0],"id":10,"left_children":[1,3,5,7,9,11,13,15,17,-1,19,21,23,25,27,-1,-1,29,31,33,35,37,-1,39,41,43,45,47,-1,49,-1,-1,-1,51,53,55,57,-1,59,61,-1,63,65,-1,-1,-1,-1,67,69,-1,-1,-1,-1,-1,-1,-1,-1,-1,-1,-1,-1,-1,-1,-1,-1,-1,-1,-1,-1,-1,-1],"loss_changes":[4.90033E6,7.2787025E6,1.052723E7,3.104205E5,7.9497545E6,2.981602E6,1.9736742E6,2.275277E6,1.8105565E6,0E0,1.2743203E7,2.028095E6,4.4966645E6,1.2397478E6,1.0476614E7,0E0,0E0,1.2558594E1,2.339E5,1.1475856E7,7.235378E6,6.423544E6,0E0,1.3986418E7,6.357991E6,7.7427575E5,3.1265375E5,8.202221E5,0E0,1.7452633E4,0E0,0E0,0E0,4.502926E6,2.1904648E6,5.2003E6,8.339639E6,0E0,8.09657E5,2.7979045E6,0E0,4.747213E6,2.41068E6,0E0,0E0,0E0,0E0,1.275095E5,1.7653975E6,0E0,0E0,0E0,0E0,0E0,0E0,0E0,0E0,0E0,0E0,0E0,0E0,0E0,0E0,0E0,0E0,0E0,0E0,0E0,0E0,0E0,0E0],"parents":[2147483647,0,0,1,1,2,2,3,3,4,4,5,5,6,6,7,7,8,8,10,10,11,11,12,12,13,13,14,14,17,17,18,18,19,19,20,20,21,21,23,23,24,24,25,25,26,26,27,27,29,29,33,33,34,34,35,35,36,36,38,38,39,39,41,41,42,42,47,47,48,48],"right_children":[2,4,6,8,10,12,14,16,18,-1,20,22,24,26,28,-1,-1,30,32,34,36,38,-1,40,42,44,46,48,-1,50,-1,-1,-1,52,54,56,58,-1,60,62,-1,64,66,-1,-1,-1,-1,68,70,-1,-1,-1,-1,-1,-1,-1,-1,-1,-1,-1,-1,-1,-1,-1,-1,-1,-1,-1,-1,-1,-1],"split_conditions":[3.15E4,1.3E1,3.3E4,1.3E1,3.2E1,1.3E1,3.3E4,1.4E4,1.3E1,-6.359893E2,3.3E4,3.1E4,1.4E4,3.15E4,3.3E4,4.5719025E2,2.857578E1,3.15E4,2.505E4,6.5E3,3.1E4,3.3E4,-7.27289E2,3.1E4,3.1E4,2.505E4,3.1E4,3.1E4,-6.3665845E2,3.2E1,-4.3594955E1,5.2633595E1,2.875843E2,6.5E3,3E4,1.3E1,3.1E4,2.586E2,3.1E4,3.2E4,-7.134708E2,3.3E4,3.3E4,1.0935703E2,-1.3197672E2,3.0653717E2,5.1148537E1,1.3E1,3.15E4,-3.2982716E1,8.999122E0,-1.9655544E2,-6.6248926E2,1.0330076E2,-1.599425E2,5.767465E2,5.6168995E1,-2.812108E2,3.001831E2,-2.2932112E2,-6.090692E2,-1.9080322E2,2.762924E2,-4.255169E2,1.7911847E2,-1.350627E2,2.813582E2,3.177583E2,1.020793E2,-1.9923195E2,1.9937286E2],"split_indices":[3,4,4,0,4,0,0,3,3,0,1,2,4,2,2,0,0,0,0,3,4,3,0,2,2,0,0,1,0,0,0,0,0,1,2,3,2,0,1,3,0,1,3,0,0,0,0,2,1,0,0,0,0,0,0,0,0,0,0,0,0,0,0,0,0,0,0,0,0,0,0],"split_type":[0,0,0,0,0,0,0,0,0,0,0,0,0,0,0,0,0,0,0,0,0,0,0,0,0,0,0,0,0,0,0,0,0,0,0,0,0,0,0,0,0,0,0,0,0,0,0,0,0,0,0,0,0,0,0,0,0,0,0,0,0,0,0,0,0,0,0,0,0,0,0],"sum_hessian":[8.2E1,4.7E1,3.5E1,1.1E1,3.6E1,2.2E1,1.3E1,4E0,7E0,1E0,3.5E1,7E0,1.5E1,7E0,6E0,2E0,2E0,3E0,4E0,2.1E1,1.4E1,6E0,1E0,6E0,9E0,3E0,4E0,5E0,1E0,2E0,1E0,1E0,3E0,9E0,1.2E1,7E0,7E0,1E0,5E0,3E0,3E0,4E0,5E0,2E0,1E0,3E0,1E0,3E0,2E0,1E0,1E0,6E0,3E0,9E0,3E0,4E0,3E0,4E0,3E0,4E0,1E0,1E0,2E0,3E0,1E0,1E0,4E0,1E0,2E0,1E0,1E0],"tree_param":{"num_deleted":"0","num_feature":"5","num_nodes":"71","size_leaf_vector":"1"}},{"base_weights":[-1.4507262E2,-5.288307E2,-1.4850515E1,2.6673242E2,-1.2763182E3,2.1030812E2,-5.894309E2,-4.2558762E2,1.182634E3,-6.102413E2,-7.378689E2,-2.2891655E2,4.0962256E2,-6.6495685E2,-3.633359E2,1.0709819E2,-2.5556297E2,6.8308014E1,4.0933377E2,3.0863525E1,-1.205281E3,-5.19985E2,1.7801668E2,8.799119E2,4.1534462E1,4.595769E2,-7.4451434E2,-1.4404861E2,1.3887169E2,-2.2212701E2,1.6043008E2,9.342773E0,-4.566518E2,1.5578145E2,-2.1444029E2,-3.9788446E2,3.2355392E2,6.2451324E1,1.6884509E3,4.106112E2,-5.1727246E2,-2.1229945E2,2.5036748E2,1.3624747E2,-8.9477167E2,2.9421095E1,-3.5725555E2,-4.6259164E2,1.5358092E2,1.24569145E2,5.494348E2,2.3420143E2,-7.90822E1,-3.289192E2,1.007855E2,-4.4459607E2,-1.7988426E2],"categories":[],"categories_nodes":[],"categories_segments":[],"categories_sizes":[],"default_left":[0,0,0,0,0,0,0,0,0,0,0,0,0,0,0,0,0,0,0,0,0,0,0,0,0,0,0,0,0,0,0,0,0,0,0,0,0,0,0,0,0,0,0,0,0,0,0,0,0,0,0,0,0,0,0,0,0],"id":11,"left_children":[1,3,5,7,9,11,13,15,17,-1,19,21,23,-1,25,27,-1,-1,-1,29,31,33,35,37,39,41,43,-1,-1,-1,-1,-1,-1,-1,-1,45,-1,47,49,51,53,-1,-1,-1,55,-1,-1,-1,-1,-1,-1,-1,-1,-1,-1,-1,-1],"loss_changes":[4.1399705E6,1.282858E7,8.274381E6,7.478382E6,2.987594E6,4.1207852E6,5.816449E6,1.6807808E6,5.57422E5,0E0,2.9117175E6,1.8692472E6,5.5029065E6,0E0,5.674663E6,1.0580759E6,0E0,0E0,0E0,1.9505702E6,2.006466E6,2.1933495E6,4.0593015E6,9.147836E6,4.1310085E6,3.21675E6,2.5676805E6,0E0,0E0,0E0,0E0,0E0,0E0,0E0,0E0,2.083167E6,0E0,6.558706E6,5.14006E5,3.1998075E6,4.3213225E6,0E0,0E0,0E0,1.017909E6,0E0,0E0,0E0,0E0,0E0,0E0,0E0,0E0,0E0,0E0,0E0,0E0],"parents":[2147483647,0,0,1,1,2,2,3,3,4,4,5,5,6,6,7,7,8,8,10,10,11,11,12,12,14,14,15,15,19,19,20,20,21,21,22,22,23,23,24,24,25,25,26,26,35,35,37,37,38,38,39,39,40,40,44,44],"right_children":[2,4,6,8,10,12,14,16,18,-1,20,22,24,-1,26,28,-1,-1,-1,30,32,34,36,38,40,42,44,-1,-1,-1,-1,-1,-1,-1,-1,46,-1,48,50,52,54,-1,-1,-1,56,-1,-1,-1,-1,-1,-1,-1,-1,-1,-1,-1,-1],"split_conditions":[3.2E1,3.1E4,3.3E4,3.2E1,3.2E1,3.3E1,1.3E1,1.2E4,1.4E4,-6.102413E2,1.3E1,3.2E4,3.15E4,-6.6495685E2,3.1E4,1.3E1,-2.5556297E2,6.8308014E1,4.0933377E2,3.2E4,6.5E3,2.505E4,1.4E4,2.505E4,3E4,2.505E4,1.2E4,-1.4404861E2,1.3887169E2,-2.2212701E2,1.6043008E2,9.342773E0,-4.566518E2,1.5578145E2,-2.1444029E2,3.1E4,3.2355392E2,1.3E1,6.5E3,3.1E4,3.1E4,-2.1229945E2,2.5036748E2,1.3624747E2,1.3E1,2.9421095E1,-3.5725555E2,-4.6259164E2,1.5358092E2,1.24569145E2,5.494348E2,2.3420143E2,-7.90822E1,-3.289192E2,1.007855E2,-4.4459607E2,-1.7988426E2],"split_indices":[2,1,0,1,4,1,1,4,1,0,0,2,2,0,2,0,0,0,0,1,4,2,4,0,0,1,1,0,0,0,0,0,0,0,0,3,0,3,2,4,4,0,0,0,4,0,0,0,0,0,0,0,0,0,0,0,0],"split_type":[0,0,0,0,0,0,0,0,0,0,0,0,0,0,0,0,0,0,0,0,0,0,0,0,0,0,0,0,0,0,0,0,0,0,0,0,0,0,0,0,0,0,0,0,0,0,0,0,0,0,0,0,0,0,0,0,0],"sum_hessian":[8.2E1,2E1,6.2E1,1E1,1E1,4.5E1,1.7E1,6E0,4E0,3E0,7E0,1.4E1,3.1E1,1E0,1.6E1,3E0,3E0,1E0,3E0,3E0,4E0,8E0,6E0,1.3E1,1.8E1,5E0,1.1E1,1E0,2E0,1E0,2E0,1E0,3E0,1E0,7E0,4E0,2E0,7E0,6E0,1.1E1,7E0,1E0,4E0,1E0,1E1,3E0,1E0,1E0,6E0,1E0,5E0,7E0,4E0,4E0,3E0,2E0,8E0],"tree_param":{"num_deleted":"0","num_feature":"5","num_nodes":"57","size_leaf_vector":"1"}},{"base_weights":[-1.2309817E2,-4.1315042E2,-2.4460148E1,2.0643095E2,-9.9517267E2,6.793051E2,-1.39177E2,-3.3515985E2,9.233719E2,-4.72937E2,-5.8013403E2,7.657595E2,-1.8495117E0,6.0362152E1,-6.2932635E2,7.3674805E1,-1.9806137E2,5.806172E1,3.172336E2,6.18042E0,-9.331588E2,2.6276184E2,2.9027994E2,-2.0803114E2,4.7595404E2,-5.652133E2,-4.2007553E2,-1.22441315E2,1.11097466E2,-1.8880797E2,1.2834415E2,7.941211E0,-1.1796838E3,1.3241426E2,-1.7882813E0,1.001226E2,-6.8027405E2,-2.0186353E2,6.479014E2,-1.1855894E3,-2.1110497E2,-4.0464066E2,-1.0084937E2,2.0949141E2,-7.0578186E1,-6.063333E2,-9.201727E1,-3.932029E2,1.8138985E2,4.1761172E2,8.563687E1,2.96337E1,-5.631489E2,-1.8719759E2,6.9581955E1],"categories":[],"categories_nodes":[],"categories_segments":[],"categories_sizes":[],"default_left":[0,0,0,0,0,0,0,0,0,0,0,0,0,0,0,0,0,0,0,0,0,0,0,0,0,0,0,0,0,0,0,0,0,0,0,0,0,0,0,0,0,0,0,0,0,0,0,0,0,0,0,0,0,0,0],"id":12,"left_children":[1,3,5,7,9,11,13,15,17,-1,19,21,-1,23,25,27,-1,-1,-1,29,31,-1,33,35,37,-1,39,-1,-1,-1,-1,-1,41,-1,-1,43,45,47,49,51,53,-1,-1,-1,-1,-1,-1,-1,-1,-1,-1,-1,-1,-1,-1],"loss_changes":[2.364539E6,7.7782475E6,5.180769E6,4.580652E6,1.739251E6,5.38078E5,5.417207E6,9.788671E5,2.84599E5,0E0,1.6616358E6,1.646045E5,0E0,4.5606965E6,3.4093715E6,7.228623E5,0E0,0E0,0E0,1.3411089E6,1.214091E6,0E0,1.3691783E5,3.706196E6,1.995571E6,0E0,2.1492638E6,0E0,0E0,0E0,0E0,0E0,1.171985E5,0E0,0E0,3.3742072E6,4.3887695E6,4.3694915E6,3.1088525E6,2.8501305E6,2.522785E6,0E0,0E0,0E0,0E0,0E0,0E0,0E0,0E0,0E0,0E0,0E0,0E0,0E0,0E0],"parents":[2147483647,0,0,1,1,2,2,3,3,4,4,5,5,6,6,7,7,8,8,10,10,11,11,13,13,14,14,15,15,19,19,20,20,22,22,23,23,24,24,26,26,32,32,35,35,36,36,37,37,38,38,39,39,40,40],"right_children":[2,4,6,8,10,12,14,16,18,-1,20,22,-1,24,26,28,-1,-1,-1,30,32,-1,34,36,38,-1,40,-1,-1,-1,-1,-1,42,-1,-1,44,46,48,50,52,54,-1,-1,-1,-1,-1,-1,-1,-1,-1,-1,-1,-1,-1,-1],"split_conditions":[3.2E1,3.1E4,2.505E4,3.2E1,3.2E1,3.3E4,3.3E4,1.2E4,1.4E4,-4.72937E2,1.3E1,1.4E4,-1.8495117E0,3.1E4,1.3E1,1.3E1,-1.9806137E2,5.806172E1,3.172336E2,3.2E4,6.5E3,2.6276184E2,3.2E4,3.15E4,1.3E1,-5.652133E2,1.3E1,-1.22441315E2,1.11097466E2,-1.8880797E2,1.2834415E2,7.941211E0,3.1E4,1.3241426E2,-1.7882813E0,1.3E1,3.3E4,3.1E4,3.1E4,1.3E1,3.3E4,-4.0464066E2,-1.0084937E2,2.0949141E2,-7.0578186E1,-6.063333E2,-9.201727E1,-3.932029E2,1.8138985E2,4.1761172E2,8.563687E1,2.96337E1,-5.631489E2,-1.8719759E2,6.9581955E1],"split_indices":[2,1,2,1,4,3,0,4,1,0,0,2,0,1,1,0,0,0,0,1,4,0,0,3,0,0,4,0,0,0,0,0,0,0,0,0,3,2,2,3,1,0,0,0,0,0,0,0,0,0,0,0,0,0,0],"split_type":[0,0,0,0,0,0,0,0,0,0,0,0,0,0,0,0,0,0,0,0,0,0,0,0,0,0,0,0,0,0,0,0,0,0,0,0,0,0,0,0,0,0,0,0,0,0,0,0,0,0,0,0,0,0,0],"sum_hessian":[8.2E1,2E1,6.2E1,1E1,1E1,8E0,5.4E1,6E0,4E0,3E0,7E0,7E0,1E0,3.9E1,1.5E1,3E0,3E0,1E0,3E0,3E0,4E0,5E0,2E0,2.4E1,1.5E1,1E0,1.4E1,1E0,2E0,1E0,2E0,1E0,3E0,1E0,1E0,1.5E1,9E0,3E0,1.2E1,2E0,1.2E1,2E0,1E0,5E0,1E1,1E0,8E0,1E0,2E0,3E0,9E0,1E0,1E0,6E0,6E0],"tree_param":{"num_deleted":"0","num_feature":"5","num_nodes":"55","size_leaf_vector":"1"}},{"base_weights":[-1.0975753E2,4.0086613E0,-2.6589426E2,3.405155E2,-1.1433182E2,-5.0690414E2,1.3182797E2,5.6682135E2,1.2822168E2,-3.7532632E2,1.8201385E2,-3.2964996E2,-1.2221354E3,4.2679938E2,-1.4275052E2,3.9534964E2,1.5305283E2,-5.993587E1,1.3853888E2,-1.8287799E2,-6.0477673E2,-2.5286278E1,4.442998E2,-7.1371326E2,1.7638852E2,-4.4517215E2,-6.552305E1,-1.5720704E0,4.9967935E2,4.2341486E2,-8.147696E2,-1.7865234E1,2.7295328E2,-1.3103711E2,5.4844402E1,1.894812E2,-1.02123645E3,2.0102931E2,-1.6183444E2,1.19961716E2,2.2159425E2,3.1397852E2,-1.138345E3,-2.6993546E2,4.2338327E2,2.1088411E2,5.9135596E2,1.5102408E2,1.5512989E1,7.9450195E1,-5.246144E2,-2.1861916E1,1.3822559E1,9.7640335E1,2.5188644E1,-6.587813E1,2.0194923E1,2.4386133E1,2.9384768E-1,-1.2126554E2,1.6926825E2,-1.13979225E2,-4.6076962E2,4.708259E1,-2.8738803E2,6.6469635E1,1.1750831E1,1.8045372E2,-8.229346E1,-1.7736845E2,-5.5593915E2,-7.8310844E1,1.6753452E2,-6.6211525E1,1.6110938E2,2.0900255E2,4.130977E1,-8.5721924E1,1.2147452E2],"categories":[],"categories_nodes":[],"categories_segments":[],"categories_sizes":[],"default_left":[0,0,0,0,0,0,0,0,0,0,0,0,0,0,0,0,0,0,0,0,0,0,0,0,0,0,0,0,0,0,0,0,0,0,0,0,0,0,0,0,0,0,0,0,0,0,0,0,0,0,0,0,0,0,0,0,0,0,0,0,0,0,0,0,0,0,0,0,0,0,0,0,0,0,0,0,0,0,0],"id":13,"left_children":[1,3,5,7,9,11,13,15,17,19,21,23,25,27,29,-1,31,33,-1,35,-1,37,39,41,43,-1,-1,-1,45,47,49,51,53,55,57,59,61,-1,63,65,-1,67,69,-1,71,73,75,-1,-1,77,-1,-1,-1,-1,-1,-1,-1,-1,-1,-1,-1,-1,-1,-1,-1,-1,-1,-1,-1,-1,-1,-1,-1,-1,-1,-1,-1,-1,-1],"loss_changes":[1.4754019E6,1.9902286E6,3.4217482E6,5.518846E5,2.9300645E6,2.386233E6,1.1948251E6,1.6627694E6,5.2979475E5,5.945932E6,9.899291E5,3.818556E6,7.26887E5,2.2302775E5,3.3887768E6,0E0,1.0734215E5,5.6152773E4,0E0,6.1247445E6,0E0,1.1529322E6,6.7513575E5,5.157712E6,2.7732362E6,0E0,0E0,0E0,3.4147E4,1.22648125E5,3.4795435E6,1.3909309E4,2.4473438E3,8.504435E4,4.193382E3,3.3428855E6,1.3968E6,0E0,2.6882048E6,3.2365383E4,0E0,8.41615E5,2.032947E6,0E0,8.853046E5,5.4081025E5,9.518325E4,0E0,0E0,4.7226978E5,0E0,0E0,0E0,0E0,0E0,0E0,0E0,0E0,0E0,0E0,0E0,0E0,0E0,0E0,0E0,0E0,0E0,0E0,0E0,0E0,0E0,0E0,0E0,0E0,0E0,0E0,0E0,0E0,0E0],"parents":[2147483647,0,0,1,1,2,2,3,3,4,4,5,5,6,6,7,7,8,8,9,9,10,10,11,11,12,12,13,13,14,14,16,16,17,17,19,19,21,21,22,22,23,23,24,24,28,28,29,29,30,30,31,31,32,32,33,33,34,34,35,35,36,36,38,38,39,39,41,41,42,42,44,44,45,45,46,46,49,49],"right_children":[2,4,6,8,10,12,14,16,18,20,22,24,26,28,30,-1,32,34,-1,36,-1,38,40,42,44,-1,-1,-1,46,48,50,52,54,56,58,60,62,-1,64,66,-1,68,70,-1,72,74,76,-1,-1,78,-1,-1,-1,-1,-1,-1,-1,-1,-1,-1,-1,-1,-1,-1,-1,-1,-1,-1,-1,-1,-1,-1,-1,-1,-1,-1,-1,-1,-1],"split_conditions":[3.2E4,1.3E1,3.3E4,3.2E1,1.0666667E4,3.1E4,3.1E4,1.3E1,3.1E4,3.3E4,3.2E4,1.4E4,3.1E4,2.505E4,3.3E4,3.9534964E2,3.15E4,3.1E4,1.3853888E2,3.3E4,-6.0477673E2,1.2E4,3.3E4,3.3E4,1.3E1,-4.4517215E2,-6.552305E1,-1.5720704E0,3.15E4,1.2E4,3.1E4,3.2E1,1.3E1,1.3E1,1.3E1,1.3E1,1.3E1,2.0102931E2,2.505E4,3.3E4,2.2159425E2,3.1E4,3.1E4,-2.6993546E2,3.3E4,3.1E4,1.2E4,1.5102408E2,1.5512989E1,3.15E4,-5.246144E2,-2.1861916E1,1.3822559E1,9.7640335E1,2.5188644E1,-6.587813E1,2.0194923E1,2.4386133E1,2.9384768E-1,-1.2126554E2,1.6926825E2,-1.13979225E2,-4.6076962E2,4.708259E1,-2.8738803E2,6.6469635E1,1.1750831E1,1.8045372E2,-8.229346E1,-1.7736845E2,-5.5593915E2,-7.8310844E1,1.6753452E2,-6.6211525E1,1.6110938E2,2.0900255E2,4.130977E1,-8.5721924E1,1.2147452E2],"split_indices":[3,4,4,3,3,4,1,0,0,2,1,4,1,0,0,0,0,1,0,0,0,3,2,3,2,0,0,0,2,0,2,0,1,0,0,0,3,0,2,1,0,2,1,0,3,0,1,0,0,1,0,0,0,0,0,0,0,0,0,0,0,0,0,0,0,0,0,0,0,0,0,0,0,0,0,0,0,0,0],"split_type":[0,0,0,0,0,0,0,0,0,0,0,0,0,0,0,0,0,0,0,0,0,0,0,0,0,0,0,0,0,0,0,0,0,0,0,0,0,0,0,0,0,0,0,0,0,0,0,0,0,0,0,0,0,0,0,0,0,0,0,0,0,0,0,0,0,0,0,0,0,0,0,0,0,0,0,0,0,0,0],"sum_hessian":[8.2E1,4.8E1,3.4E1,1.2E1,3.6E1,2.1E1,1.3E1,5E0,7E0,1.9E1,1.7E1,1.8E1,3E0,6E0,7E0,1E0,4E0,5E0,2E0,1.8E1,1E0,1E1,7E0,1E1,8E0,2E0,1E0,1E0,5E0,4E0,3E0,2E0,2E0,3E0,2E0,1.3E1,5E0,1E0,9E0,4E0,3E0,3E0,7E0,1E0,7E0,2E0,3E0,3E0,1E0,2E0,1E0,1E0,1E0,1E0,1E0,2E0,1E0,1E0,1E0,5E0,8E0,3E0,2E0,7E0,2E0,1E0,3E0,2E0,1E0,5E0,2E0,1E0,6E0,1E0,1E0,2E0,1E0,1E0,1E0],"tree_param":{"num_deleted":"0","num_feature":"5","num_nodes":"79","size_leaf_vector":"1"}},{"base_weights":[-9.548739E1,-3.0433542E2,-1.98399E1,9.305423E1,-5.3806195E2,8.873789E2,-9.770635E1,-3.3585504E2,3.634847E2,-1.7885487E2,-9.871956E2,6.87876E1,2.983733E2,4.7359013E1,-2.660169E2,-1.2195354E2,-1.8582716E1,1.1749219E1,1.2615481E2,-5.2437396E2,2.0609239E2,-5.0161526E1,-1.1177527E3,-2.9605237E2,3.309041E2,1.7679247E2,-5.368926E2,-2.0339111E2,-7.190522E1,-1.0915958E2,-4.4971683E2,6.4265625E2,-6.958243E2,8.015454E2,-4.146267E1,3.3604718E2,-2.9559742E1,-1.0661737E3,-3.4731992E2,4.229004E1,2.1985109E2,-3.1630438E2,-1.2887534E2,4.1656918E2,1.12333595E2,-2.6775446E2,7.404851E1,-2.0419817E2,1.5538527E2,-5.140602E2,-8.3762695E1,-2.4925024E2,-5.9249416E1],"categories":[],"categories_nodes":[],"categories_segments":[],"categories_sizes":[],"default_left":[0,0,0,0,0,0,0,0,0,0,0,0,0,0,0,0,0,0,0,0,0,0,0,0,0,0,0,0,0,0,0,0,0,0,0,0,0,0,0,0,0,0,0,0,0,0,0,0,0,0,0,0,0],"id":14,"left_children":[1,3,5,7,9,11,13,15,17,19,21,-1,-1,23,25,-1,-1,-1,-1,27,-1,-1,29,31,33,35,37,-1,-1,-1,-1,39,41,43,45,-1,47,49,51,-1,-1,-1,-1,-1,-1,-1,-1,-1,-1,-1,-1,-1,-1],"loss_changes":[1.3052649E6,2.0934402E6,4.466501E6,1.1659892E6,2.0820832E6,1.2468175E5,1.4287282E6,5.2234812E4,9.45095E4,3.052677E6,4.554395E5,0E0,0E0,3.2138885E6,3.3334685E6,0E0,0E0,0E0,0E0,1.4359275E5,0E0,0E0,8.91844E5,6.076216E6,3.1877555E6,2.174431E6,1.3354295E6,0E0,0E0,0E0,0E0,1.2290775E5,5.970545E5,1.4857835E6,2.9191552E6,0E0,3.9173942E6,1.5593645E6,8.500859E5,0E0,0E0,0E0,0E0,0E0,0E0,0E0,0E0,0E0,0E0,0E0,0E0,0E0,0E0],"parents":[2147483647,0,0,1,1,2,2,3,3,4,4,5,5,6,6,7,7,8,8,9,9,10,10,13,13,14,14,19,19,22,22,23,23,24,24,25,25,26,26,31,31,32,32,33,33,34,34,36,36,37,37,38,38],"right_children":[2,4,6,8,10,12,14,16,18,20,22,-1,-1,24,26,-1,-1,-1,-1,28,-1,-1,30,32,34,36,38,-1,-1,-1,-1,40,42,44,46,-1,48,50,52,-1,-1,-1,-1,-1,-1,-1,-1,-1,-1,-1,-1,-1,-1],"split_conditions":[3.3E1,1.2E4,1.2E4,3.2E1,3.1E4,3E4,3.15E4,1.3E1,3.15E4,3.15E4,1.3E1,6.87876E1,2.983733E2,1.3E1,2.505E4,-1.2195354E2,-1.8582716E1,1.1749219E1,1.2615481E2,3.1E4,2.0609239E2,-5.0161526E1,1.3E1,3.1E4,3.1E4,1.3E1,3.1E4,-2.0339111E2,-7.190522E1,-1.0915958E2,-4.4971683E2,1.4E4,3.2E1,1.3E1,3.15E4,3.3604718E2,3.1E4,3.1E4,1.3E1,4.229004E1,2.1985109E2,-3.1630438E2,-1.2887534E2,4.1656918E2,1.12333595E2,-2.6775446E2,7.404851E1,-2.0419817E2,1.5538527E2,-5.140602E2,-8.3762695E1,-2.4925024E2,-5.9249416E1],"split_indices":[1,4,1,0,0,0,2,0,0,2,3,0,0,2,0,0,0,0,0,3,0,0,2,1,4,3,0,0,0,0,0,1,4,3,4,0,1,1,4,0,0,0,0,0,0,0,0,0,0,0,0,0,0],"split_type":[0,0,0,0,0,0,0,0,0,0,0,0,0,0,0,0,0,0,0,0,0,0,0,0,0,0,0,0,0,0,0,0,0,0,0,0,0,0,0,0,0,0,0,0,0,0,0,0,0,0,0,0,0],"sum_hessian":[8.2E1,2.1E1,6.1E1,8E0,1.3E1,4E0,5.7E1,3E0,5E0,8E0,5E0,1E0,3E0,3.1E1,2.6E1,2E0,1E0,1E0,4E0,6E0,2E0,1E0,4E0,1.4E1,1.7E1,1E1,1.6E1,3E0,3E0,2E0,2E0,4E0,1E1,7E0,1E1,1E0,9E0,3E0,1.3E1,1E0,3E0,3E0,7E0,2E0,5E0,2E0,8E0,4E0,5E0,1E0,2E0,2E0,1.1E1],"tree_param":{"num_deleted":"0","num_feature":"5","num_nodes":"53","size_leaf_vector":"1"}},{"base_weights":[-7.624643E1,1.7953447E1,-2.059478E2,3.0367328E2,-8.291982E1,-3.4739536E2,3.1037493E1,4.4744492E2,1.5788538E2,-3.1357166E2,-2.7154335E1,-2.2843222E2,-1.0246844E3,2.5253516E2,-1.6665265E2,2.8564014E2,1.5608038E2,-3.3956543E1,8.3934555E1,-2.5013808E2,3.016988E2,-4.773592E2,6.82307E1,-4.1797775E2,-4.3130276E1,-1.2443555E1,3.0845053E2,2.6458398E2,-6.640353E2,-1.2908203E1,8.191266E1,-1.1862891E1,-2.5795898E0,-1.09808815E2,-8.541676E2,7.2232275E2,-1.5663754E2,-1.732909E2,-3.6913336E2,-2.8803445E2,4.8210272E2,1.299362E2,1.0956709E2,3.5810873E2,2.4859377E1,8.5807945E1,-4.3703476E2,-1.5795411E1,9.986719E0,-1.6581705E2,7.8767555E1,1.3996114E2,-4.3497446E2,2.7235733E2,3.3143555E1,-1.824618E2,1.3409473E2,6.272974E1,-1.1980073E2,-1.2860355E2,6.2277836E1,-5.767676E1,2.096269E2,-4.5493946E1,1.0396524E2,1.38287115E1,1.4732022E2,-5.3532425E1,9.2145996E1],"categories":[],"categories_nodes":[],"categories_segments":[],"categories_sizes":[],"default_left":[0,0,0,0,0,0,0,0,0,0,0,0,0,0,0,0,0,0,0,0,0,0,0,0,0,0,0,0,0,0,0,0,0,0,0,0,0,0,0,0,0,0,0,0,0,0,0,0,0,0,0,0,0,0,0,0,0,0,0,0,0,0,0,0,0,0,0,0,0],"id":15,"left_children":[1,3,5,7,9,11,13,15,17,-1,19,21,23,25,27,-1,29,31,-1,33,35,37,39,-1,-1,-1,41,43,45,47,-1,-1,-1,49,51,53,55,57,-1,59,61,63,-1,65,-1,67,-1,-1,-1,-1,-1,-1,-1,-1,-1,-1,-1,-1,-1,-1,-1,-1,-1,-1,-1,-1,-1,-1,-1],"loss_changes":[1.0177794E6,1.4374338E6,1.1840169E6,2.0183725E5,1.9571925E6,1.5385228E6,6.551163E5,7.336811E5,1.9657923E5,0E0,2.7153065E6,1.5095185E6,7.737455E5,1.2787322E5,1.8916099E6,0E0,1.02350516E5,2.26625E2,0E0,1.7709912E6,3.0049518E6,2.3056582E6,1.6133441E6,0E0,0E0,0E0,1.3353125E4,5.530178E4,2.502748E6,7.260791E3,0E0,0E0,0E0,3.2787342E6,3.823664E6,8.0784925E5,2.4524635E6,8.614364E5,0E0,5.0723253E5,8.648511E5,2.3553794E5,0E0,1.01818375E5,0E0,2.3028E5,0E0,0E0,0E0,0E0,0E0,0E0,0E0,0E0,0E0,0E0,0E0,0E0,0E0,0E0,0E0,0E0,0E0,0E0,0E0,0E0,0E0,0E0,0E0],"parents":[2147483647,0,0,1,1,2,2,3,3,4,4,5,5,6,6,7,7,8,8,10,10,11,11,12,12,13,13,14,14,16,16,17,17,19,19,20,20,21,21,22,22,26,26,27,27,28,28,29,29,33,33,34,34,35,35,36,36,37,37,39,39,40,40,41,41,43,43,45,45],"right_children":[2,4,6,8,10,12,14,16,18,-1,20,22,24,26,28,-1,30,32,-1,34,36,38,40,-1,-1,-1,42,44,46,48,-1,-1,-1,50,52,54,56,58,-1,60,62,64,-1,66,-1,68,-1,-1,-1,-1,-1,-1,-1,-1,-1,-1,-1,-1,-1,-1,-1,-1,-1,-1,-1,-1,-1,-1,-1],"split_conditions":[3.2E4,1.3E1,3.3E4,3.2E1,3.2E1,3.15E4,3.1E4,1.3E1,1.3E1,-3.1357166E2,3.3E4,1.4E4,1.3E1,2.505E4,3.3E4,2.8564014E2,3.15E4,3.1E4,8.3934555E1,3.3E4,3.1E4,3.3E4,3.1E4,-4.1797775E2,-4.3130276E1,-1.2443555E1,3.15E4,1.3E1,3.1E4,3.2E1,8.191266E1,-1.1862891E1,-2.5795898E0,1.3E1,1.3E1,2.505E4,3.1E4,3.3E4,-3.6913336E2,3.3E4,3.3E4,3.1E4,1.0956709E2,1.2E4,2.4859377E1,3.15E4,-4.3703476E2,-1.5795411E1,9.986719E0,-1.6581705E2,7.8767555E1,1.3996114E2,-4.3497446E2,2.7235733E2,3.3143555E1,-1.824618E2,1.3409473E2,6.272974E1,-1.1980073E2,-1.2860355E2,6.2277836E1,-5.767676E1,2.096269E2,-4.5493946E1,1.0396524E2,1.38287115E1,1.4732022E2,-5.3532425E1,9.2145996E1],"split_indices":[3,4,4,3,4,4,1,0,0,0,1,4,0,0,0,0,0,1,0,2,4,2,2,0,0,0,2,0,2,0,0,0,0,1,0,3,2,3,0,1,3,0,0,2,0,1,0,0,0,0,0,0,0,0,0,0,0,0,0,0,0,0,0,0,0,0,0,0,0],"split_type":[0,0,0,0,0,0,0,0,0,0,0,0,0,0,0,0,0,0,0,0,0,0,0,0,0,0,0,0,0,0,0,0,0,0,0,0,0,0,0,0,0,0,0,0,0,0,0,0,0,0,0,0,0,0,0,0,0,0,0,0,0,0,0,0,0,0,0,0,0],"sum_hessian":[8.2E1,4.8E1,3.4E1,1.2E1,3.6E1,2.1E1,1.3E1,5E0,7E0,1E0,3.5E1,1.9E1,2E0,6E0,7E0,1E0,4E0,3E0,4E0,2.1E1,1.4E1,1E1,9E0,1E0,1E0,1E0,5E0,4E0,3E0,2E0,2E0,2E0,1E0,1.8E1,3E0,7E0,7E0,8E0,2E0,5E0,4E0,2E0,3E0,2E0,2E0,2E0,1E0,1E0,1E0,8E0,1E1,1E0,2E0,5E0,2E0,4E0,3E0,3E0,5E0,4E0,1E0,1E0,3E0,1E0,1E0,1E0,1E0,1E0,1E0],"tree_param":{"num_deleted":"0","num_feature":"5","num_nodes":"69","size_leaf_vector":"1"}},{"base_weights":[-6.3803368E1,1.2419289E1,-1.6869214E2,2.4574362E2,-6.989519E1,-2.796171E2,1.7667969E1,3.735021E2,1.1920679E2,-2.593185E2,1.4445825E2,-1.7693158E2,-8.709816E2,1.9900279E2,-1.432085E2,2.4279405E2,1.2447715E2,-2.7379883E1,6.3790432E1,-1.4254405E2,-3.7170502E2,-3.94857E1,2.397207E2,-3.7289746E2,5.6324062E1,-3.552811E2,-3.6660645E1,-1.0577051E1,2.439222E2,2.2241055E2,-5.644302E2,-1.0972005E1,6.5530174E1,-9.490235E0,-2.1925783E0,1.1701127E2,-7.244158E2,-1.6003294E2,1.3174773E2,1.446857E2,1.05278435E2,-1.27645065E2,-2.9530667E2,-1.908233E2,2.0393288E2,1.1044596E2,8.491465E1,3.0439258E2,1.98875E1,7.293652E1,-3.7147955E2,-1.3426172E1,8.48877E0,1.7701454E2,-3.9362537E1,-9.4226524E1,-3.090141E2,-5.416426E1,9.9909676E1,-5.1955814E1,8.2012505E1,4.8615383E1,-8.985053E1,-1.0599176E1,1.2072293E2,-3.8669827E1,8.8370514E1,1.1754493E1,1.25222176E2,-4.550259E1,7.832403E1],"categories":[],"categories_nodes":[],"categories_segments":[],"categories_sizes":[],"default_left":[0,0,0,0,0,0,0,0,0,0,0,0,0,0,0,0,0,0,0,0,0,0,0,0,0,0,0,0,0,0,0,0,0,0,0,0,0,0,0,0,0,0,0,0,0,0,0,0,0,0,0,0,0,0,0,0,0,0,0,0,0,0,0,0,0,0,0,0,0,0,0],"id":16,"left_children":[1,3,5,7,9,11,13,15,17,19,21,23,25,27,29,-1,31,33,-1,35,-1,37,39,41,43,-1,-1,-1,45,47,49,51,-1,-1,-1,53,55,-1,57,-1,59,61,-1,-1,63,65,-1,67,-1,69,-1,-1,-1,-1,-1,-1,-1,-1,-1,-1,-1,-1,-1,-1,-1,-1,-1,-1,-1,-1,-1],"loss_changes":[6.6567175E5,9.5826875E5,7.2845994E5,1.6563606E5,1.5397918E6,1.1818365E6,4.36914E5,5.504264E5,1.1538428E5,2.1114605E6,3.2487862E5,9.3520625E5,5.59032E5,8.225956E4,1.3575886E6,0E0,6.60285E4,1.1035083E2,0E0,2.954295E6,0E0,6.62354E5,3.405575E5,1.5239286E6,1.151763E6,0E0,0E0,0E0,7.325E1,4.381603E4,1.8082345E6,5.2459854E3,0E0,0E0,0E0,1.7212594E6,4.2892725E5,0E0,4.3728928E5,0E0,4.68625E5,4.96611E5,0E0,0E0,4.416118E5,1.7017622E5,0E0,7.356347E4,0E0,1.663772E5,0E0,0E0,0E0,0E0,0E0,0E0,0E0,0E0,0E0,0E0,0E0,0E0,0E0,0E0,0E0,0E0,0E0,0E0,0E0,0E0,0E0],"parents":[2147483647,0,0,1,1,2,2,3,3,4,4,5,5,6,6,7,7,8,8,9,9,10,10,11,11,12,12,13,13,14,14,16,16,17,17,19,19,21,21,22,22,23,23,24,24,28,28,29,29,30,30,31,31,35,35,36,36,38,38,40,40,41,41,44,44,45,45,47,47,49,49],"right_children":[2,4,6,8,10,12,14,16,18,20,22,24,26,28,30,-1,32,34,-1,36,-1,38,40,42,44,-1,-1,-1,46,48,50,52,-1,-1,-1,54,56,-1,58,-1,60,62,-1,-1,64,66,-1,68,-1,70,-1,-1,-1,-1,-1,-1,-1,-1,-1,-1,-1,-1,-1,-1,-1,-1,-1,-1,-1,-1,-1],"split_conditions":[3.2E4,1.3E1,3.3E4,3.2E1,1.0666667E4,3.15E4,3.1E4,1.3E1,1.3E1,3.3E4,1.3E1,1.4E4,1.3E1,2.505E4,3.3E4,2.4279405E2,3.15E4,3.1E4,6.3790432E1,3.3E4,-3.7170502E2,1.3E1,1.0666667E4,3.3E4,1.3E1,-3.552811E2,-3.6660645E1,-1.0577051E1,3.15E4,1.3E1,3.1E4,3.2E1,6.5530174E1,-9.490235E0,-2.1925783E0,3.1E4,1.3E1,-1.6003294E2,1.3E1,1.446857E2,3.1E4,3.3E4,-2.9530667E2,-1.908233E2,2.505E4,3.1E4,8.491465E1,1.2E4,1.98875E1,3.15E4,-3.7147955E2,-1.3426172E1,8.48877E0,1.7701454E2,-3.9362537E1,-9.4226524E1,-3.090141E2,-5.416426E1,9.9909676E1,-5.1955814E1,8.2012505E1,4.8615383E1,-8.985053E1,-1.0599176E1,1.2072293E2,-3.8669827E1,8.8370514E1,1.1754493E1,1.25222176E2,-4.550259E1,7.832403E1],"split_indices":[3,4,4,3,3,4,1,0,0,2,2,4,0,0,0,0,0,1,0,0,0,0,0,2,2,0,0,0,2,0,2,0,0,0,0,4,3,0,1,0,1,3,0,0,1,0,0,2,0,1,0,0,0,0,0,0,0,0,0,0,0,0,0,0,0,0,0,0,0,0,0],"split_type":[0,0,0,0,0,0,0,0,0,0,0,0,0,0,0,0,0,0,0,0,0,0,0,0,0,0,0,0,0,0,0,0,0,0,0,0,0,0,0,0,0,0,0,0,0,0,0,0,0,0,0,0,0,0,0,0,0,0,0,0,0,0,0,0,0,0,0,0,0,0,0],"sum_hessian":[8.2E1,4.8E1,3.4E1,1.2E1,3.6E1,2.1E1,1.3E1,5E0,7E0,1.9E1,1.7E1,1.9E1,2E0,6E0,7E0,1E0,4E0,3E0,4E0,1.8E1,1E0,6E0,1.1E1,1E1,9E0,1E0,1E0,1E0,5E0,4E0,3E0,2E0,2E0,2E0,1E0,1.3E1,5E0,1E0,5E0,3E0,8E0,8E0,2E0,1E0,8E0,2E0,3E0,2E0,2E0,2E0,1E0,1E0,1E0,4E0,9E0,3E0,2E0,2E0,3E0,3E0,5E0,3E0,5E0,4E0,4E0,1E0,1E0,1E0,1E0,1E0,1E0],"tree_param":{"num_deleted":"0","num_feature":"5","num_nodes":"71","size_leaf_vector":"1"}},{"base_weights":[-5.7774082E1,-1.9946005E2,-9.628373E0,1.3226244E2,-5.130498E2,3.1791296E2,-6.3050987E1,-3.7270996E1,1.3147911E2,-2.0990648E2,-3.5559937E2,1.4034422E2,1.044293E2,1.3318828E2,-1.3330801E2,1.4838684E2,-1.7834306E2,-6.964014E1,-5.132469E2,7.6643555E1,2.7973633E0,1.5174527E1,2.6780713E2,-2.4721129E2,-7.675681E1,-2.7729128E1,7.784082E1,-7.1451164E1,9.14502E0,-1.3602803E2,6.2829296E1,4.360547E0,-6.488262E2,-8.990625E0,2.3708984E1,3.184793E2,-1.3799532E2,6.0506523E1,-1.4771565E2,-2.3374571E2,-3.867715E1,9.991406E0,6.7763674E-1,2.0637482E2,1.6242342E1,2.4212507E1,-3.1594928E2,-1.9943703E1,7.227012E1,-1.2344181E2,-1.4404476E1],"categories":[],"categories_nodes":[],"categories_segments":[],"categories_sizes":[],"default_left":[0,0,0,0,0,0,0,0,0,0,0,0,0,0,0,0,0,0,0,0,0,0,0,0,0,0,0,0,0,0,0,0,0,0,0,0,0,0,0,0,0,0,0,0,0,0,0,0,0,0,0],"id":17,"left_children":[1,3,5,7,9,11,13,15,-1,-1,17,-1,19,21,23,25,27,29,31,-1,33,35,-1,-1,37,-1,-1,-1,-1,-1,-1,-1,39,-1,41,43,45,47,49,-1,-1,-1,-1,-1,-1,-1,-1,-1,-1,-1,-1],"loss_changes":[5.6427E5,2.2523772E6,1.1224259E6,5.869864E5,7.444075E4,2.3915944E5,7.760504E5,2.3599286E5,0E0,0E0,3.249035E5,0E0,7.604247E4,1.3309294E6,1.5382744E6,1.3098526E5,6.972803E4,5.233767E5,3.6721238E5,0E0,3.4512986E3,6.943487E5,0E0,0E0,3.8879962E5,0E0,0E0,0E0,0E0,0E0,0E0,0E0,1.7057625E5,0E0,5.4226086E2,4.510366E5,2.0865069E6,3.3671853E5,6.639592E5,0E0,0E0,0E0,0E0,0E0,0E0,0E0,0E0,0E0,0E0,0E0,0E0],"parents":[2147483647,0,0,1,1,2,2,3,3,4,4,5,5,6,6,7,7,10,10,12,12,13,13,14,14,15,15,16,16,17,17,18,18,20,20,21,21,24,24,32,32,34,34,35,35,36,36,37,37,38,38],"right_children":[2,4,6,8,10,12,14,16,-1,-1,18,-1,20,22,24,26,28,30,32,-1,34,36,-1,-1,38,-1,-1,-1,-1,-1,-1,-1,40,-1,42,44,46,48,50,-1,-1,-1,-1,-1,-1,-1,-1,-1,-1,-1,-1],"split_conditions":[3.2E1,3.1E4,2.505E4,1.4E4,3.2E1,3.1E4,3.3E1,1.2E4,1.3147911E2,-2.0990648E2,1.3E1,1.4034422E2,3.3E1,1.3E1,6.5E3,1.3E1,1.3E1,3.2E4,6.5E3,7.6643555E1,3E4,1.3E1,2.6780713E2,-2.4721129E2,3.15E4,-2.7729128E1,7.784082E1,-7.1451164E1,9.14502E0,-1.3602803E2,6.2829296E1,4.360547E0,3.1E4,-8.990625E0,1.3E1,1.3E1,3.3E4,3.1E4,1.4E4,-2.3374571E2,-3.867715E1,9.991406E0,6.7763674E-1,2.0637482E2,1.6242342E1,2.4212507E1,-3.1594928E2,-1.9943703E1,7.227012E1,-1.2344181E2,-1.4404476E1],"split_indices":[2,1,2,1,4,4,3,4,0,0,0,0,2,3,3,0,1,1,4,0,1,4,0,0,3,0,0,0,0,0,0,0,0,0,0,0,2,1,4,0,0,0,0,0,0,0,0,0,0,0,0],"split_type":[0,0,0,0,0,0,0,0,0,0,0,0,0,0,0,0,0,0,0,0,0,0,0,0,0,0,0,0,0,0,0,0,0,0,0,0,0,0,0,0,0,0,0,0,0,0,0,0,0,0,0],"sum_hessian":[8.2E1,2E1,6.2E1,1E1,1E1,8E0,5.4E1,7E0,3E0,3E0,7E0,4E0,4E0,1.4E1,4E1,3E0,4E0,3E0,4E0,1E0,3E0,1.3E1,1E0,2E0,3.8E1,1E0,2E0,3E0,1E0,1E0,2E0,1E0,3E0,1E0,2E0,4E0,9E0,1.3E1,2.5E1,2E0,1E0,1E0,1E0,1E0,3E0,8E0,1E0,8E0,5E0,6E0,1.9E1],"tree_param":{"num_deleted":"0","num_feature":"5","num_nodes":"51","size_leaf_vector":"1"}},{"base_weights":[-4.4625683E1,-1.6018791E2,-5.396593E0,1.0342797E2,-4.0924124E2,1.3509944E2,-8.9559296E1,-2.7613937E1,3.396548E2,-5.422584E2,-2.915775E2,-2.3690765E2,2.7226334E2,1.010324E2,-1.8506761E2,1.1639871E2,-1.3730127E2,2.6767384E1,1.18017E2,-2.3208699E2,-2.2091594E2,-4.5939572E2,-9.900742E1,5.4800564E1,-6.4411884E2,-1.8460844E2,4.621839E2,4.3637598E2,-3.0095482E1,1.2072174E1,-2.8430817E2,-2.3569757E1,6.2272655E1,-5.537465E1,7.77334E0,-1.6146185E2,5.702271E1,-1.618412E2,-3.2875637E1,1.3183545E2,-1.5335684E2,-9.513406E1,9.818086E1,-5.430152E1,-2.3555196E2,-2.4622768E2,1.0677344E2,2.7765973E2,1.5341429E2,1.8378282E2,-1.3848634E1,-2.3789949E2,2.668492E2,-8.406374E1,1.7736737E2,-5.4358E2,-1.7140335E2,5.0263283E1,3.7063477E0,-4.241553E1,6.54286E0,6.2419926E1,-9.033204E0,-2.0024601E1,6.775606E1,1.667793E1,-2.9982825E2,1.0579746E2,2.762715E1,-2.3154837E1,1.1627271E2,2.3416215E-1,-2.720242E2,3.128119E1,-1.1735781E2],"categories":[],"categories_nodes":[],"categories_segments":[],"categories_sizes":[],"default_left":[0,0,0,0,0,0,0,0,0,0,0,0,0,0,0,0,0,0,0,0,0,0,0,0,0,0,0,0,0,0,0,0,0,0,0,0,0,0,0,0,0,0,0,0,0,0,0,0,0,0,0,0,0,0,0,0,0,0,0,0,0,0,0,0,0,0,0,0,0,0,0,0,0,0,0],"id":18,"left_children":[1,3,5,7,9,11,13,15,17,19,21,23,25,27,29,31,33,-1,-1,35,-1,37,39,41,43,45,47,49,51,53,55,-1,-1,-1,-1,-1,-1,-1,-1,57,-1,59,-1,-1,-1,-1,61,-1,63,-1,-1,65,67,-1,69,71,73,-1,-1,-1,-1,-1,-1,-1,-1,-1,-1,-1,-1,-1,-1,-1,-1,-1,-1],"loss_changes":[3.7540778E5,1.4210698E6,7.570445E5,3.4989097E5,1.4053875E4,1.2891239E6,7.4682144E5,1.4235261E5,1.8727562E4,6.9946125E4,2.1305056E5,8.6680594E5,1.6471714E6,6.287535E5,5.316674E5,8.741333E4,4.3366867E4,0E0,0E0,4.8999612E5,0E0,5.2926E4,5.4313925E5,2.3539712E5,5.385225E4,1.1998116E6,1.717893E6,3.6843662E5,7.4225256E5,5.32833E5,4.3374325E5,0E0,0E0,0E0,0E0,0E0,0E0,0E0,0E0,1.4996172E4,0E0,2.4718594E4,0E0,0E0,0E0,0E0,7.559201E4,0E0,1.5861134E5,0E0,0E0,1.620081E6,4.2502844E4,0E0,4.044741E5,9.8917725E5,8.890526E5,0E0,0E0,0E0,0E0,0E0,0E0,0E0,0E0,0E0,0E0,0E0,0E0,0E0,0E0,0E0,0E0,0E0,0E0],"parents":[2147483647,0,0,1,1,2,2,3,3,4,4,5,5,6,6,7,7,8,8,9,9,10,10,11,11,12,12,13,13,14,14,15,15,16,16,19,19,21,21,22,22,23,23,24,24,25,25,26,26,27,27,28,28,29,29,30,30,39,39,41,41,46,46,48,48,51,51,52,52,54,54,55,55,56,56],"right_children":[2,4,6,8,10,12,14,16,18,20,22,24,26,28,30,32,34,-1,-1,36,-1,38,40,42,44,46,48,50,52,54,56,-1,-1,-1,-1,-1,-1,-1,-1,58,-1,60,-1,-1,-1,-1,62,-1,64,-1,-1,66,68,-1,70,72,74,-1,-1,-1,-1,-1,-1,-1,-1,-1,-1,-1,-1,-1,-1,-1,-1,-1,-1],"split_conditions":[3.2E1,3.1E4,3.1E4,1.4E4,3.2E1,1.3E1,3E4,1.2E4,1.3E1,3.1E4,3.3E4,3.1E4,1.3E1,1.2E4,1.2E4,1.3E1,1.3E1,2.6767384E1,1.18017E2,1.3E1,-2.2091594E2,6.5E3,3.1E4,1.4E4,3.1E4,1.3E1,3.3E1,1.3E1,3.3E4,3.2E4,3.1E4,-2.3569757E1,6.2272655E1,-5.537465E1,7.77334E0,-1.6146185E2,5.702271E1,-1.618412E2,-3.2875637E1,1.3E1,-1.5335684E2,1.3E1,9.818086E1,-5.430152E1,-2.3555196E2,-2.4622768E2,1.3E1,2.7765973E2,3E4,1.8378282E2,-1.3848634E1,3.15E4,3.3E1,-8.406374E1,1.4E4,3.3E4,3.1E4,5.0263283E1,3.7063477E0,-4.241553E1,6.54286E0,6.2419926E1,-9.033204E0,-2.0024601E1,6.775606E1,1.667793E1,-2.9982825E2,1.0579746E2,2.762715E1,-2.3154837E1,1.1627271E2,2.3416215E-1,-2.720242E2,3.128119E1,-1.1735781E2],"split_indices":[2,1,2,1,4,1,0,4,4,0,1,4,0,3,1,0,1,0,0,0,0,0,4,0,0,3,3,0,3,2,1,0,0,0,0,0,0,0,0,0,0,0,0,0,0,0,4,0,1,0,0,3,0,0,4,2,3,0,0,0,0,0,0,0,0,0,0,0,0,0,0,0,0,0,0],"split_type":[0,0,0,0,0,0,0,0,0,0,0,0,0,0,0,0,0,0,0,0,0,0,0,0,0,0,0,0,0,0,0,0,0,0,0,0,0,0,0,0,0,0,0,0,0,0,0,0,0,0,0,0,0,0,0,0,0,0,0,0,0,0,0,0,0,0,0,0,0,0,0,0,0,0,0],"sum_hessian":[8.2E1,2E1,6.2E1,1E1,1E1,2.3E1,3.9E1,7E0,3E0,3E0,7E0,6E0,1.7E1,1.3E1,2.6E1,3E0,4E0,1E0,2E0,2E0,1E0,3E0,4E0,4E0,2E0,5E0,1.2E1,3E0,1E1,9E0,1.7E1,1E0,2E0,3E0,1E0,1E0,1E0,2E0,1E0,3E0,1E0,3E0,1E0,1E0,1E0,1E0,4E0,4E0,8E0,2E0,1E0,6E0,4E0,3E0,6E0,4E0,1.3E1,2E0,1E0,2E0,1E0,2E0,2E0,2E0,6E0,5E0,1E0,2E0,2E0,3E0,3E0,2E0,2E0,6E0,7E0],"tree_param":{"num_deleted":"0","num_feature":"5","num_nodes":"75","size_leaf_vector":"1"}},{"base_weights":[-4.2167747E1,8.318505E0,-1.02173004E2,-5.4522617E1,1.1872528E2,-3.1200952E2,-1.60882E1,1.0575186E2,-2.7224707E2,-2.3361919E2,3.8872833E2,5.20867E1,-5.2750543E2,-1.6652538E2,4.1987305E1,1.6458975E2,-7.299025E1,-1.00362625E2,-1.9016893E2,-1.9569801E2,1.4671086E1,2.6896655E2,5.785169E2,1.724502E2,-4.8802283E2,-3.094317E2,-1.1964426E2,-1.2615644E2,-1.1773112E1,1.0191018E2,-9.2417046E1,2.1306787E2,1.5324298E1,-4.0632648E2,8.8811386E1,-2.7315393E2,2.2687207E2,4.7745703E2,-5.8888184E1,2.6825098E1,2.3350752E2,-2.0021916E2,-1.939112E1,3.701309E1,-2.1124379E2,2.313125E1,-2.7944239E1,-4.1312855E1,9.708907E1,2.644497E2,-4.2617953E2,8.290791E1,3.8513844E1,-2.114792E1,5.3789066E1,-1.523935E2,-1.5205665E1,7.301602E1,-6.5088286E0,-2.0057503E1,-1.0286177E2,2.1462307E1,1.0392979E2,5.8486378E1,2.4112003E2,1.9445509E1,-3.6518948E1,-1.1397364E1,-7.6899284E1,-1.7966211E1,2.9531837E1,-6.472123E1,3.327793E1,-9.587402E0,1.12171486E2,2.6857033E1,-2.959933E2],"categories":[],"categories_nodes":[],"categories_segments":[],"categories_sizes":[],"default_left":[0,0,0,0,0,0,0,0,0,0,0,0,0,0,0,0,0,0,0,0,0,0,0,0,0,0,0,0,0,0,0,0,0,0,0,0,0,0,0,0,0,0,0,0,0,0,0,0,0,0,0,0,0,0,0,0,0,0,0,0,0,0,0,0,0,0,0,0,0,0,0,0,0,0,0,0,0],"id":19,"left_children":[1,3,5,7,9,11,13,15,17,19,21,23,25,27,29,31,-1,33,-1,-1,35,37,39,-1,41,-1,43,-1,45,47,49,51,53,55,57,59,61,63,65,-1,-1,-1,-1,-1,67,69,-1,71,-1,73,75,-1,-1,-1,-1,-1,-1,-1,-1,-1,-1,-1,-1,-1,-1,-1,-1,-1,-1,-1,-1,-1,-1,-1,-1,-1,-1],"loss_changes":[2.522935E5,3.2562516E5,6.8140225E5,1.0756608E6,1.7080938E6,8.905499E5,2.5161997E5,4.0972025E5,7.444853E5,8.412584E5,7.1692375E4,1.692236E6,1.3153388E6,3.095008E5,1.7855003E5,1.12512625E5,0E0,6.1489056E5,0E0,0E0,4.2843153E5,5.749533E5,2.2362888E5,0E0,1.84695E5,0E0,1.3736578E5,0E0,1.9196535E4,4.897013E5,9.4646425E5,2.8842125E4,8.299766E4,1.18859E5,1.2485267E5,2.0224062E4,4.9501703E4,3.0417775E5,3.8986016E4,0E0,0E0,0E0,0E0,0E0,2.1507531E4,3.7155195E4,0E0,2.894737E5,0E0,1.4172278E5,1.244461E6,0E0,0E0,0E0,0E0,0E0,0E0,0E0,0E0,0E0,0E0,0E0,0E0,0E0,0E0,0E0,0E0,0E0,0E0,0E0,0E0,0E0,0E0,0E0,0E0,0E0,0E0],"parents":[2147483647,0,0,1,1,2,2,3,3,4,4,5,5,6,6,7,7,8,8,9,9,10,10,11,11,12,12,13,13,14,14,15,15,17,17,20,20,21,21,22,22,24,24,26,26,28,28,29,29,30,30,31,31,32,32,33,33,34,34,35,35,36,36,37,37,38,38,44,44,45,45,47,47,49,49,50,50],"right_children":[2,4,6,8,10,12,14,16,18,20,22,24,26,28,30,32,-1,34,-1,-1,36,38,40,-1,42,-1,44,-1,46,48,50,52,54,56,58,60,62,64,66,-1,-1,-1,-1,-1,68,70,-1,72,-1,74,76,-1,-1,-1,-1,-1,-1,-1,-1,-1,-1,-1,-1,-1,-1,-1,-1,-1,-1,-1,-1,-1,-1,-1,-1,-1,-1],"split_conditions":[3.1E4,3E4,3.3E4,3.1E4,3.3E4,2.505E4,3.2E1,1.2E4,3.3E4,6.5E3,3.3E4,3.3E4,1.3E1,3.1E4,3.3E4,3.3E4,-7.299025E1,1.3E1,-1.9016893E2,-1.9569801E2,6.5E3,3.1E4,3.1E4,1.724502E2,1.3E1,-3.094317E2,1.0666667E4,-1.2615644E2,3.1E4,3.15E4,3.3E4,3E4,1.3E1,3.2E4,1.3E1,1.3E1,3E4,1.4E4,3.15E4,2.6825098E1,2.3350752E2,-2.0021916E2,-1.939112E1,3.701309E1,3.1E4,1.3E1,-2.7944239E1,2.505E4,9.708907E1,2.505E4,3.1E4,8.290791E1,3.8513844E1,-2.114792E1,5.3789066E1,-1.523935E2,-1.5205665E1,7.301602E1,-6.5088286E0,-2.0057503E1,-1.0286177E2,2.1462307E1,1.0392979E2,5.8486378E1,2.4112003E2,1.9445509E1,-3.6518948E1,-1.1397364E1,-7.6899284E1,-1.7966211E1,2.9531837E1,-6.472123E1,3.327793E1,-9.587402E0,1.12171486E2,2.6857033E1,-2.959933E2],"split_indices":[4,4,4,1,1,1,2,4,0,3,3,0,0,0,0,3,0,0,0,0,0,2,2,0,1,0,0,0,1,2,3,3,0,1,4,0,0,2,0,0,0,0,0,0,0,1,0,1,0,2,1,0,0,0,0,0,0,0,0,0,0,0,0,0,0,0,0,0,0,0,0,0,0,0,0,0,0],"split_type":[0,0,0,0,0,0,0,0,0,0,0,0,0,0,0,0,0,0,0,0,0,0,0,0,0,0,0,0,0,0,0,0,0,0,0,0,0,0,0,0,0,0,0,0,0,0,0,0,0,0,0,0,0,0,0,0,0,0,0,0,0,0,0,0,0,0,0,0,0,0,0,0,0,0,0,0,0],"sum_hessian":[8.2E1,4.5E1,3.7E1,2.9E1,1.6E1,1E1,2.7E1,1.7E1,1.2E1,7E0,9E0,4E0,6E0,7E0,2E1,1.5E1,2E0,9E0,3E0,2E0,5E0,7E0,2E0,2E0,2E0,2E0,4E0,2E0,5E0,1.4E1,6E0,1.1E1,4E0,3E0,6E0,2E0,3E0,4E0,3E0,1E0,1E0,1E0,1E0,1E0,3E0,4E0,1E0,9E0,5E0,3E0,3E0,5E0,6E0,3E0,1E0,2E0,1E0,2E0,4E0,1E0,1E0,2E0,1E0,3E0,1E0,1E0,2E0,1E0,2E0,2E0,2E0,4E0,5E0,1E0,2E0,2E0,1E0],"tree_param":{"num_deleted":"0","num_feature":"5","num_nodes":"77","size_leaf_vector":"1"}},{"base_weights":[-3.5684425E1,4.895544E0,-9.431131E1,-9.932252E1,6.1593407E1,-3.782595E2,-1.9956003E1,6.664261E1,-2.7269238E2,2.2351321E2,-1.0394953E2,-1.6757837E2,4.8385418E1,-1.3438461E2,2.4586132E1,-3.431494E1,2.063903E2,-3.718224E2,4.9508465E1,-4.728009E1,4.1779654E2,-2.5550327E2,-3.7663517E1,3.1461329E1,-9.687891E0,-1.0092516E2,-1.0970866E1,9.767403E1,-6.557796E1,1.3541486E2,6.7115234E1,-2.5281639E2,-1.6287877E2,-1.2924903E1,3.5203712E1,-1.592532E2,9.763532E1,6.359033E2,7.250906E1,-1.9839856E2,1.1285156E1,-1.9338481E2,1.23438286E2,1.8505077E1,-2.3752588E1,-6.906695E1,1.8627579E2,1.15236885E2,-3.6560944E2,4.8199417E1,-1.4641797E1,-1.3515234E2,2.8513283E1,-1.0387207E0,5.2297268E1,1.0362056E2,2.4338126E2,3.543213E1,-1.6482454E1,2.9174416E1,-3.699053E1,2.1492249E1,-1.7118979E2,-2.2957048E1,1.9848135E2,-9.690968E0,3.3260742E1,2.6781153E1,1.1485938E2,-1.2013867E1,5.5607815E1,2.1485743E1,-2.5159428E2],"categories":[],"categories_nodes":[],"categories_segments":[],"categories_sizes":[],"default_left":[0,0,0,0,0,0,0,0,0,0,0,0,0,0,0,0,0,0,0,0,0,0,0,0,0,0,0,0,0,0,0,0,0,0,0,0,0,0,0,0,0,0,0,0,0,0,0,0,0,0,0,0,0,0,0,0,0,0,0,0,0,0,0,0,0,0,0,0,0,0,0,0,0],"id":20,"left_children":[1,3,5,7,9,11,13,15,17,19,21,-1,23,25,27,-1,29,31,33,35,37,39,41,-1,-1,-1,43,45,47,-1,49,51,-1,-1,-1,-1,53,55,57,-1,59,61,63,65,-1,-1,67,69,71,-1,-1,-1,-1,-1,-1,-1,-1,-1,-1,-1,-1,-1,-1,-1,-1,-1,-1,-1,-1,-1,-1,-1,-1],"loss_changes":[1.9792512E5,3.015647E5,7.102952E5,5.3609325E5,9.0778844E5,5.656011E5,1.4601703E5,2.7658688E5,3.0586638E5,9.1413406E5,1.6115703E5,0E0,1.705812E4,1.95778E5,1.4479323E5,0E0,1.7443342E5,5.2776875E3,2.3899055E4,6.12436E5,7.069866E5,5.488106E5,3.5000188E5,0E0,0E0,0E0,1.3527484E4,3.9151222E5,5.846331E5,0E0,6.206325E4,4.554326E5,0E0,0E0,0E0,0E0,5.4875094E4,2.545275E4,3.5546453E4,0E0,5.8268777E4,7.40743E5,8.03917E5,2.7045736E4,0E0,0E0,1.5652297E5,8.3644805E4,8.873663E5,0E0,0E0,0E0,0E0,0E0,0E0,0E0,0E0,0E0,0E0,0E0,0E0,0E0,0E0,0E0,0E0,0E0,0E0,0E0,0E0,0E0,0E0,0E0,0E0],"parents":[2147483647,0,0,1,1,2,2,3,3,4,4,5,5,6,6,7,7,8,8,9,9,10,10,12,12,13,13,14,14,16,16,17,17,18,18,19,19,20,20,21,21,22,22,26,26,27,27,28,28,30,30,31,31,36,36,37,37,38,38,40,40,41,41,42,42,43,43,46,46,47,47,48,48],"right_children":[2,4,6,8,10,12,14,16,18,20,22,-1,24,26,28,-1,30,32,34,36,38,40,42,-1,-1,-1,44,46,48,-1,50,52,-1,-1,-1,-1,54,56,58,-1,60,62,64,66,-1,-1,68,70,72,-1,-1,-1,-1,-1,-1,-1,-1,-1,-1,-1,-1,-1,-1,-1,-1,-1,-1,-1,-1,-1,-1,-1,-1],"split_conditions":[3.2E4,6.5E3,3.3E4,3.1E4,3.1E4,3.1E4,3.2E1,3.2E1,3.1E4,6.5E3,3.1E4,-1.6757837E2,1.0666667E4,3.1E4,3.3E4,-3.431494E1,1.3E1,1.3E1,1.3E1,1.3E1,3.1E4,1.3E1,2.505E4,3.1461329E1,-9.687891E0,-1.0092516E2,3.1E4,1.3E1,3.3E4,1.3541486E2,3.1E4,3.3E4,-1.6287877E2,-1.2924903E1,3.5203712E1,-1.592532E2,3.1E4,2.505E4,3.1E4,-1.9839856E2,3E4,3.1E4,3.3E4,1.4E4,-2.3752588E1,-6.906695E1,3.15E4,3.15E4,3.1E4,4.8199417E1,-1.4641797E1,-1.3515234E2,2.8513283E1,-1.0387207E0,5.2297268E1,1.0362056E2,2.4338126E2,3.543213E1,-1.6482454E1,2.9174416E1,-3.699053E1,2.1492249E1,-1.7118979E2,-2.2957048E1,1.9848135E2,-9.690968E0,3.3260742E1,2.6781153E1,1.1485938E2,-1.2013867E1,5.5607815E1,2.1485743E1,-2.5159428E2],"split_indices":[4,0,4,1,2,1,2,1,2,4,0,0,0,0,3,0,3,2,0,3,3,3,4,0,0,0,1,1,0,0,2,1,0,0,0,0,3,2,4,0,0,3,3,1,0,0,2,2,1,0,0,0,0,0,0,0,0,0,0,0,0,0,0,0,0,0,0,0,0,0,0,0,0],"split_type":[0,0,0,0,0,0,0,0,0,0,0,0,0,0,0,0,0,0,0,0,0,0,0,0,0,0,0,0,0,0,0,0,0,0,0,0,0,0,0,0,0,0,0,0,0,0,0,0,0,0,0,0,0,0,0,0,0,0,0,0,0,0,0,0,0,0,0,0,0,0,0,0,0],"sum_hessian":[8.2E1,4.9E1,3.3E1,1.7E1,3.2E1,6E0,2.7E1,9E0,8E0,1.6E1,1.6E1,4E0,2E0,7E0,2E1,4E0,5E0,6E0,2E0,7E0,9E0,4E0,1.2E1,1E0,1E0,2E0,5E0,1.1E1,9E0,1E0,4E0,5E0,1E0,1E0,1E0,1E0,6E0,5E0,4E0,1E0,3E0,6E0,6E0,4E0,1E0,2E0,9E0,6E0,3E0,2E0,2E0,3E0,2E0,3E0,3E0,3E0,2E0,3E0,1E0,2E0,1E0,4E0,2E0,5E0,1E0,3E0,1E0,7E0,2E0,2E0,4E0,2E0,1E0],"tree_param":{"num_deleted":"0","num_feature":"5","num_nodes":"73","size_leaf_vector":"1"}},{"base_weights":[-2.9748446E1,7.3898864E0,-7.392252E1,-3.5868816E1,8.3294075E1,-2.0026097E2,-2.1649466E1,6.6732666E1,-1.7517326E2,-1.5986215E2,2.6948965E2,4.8680286E1,-3.4946744E2,8.536014E1,-4.8623734E1,1.0221328E2,-4.3422443E1,-6.211244E1,-4.1403204E2,-1.6863876E2,-2.209126E1,2.281094E1,3.083484E2,1.3037988E2,-3.534658E2,-2.1449962E2,-6.025519E1,-2.6543293E1,5.8319534E1,2.2528664E1,-1.2829259E2,1.6974089E2,5.608792E1,-2.5552084E2,5.7279854E1,-1.7891286E2,-1.6790843E2,1.0261243E2,-6.6770096E1,1.6844502E2,1.9197433E2,-1.4504953E2,-1.4010085E1,2.674219E1,-1.198893E2,-6.2256557E1,1.7063632E2,2.5262278E1,-3.176109E2,1.1510274E2,1.5065625E1,3.6455658E1,4.0169418E-1,-9.4884315E1,-1.0986035E1,4.7953514E1,-4.7145705E0,-1.3536523E2,5.4854435E1,-9.916246E0,6.1222466E1,6.1508207E0,1.2413067E2,-1.6946889E0,-4.6825928E1,-4.0612995E1,6.9944534E0,6.812949E1,1.7188673E1,-7.230508E1,5.3993206E1,-2.7755861E0,-1.5602988E2],"categories":[],"categories_nodes":[],"categories_segments":[],"categories_sizes":[],"default_left":[0,0,0,0,0,0,0,0,0,0,0,0,0,0,0,0,0,0,0,0,0,0,0,0,0,0,0,0,0,0,0,0,0,0,0,0,0,0,0,0,0,0,0,0,0,0,0,0,0,0,0,0,0,0,0,0,0,0,0,0,0,0,0,0,0,0,0,0,0,0,0,0,0],"id":21,"left_children":[1,3,5,7,9,11,13,15,17,19,21,23,25,27,29,31,-1,33,35,-1,37,-1,39,-1,41,-1,43,-1,-1,45,47,49,51,53,55,57,-1,59,-1,-1,61,-1,-1,-1,63,65,67,69,71,-1,-1,-1,-1,-1,-1,-1,-1,-1,-1,-1,-1,-1,-1,-1,-1,-1,-1,-1,-1,-1,-1,-1,-1],"loss_changes":[1.3671205E5,1.5402942E5,2.4662014E5,4.404751E5,8.127496E5,4.2559234E5,8.497269E4,1.4985266E5,3.2535584E5,4.3094744E5,5.172775E4,9.2959575E5,6.969306E5,1.30929766E5,1.3326875E5,4.031536E4,0E0,2.4555092E5,3.6855812E4,0E0,1.9783858E5,0E0,1.27876375E5,0E0,9.708906E4,0E0,5.5232434E4,0E0,0E0,1.7386866E5,3.278018E5,1.3415203E5,3.92423E4,4.1619547E4,5.491929E4,3.7803175E5,0E0,7.557084E4,0E0,0E0,2.5773684E5,0E0,0E0,0E0,1.5658957E4,5.9469176E4,1.8985484E4,3.317594E5,3.0738397E5,0E0,0E0,0E0,0E0,0E0,0E0,0E0,0E0,0E0,0E0,0E0,0E0,0E0,0E0,0E0,0E0,0E0,0E0,0E0,0E0,0E0,0E0,0E0,0E0],"parents":[2147483647,0,0,1,1,2,2,3,3,4,4,5,5,6,6,7,7,8,8,9,9,10,10,11,11,12,12,13,13,14,14,15,15,17,17,18,18,20,20,22,22,24,24,26,26,29,29,30,30,31,31,32,32,33,33,34,34,35,35,37,37,40,40,44,44,45,45,46,46,47,47,48,48],"right_children":[2,4,6,8,10,12,14,16,18,20,22,24,26,28,30,32,-1,34,36,-1,38,-1,40,-1,42,-1,44,-1,-1,46,48,50,52,54,56,58,-1,60,-1,-1,62,-1,-1,-1,64,66,68,70,72,-1,-1,-1,-1,-1,-1,-1,-1,-1,-1,-1,-1,-1,-1,-1,-1,-1,-1,-1,-1,-1,-1,-1,-1],"split_conditions":[3.1E4,3E4,3.3E4,3.1E4,3.3E4,2.505E4,6.5E3,1.2E4,3.3E4,1.3E1,1.3E1,3.3E4,1.3E1,2.505E4,3.1E4,3E4,-4.3422443E1,1.3E1,1.3E1,-1.6863876E2,3.1E4,2.281094E1,3.1E4,1.3037988E2,1.3E1,-2.1449962E2,1.0666667E4,-2.6543293E1,5.8319534E1,3.15E4,3.3E4,1.3E1,6.5E3,3.2E4,1.3E1,1.3E1,-1.6790843E2,1.4E4,-6.6770096E1,1.6844502E2,3.3E4,-1.4504953E2,-1.4010085E1,2.674219E1,3.3E4,1.3E1,3.1E4,2.505E4,3.3E4,1.1510274E2,1.5065625E1,3.6455658E1,4.0169418E-1,-9.4884315E1,-1.0986035E1,4.7953514E1,-4.7145705E0,-1.3536523E2,5.4854435E1,-9.916246E0,6.1222466E1,6.1508207E0,1.2413067E2,-1.6946889E0,-4.6825928E1,-4.0612995E1,6.9944534E0,6.812949E1,1.7188673E1,-7.230508E1,5.3993206E1,-2.7755861E0,-1.5602988E2],"split_indices":[4,4,4,1,1,1,0,4,0,3,0,0,0,1,1,3,0,0,3,0,1,0,0,0,1,0,0,0,0,2,3,0,2,1,4,2,0,0,0,0,3,0,0,0,2,1,0,2,0,0,0,0,0,0,0,0,0,0,0,0,0,0,0,0,0,0,0,0,0,0,0,0,0],"split_type":[0,0,0,0,0,0,0,0,0,0,0,0,0,0,0,0,0,0,0,0,0,0,0,0,0,0,0,0,0,0,0,0,0,0,0,0,0,0,0,0,0,0,0,0,0,0,0,0,0,0,0,0,0,0,0,0,0,0,0,0,0,0,0,0,0,0,0,0,0,0,0,0,0],"sum_hessian":[8.2E1,4.5E1,3.7E1,2.9E1,1.6E1,1E1,2.7E1,1.7E1,1.2E1,7E0,9E0,4E0,6E0,5E0,2.2E1,1.5E1,2E0,9E0,3E0,1E0,6E0,2E0,7E0,2E0,2E0,2E0,4E0,2E0,3E0,1.2E1,1E1,5E0,1E1,3E0,6E0,2E0,1E0,4E0,2E0,1E0,6E0,1E0,1E0,1E0,3E0,8E0,4E0,6E0,4E0,1E0,4E0,4E0,6E0,2E0,1E0,2E0,4E0,1E0,1E0,2E0,2E0,4E0,2E0,1E0,2E0,4E0,4E0,2E0,2E0,2E0,4E0,2E0,2E0],"tree_param":{"num_deleted":"0","num_feature":"5","num_nodes":"73","size_leaf_vector":"1"}},{"base_weights":[-2.5747086E1,1.683182E0,-6.5328445E1,-6.2094273E1,3.641988E1,-2.4331377E2,-1.8498959E1,4.0638493E1,-1.6934242E2,1.4101202E2,-7.0314606E1,-3.6933264E2,4.7822266E1,-9.215835E1,1.0442664E1,-2.8599834E1,1.471748E2,-2.3800444E2,4.7316406E1,-4.692447E1,2.7726E2,-1.9774971E2,-1.5892293E1,-1.5753711E2,-1.374052E2,2.273086E1,-1.2108399E0,-1.5483052E2,5.1982033E1,1.506582E2,-2.1296494E1,9.783721E1,4.6160156E1,-1.5959184E2,-1.06272E2,-9.338086E0,3.063047E1,-1.1506044E2,5.5953403E1,1.3182637E2,2.7214554E1,1.7176954E1,-3.8683936E2,-1.3040762E2,1.00893364E2,5.2400394E1,-1.2329209E2,-8.544551E1,-8.569615E1,6.515039E1,6.1077248E1,5.996572E1,-7.8460236E1,4.784912E1,-6.6145024E0,-8.5502655E1,1.8248438E1,4.826953E-1,3.8362892E1,3.49377E1,-7.26339E0,-1.4334296E2,-3.0734766E1,1.4720039E1,-1.1581873E2,-1.4717206E1,1.5008966E2,-2.584789E0,-4.797131E1,-7.9089847E0,3.722666E1,-9.552822E0,4.792046E1,1.074528E1,-1.1854211E2],"categories":[],"categories_nodes":[],"categories_segments":[],"categories_sizes":[],"default_left":[0,0,0,0,0,0,0,0,0,0,0,0,0,0,0,0,0,0,0,0,0,0,0,0,0,0,0,0,0,0,0,0,0,0,0,0,0,0,0,0,0,0,0,0,0,0,0,0,0,0,0,0,0,0,0,0,0,0,0,0,0,0,0,0,0,0,0,0,0,0,0,0,0,0,0],"id":22,"left_children":[1,3,5,7,9,11,13,15,17,19,21,23,25,27,29,-1,31,33,35,37,39,41,43,45,-1,-1,-1,47,-1,49,51,-1,53,55,-1,-1,-1,-1,57,-1,59,-1,61,63,65,-1,-1,-1,67,69,-1,71,73,-1,-1,-1,-1,-1,-1,-1,-1,-1,-1,-1,-1,-1,-1,-1,-1,-1,-1,-1,-1,-1,-1],"loss_changes":[9.022533E4,1.13032375E5,2.7888766E5,2.0520402E5,3.7831362E5,2.7448278E5,6.06534E4,1.5888936E5,1.451476E5,4.4831175E5,1.1475763E5,2.1760375E4,4.6537173E3,1.599095E5,9.666528E4,0E0,9.340501E4,7.2665E3,1.6070707E4,2.9849812E5,3.9351812E5,2.6324425E5,1.87016E5,3.2436262E5,0E0,0E0,0E0,3.8498562E4,0E0,4.840586E3,8.831946E4,0E0,4.2169348E4,1.8320306E5,0E0,0E0,0E0,0E0,2.7154508E4,0E0,2.5766979E4,0E0,2.8662094E4,3.4012734E5,4.437813E5,0E0,0E0,0E0,3.2942164E4,1.9452418E4,0E0,7.83636E4,4.1223766E5,0E0,0E0,0E0,0E0,0E0,0E0,0E0,0E0,0E0,0E0,0E0,0E0,0E0,0E0,0E0,0E0,0E0,0E0,0E0,0E0,0E0,0E0],"parents":[2147483647,0,0,1,1,2,2,3,3,4,4,5,5,6,6,7,7,8,8,9,9,10,10,11,11,12,12,13,13,14,14,16,16,17,17,18,18,19,19,20,20,21,21,22,22,23,23,27,27,29,29,30,30,32,32,33,33,38,38,40,40,42,42,43,43,44,44,48,48,49,49,51,51,52,52],"right_children":[2,4,6,8,10,12,14,16,18,20,22,24,26,28,30,-1,32,34,36,38,40,42,44,46,-1,-1,-1,48,-1,50,52,-1,54,56,-1,-1,-1,-1,58,-1,60,-1,62,64,66,-1,-1,-1,68,70,-1,72,74,-1,-1,-1,-1,-1,-1,-1,-1,-1,-1,-1,-1,-1,-1,-1,-1,-1,-1,-1,-1,-1,-1],"split_conditions":[3.2E4,6.5E3,3.3E4,3.1E4,3.1E4,3.1E4,1.0666667E4,3.2E1,3.1E4,6.5E3,3.1E4,1.3E1,1.0666667E4,3.15E4,6.5E3,-2.8599834E1,1.3E1,1.3E1,1.3E1,1.3E1,3.1E4,3E4,2.505E4,1.3E1,-1.374052E2,2.273086E1,-1.2108399E0,1.3E1,5.1982033E1,1.2E4,3.3E4,9.783721E1,6.5E3,3.3E4,-1.06272E2,-9.338086E0,3.063047E1,-1.1506044E2,3.15E4,1.3182637E2,1.3E1,1.7176954E1,3.1E4,3.1E4,3.3E4,5.2400394E1,-1.2329209E2,-8.544551E1,3.1E4,1.3E1,6.1077248E1,1.4E4,3.3E4,4.784912E1,-6.6145024E0,-8.5502655E1,1.8248438E1,4.826953E-1,3.8362892E1,3.49377E1,-7.26339E0,-1.4334296E2,-3.0734766E1,1.4720039E1,-1.1581873E2,-1.4717206E1,1.5008966E2,-2.584789E0,-4.797131E1,-7.9089847E0,3.722666E1,-9.552822E0,4.792046E1,1.074528E1,-1.1854211E2],"split_indices":[4,0,4,1,2,1,3,1,2,4,0,1,0,2,0,0,3,2,0,3,3,0,4,0,0,0,0,2,0,2,3,0,2,1,0,0,0,0,3,0,2,0,1,3,3,0,0,0,2,0,0,1,1,0,0,0,0,0,0,0,0,0,0,0,0,0,0,0,0,0,0,0,0,0,0],"split_type":[0,0,0,0,0,0,0,0,0,0,0,0,0,0,0,0,0,0,0,0,0,0,0,0,0,0,0,0,0,0,0,0,0,0,0,0,0,0,0,0,0,0,0,0,0,0,0,0,0,0,0,0,0,0,0,0,0,0,0,0,0,0,0,0,0,0,0,0,0,0,0,0,0,0,0],"sum_hessian":[8.2E1,4.9E1,3.3E1,1.7E1,3.2E1,6E0,2.7E1,9E0,8E0,1.6E1,1.6E1,4E0,2E0,7E0,2E1,4E0,5E0,6E0,2E0,7E0,9E0,4E0,1.2E1,2E0,2E0,1E0,1E0,6E0,1E0,3E0,1.7E1,1E0,4E0,5E0,1E0,1E0,1E0,1E0,6E0,5E0,4E0,2E0,2E0,6E0,6E0,1E0,1E0,1E0,5E0,2E0,1E0,7E0,1E1,1E0,3E0,3E0,2E0,4E0,2E0,1E0,3E0,1E0,1E0,4E0,2E0,5E0,1E0,3E0,2E0,1E0,1E0,4E0,3E0,8E0,2E0],"tree_param":{"num_deleted":"0","num_feature":"5","num_nodes":"75","size_leaf_vector":"1"}},{"base_weights":[-2.201027E1,1.85091E0,-5.0315636E1,-4.0926357E1,4.6407585E1,-1.3512346E2,-1.5201292E1,2.4841557E1,-2.4237036E2,-5.2982605E1,1.8091309E2,-2.9384607E2,-3.887172E1,-7.501291E1,8.307955E0,9.0543274E1,-1.772319E2,-4.2885525E1,-1.28268E2,-2.4944112E2,5.0544918E1,1.677041E1,2.2650363E2,4.4540333E1,-1.4723198E2,1.7095605E2,-1.989596E2,-1.2780967E2,4.418467E1,1.2805908E2,-1.876496E1,-5.1285157E0,1.2579925E2,-5.8537598E1,-9.780138E1,-2.0790148E1,5.4539065E0,-3.2619675E1,-1.2184151E2,-2.9675789E1,5.348848E1,1.23404305E2,1.2713834E2,4.064909E1,8.428155E1,-2.2337708E1,-9.277849E1,-7.2628716E1,-6.841271E1,5.5377605E1,5.191553E1,4.677188E1,-6.472221E1,-1.9270704E1,1.6706446E1,8.50532E1,1.7775326E1,4.9174805E0,-2.6693361E1,4.3863883E0,-4.4318745E1,-6.5541506E0,8.502188E1,1.932129E1,-1.0291992E0,-1.0819064E1,7.670954E-1,-3.729051E1,8.673047E0,-6.722461E0,3.1642384E1,-1.2047184E0,6.0342777E1,7.87972E0,-9.4833595E1],"categories":[],"categories_nodes":[],"categories_segments":[],"categories_sizes":[],"default_left":[0,0,0,0,0,0,0,0,0,0,0,0,0,0,0,0,0,0,0,0,0,0,0,0,0,0,0,0,0,0,0,0,0,0,0,0,0,0,0,0,0,0,0,0,0,0,0,0,0,0,0,0,0,0,0,0,0,0,0,0,0,0,0,0,0,0,0,0,0,0,0,0,0,0,0],"id":23,"left_children":[1,3,5,7,9,11,13,15,17,19,21,23,25,27,29,31,33,35,-1,37,39,-1,41,-1,-1,43,45,47,-1,49,51,53,55,57,-1,-1,-1,-1,-1,59,-1,-1,61,63,-1,65,-1,-1,67,69,-1,71,73,-1,-1,-1,-1,-1,-1,-1,-1,-1,-1,-1,-1,-1,-1,-1,-1,-1,-1,-1,-1,-1,-1],"loss_changes":[5.6151285E4,8.9575875E4,1.1110883E5,3.2398612E5,3.1706138E5,1.5662828E5,3.9994734E4,2.6830203E5,2.0331903E5,2.9735206E5,4.4331656E4,4.2127856E5,3.027404E5,1.1271581E5,7.048528E4,5.1240188E4,6.920881E4,7.712004E3,0E0,6.6083125E4,1.07773E5,0E0,7.62715E4,0E0,0E0,4.5906016E4,9.050055E4,3.0955266E4,0E0,3.4973438E3,5.7241258E4,2.155067E4,9.8651125E4,1.0581949E4,0E0,0E0,0E0,0E0,0E0,3.8765926E4,0E0,0E0,1.4588153E5,3.3623208E3,0E0,1.1173157E3,0E0,0E0,3.6229234E4,1.4054006E4,0E0,6.352868E4,2.5991073E5,0E0,0E0,0E0,0E0,0E0,0E0,0E0,0E0,0E0,0E0,0E0,0E0,0E0,0E0,0E0,0E0,0E0,0E0,0E0,0E0,0E0,0E0],"parents":[2147483647,0,0,1,1,2,2,3,3,4,4,5,5,6,6,7,7,8,8,9,9,10,10,11,11,12,12,13,13,14,14,15,15,16,16,17,17,19,19,20,20,22,22,25,25,26,26,27,27,29,29,30,30,31,31,32,32,33,33,39,39,42,42,43,43,45,45,48,48,49,49,51,51,52,52],"right_children":[2,4,6,8,10,12,14,16,18,20,22,24,26,28,30,32,34,36,-1,38,40,-1,42,-1,-1,44,46,48,-1,50,52,54,56,58,-1,-1,-1,-1,-1,60,-1,-1,62,64,-1,66,-1,-1,68,70,-1,72,74,-1,-1,-1,-1,-1,-1,-1,-1,-1,-1,-1,-1,-1,-1,-1,-1,-1,-1,-1,-1,-1,-1],"split_conditions":[3.1E4,6.5E3,3.3E4,3.3E4,3.3E4,1.3E1,1.0666667E4,1.3E1,3.1E4,2.505E4,1.4E4,1.3E1,3.3E4,3.15E4,6.5E3,1.3E1,3.3E4,3.2E1,-1.28268E2,3.3E4,3.15E4,1.677041E1,3.1E4,4.4540333E1,-1.4723198E2,3.1E4,3.2E4,1.3E1,4.418467E1,1.2E4,3.3E4,3.15E4,1.3E1,1.3E1,-9.780138E1,-2.0790148E1,5.4539065E0,-3.2619675E1,-1.2184151E2,3.15E4,5.348848E1,1.23404305E2,3.3E4,1.0666667E4,8.428155E1,2.505E4,-9.277849E1,-7.2628716E1,2.505E4,1.3E1,5.191553E1,3.1E4,3.3E4,-1.9270704E1,1.6706446E1,8.50532E1,1.7775326E1,4.9174805E0,-2.6693361E1,4.3863883E0,-4.4318745E1,-6.5541506E0,8.502188E1,1.932129E1,-1.0291992E0,-1.0819064E1,7.670954E-1,-3.729051E1,8.673047E0,-6.722461E0,3.1642384E1,-1.2047184E0,6.0342777E1,7.87972E0,-9.4833595E1],"split_indices":[4,4,4,3,1,0,3,4,1,3,2,1,0,2,0,1,0,1,0,2,0,0,0,0,0,0,4,2,0,2,3,0,3,2,0,0,0,0,0,1,0,0,3,0,0,1,0,0,1,0,0,2,1,0,0,0,0,0,0,0,0,0,0,0,0,0,0,0,0,0,0,0,0,0,0],"split_type":[0,0,0,0,0,0,0,0,0,0,0,0,0,0,0,0,0,0,0,0,0,0,0,0,0,0,0,0,0,0,0,0,0,0,0,0,0,0,0,0,0,0,0,0,0,0,0,0,0,0,0,0,0,0,0,0,0,0,0,0,0,0,0,0,0,0,0,0,0,0,0,0,0,0,0],"sum_hessian":[8.2E1,4.5E1,3.7E1,2.3E1,2.2E1,1E1,2.7E1,1.8E1,5E0,1.3E1,9E0,3E0,7E0,7E0,2E1,1.4E1,4E0,3E0,2E0,4E0,9E0,3E0,6E0,1E0,2E0,3E0,4E0,6E0,1E0,3E0,1.7E1,4E0,1E1,3E0,1E0,2E0,1E0,3E0,1E0,6E0,3E0,1E0,5E0,2E0,1E0,2E0,2E0,1E0,5E0,2E0,1E0,7E0,1E1,2E0,2E0,2E0,8E0,1E0,2E0,5E0,1E0,3E0,2E0,1E0,1E0,1E0,1E0,3E0,2E0,1E0,1E0,6E0,1E0,8E0,2E0],"tree_param":{"num_deleted":"0","num_feature":"5","num_nodes":"75","size_leaf_vector":"1"}},{"base_weights":[-1.7770502E1,-5.4344267E-1,-4.1380653E1,-4.4200565E1,4.3135418E1,-1.1129312E1,-8.596272E1,9.195381E1,-8.283685E1,7.5880127E0,7.052352E1,6.604199E1,-3.771158E1,-9.640771E1,-1.9950087E1,-3.217578E1,6.80426E1,-5.0857994E1,-1.03565285E2,-1.9162882E1,5.1304688E1,3.0176313E1,1.1929042E2,1.0874453E2,-2.2120605E1,-9.048933E1,3.297456E1,8.431136E1,-2.4955083E2,-1.5416407E1,3.8191407E0,1.674622E1,-2.0012483E2,1.2333984E1,2.615757E1,7.074219E1,-3.8216576E1,3.8681103E1,4.4977444E1,4.309961E1,3.757552E1,-4.1875507E1,-5.6988926E1,7.753882E1,-9.271761E0,2.3855402E1,5.9181446E1,1.9363993E1,-1.584443E2,4.1337658E1,-1.3635416E1,-8.2442474E1,-1.015161E1,9.580957E0,-9.911427E0,4.775391E-1,4.1808598E1,-1.7806944E1,3.780469E0,3.785918E1,-2.0452684E1,-5.7140627E0,2.2623047E1,-1.5681871E1,4.6359377E0,3.0734766E1,4.211426E-1,-1.4661858E1,1.0025977E1,1.7873878E1,-1.3091016E1,-1.0610915E2,1.1482295E2],"categories":[],"categories_nodes":[],"categories_segments":[],"categories_sizes":[],"default_left":[0,0,0,0,0,0,0,0,0,0,0,0,0,0,0,0,0,0,0,0,0,0,0,0,0,0,0,0,0,0,0,0,0,0,0,0,0,0,0,0,0,0,0,0,0,0,0,0,0,0,0,0,0,0,0,0,0,0,0,0,0,0,0,0,0,0,0,0,0,0,0,0,0],"id":24,"left_children":[1,3,5,7,9,11,13,15,17,19,21,23,25,-1,27,29,-1,31,-1,-1,33,35,37,39,-1,41,43,45,47,-1,-1,49,51,53,-1,55,57,59,-1,-1,61,63,-1,65,67,69,-1,71,-1,-1,-1,-1,-1,-1,-1,-1,-1,-1,-1,-1,-1,-1,-1,-1,-1,-1,-1,-1,-1,-1,-1,-1,-1],"loss_changes":[3.3736395E4,9.534439E4,4.6246652E4,1.3912966E5,2.3804273E4,4.7621086E4,2.1113666E5,1.07734625E5,1.5025567E5,4.0767324E4,2.3946773E4,4.38314E4,6.640498E4,0E0,3.0830206E5,4.105192E3,0E0,1.9508161E5,0E0,0E0,1.0112975E4,2.7673281E4,9.017242E3,7.0281133E3,0E0,4.0403195E4,1.578033E4,5.6756027E4,3.0990228E5,0E0,0E0,1.1166562E5,6.5213734E4,5.5021606E3,0E0,2.8248676E4,5.0451465E3,3.6658645E4,0E0,0E0,7.863192E3,5.576325E3,0E0,7.4423926E3,1.0086514E4,1.9477568E4,0E0,5.420631E5,0E0,0E0,0E0,0E0,0E0,0E0,0E0,0E0,0E0,0E0,0E0,0E0,0E0,0E0,0E0,0E0,0E0,0E0,0E0,0E0,0E0,0E0,0E0,0E0,0E0],"parents":[2147483647,0,0,1,1,2,2,3,3,4,4,5,5,6,6,7,7,8,8,9,9,10,10,11,11,12,12,14,14,15,15,17,17,20,20,21,21,22,22,23,23,25,25,26,26,27,27,28,28,31,31,32,32,33,33,35,35,36,36,37,37,40,40,41,41,43,43,44,44,45,45,47,47],"right_children":[2,4,6,8,10,12,14,16,18,20,22,24,26,-1,28,30,-1,32,-1,-1,34,36,38,40,-1,42,44,46,48,-1,-1,50,52,54,-1,56,58,60,-1,-1,62,64,-1,66,68,70,-1,72,-1,-1,-1,-1,-1,-1,-1,-1,-1,-1,-1,-1,-1,-1,-1,-1,-1,-1,-1,-1,-1,-1,-1,-1,-1],"split_conditions":[3.2E4,1.0666667E4,3.3E4,1.3E1,3E4,3.3E4,3.3E4,1.3E1,3.3E4,1.3E1,3.3E4,3.1E4,3.1E4,-9.640771E1,3.3E4,3.15E4,6.80426E1,3.3E4,-1.03565285E2,-1.9162882E1,6.5E3,3.3E1,3.1E4,1.3E1,-2.2120605E1,3.1E4,1.3E1,3.3E4,3.1E4,-1.5416407E1,3.8191407E0,3.1E4,3.1E4,1.3E1,2.615757E1,1.4E4,3.1E4,1.3E1,4.4977444E1,4.309961E1,1.3E1,3E4,-5.6988926E1,3.1E4,3.1E4,3.15E4,5.9181446E1,1.3E1,-1.584443E2,4.1337658E1,-1.3635416E1,-8.2442474E1,-1.015161E1,9.580957E0,-9.911427E0,4.775391E-1,4.1808598E1,-1.7806944E1,3.780469E0,3.785918E1,-2.0452684E1,-5.7140627E0,2.2623047E1,-1.5681871E1,4.6359377E0,3.0734766E1,4.211426E-1,-1.4661858E1,1.0025977E1,1.7873878E1,-1.3091016E1,-1.0610915E2,1.1482295E2],"split_indices":[3,3,2,4,4,3,3,1,2,0,2,2,0,0,0,0,0,0,0,0,2,2,1,4,0,1,2,1,4,0,0,4,2,2,0,1,2,0,0,0,0,1,0,1,2,1,0,4,0,0,0,0,0,0,0,0,0,0,0,0,0,0,0,0,0,0,0,0,0,0,0,0,0],"split_type":[0,0,0,0,0,0,0,0,0,0,0,0,0,0,0,0,0,0,0,0,0,0,0,0,0,0,0,0,0,0,0,0,0,0,0,0,0,0,0,0,0,0,0,0,0,0,0,0,0,0,0,0,0,0,0,0,0,0,0,0,0,0,0,0,0,0,0,0,0,0,0,0,0],"sum_hessian":[8.2E1,4.8E1,3.4E1,2.4E1,2.4E1,2.1E1,1.3E1,5E0,1.9E1,1.1E1,1.3E1,5E0,1.6E1,2E0,1.1E1,3E0,2E0,1.8E1,1E0,4E0,7E0,8E0,5E0,4E0,1E0,9E0,7E0,8E0,3E0,2E0,1E0,1.3E1,5E0,4E0,3E0,5E0,3E0,2E0,3E0,2E0,2E0,7E0,2E0,3E0,4E0,6E0,2E0,2E0,1E0,4E0,9E0,3E0,2E0,3E0,1E0,3E0,2E0,2E0,1E0,1E0,1E0,1E0,1E0,6E0,1E0,2E0,1E0,2E0,2E0,4E0,2E0,1E0,1E0],"tree_param":{"num_deleted":"0","num_feature":"5","num_nodes":"73","size_leaf_vector":"1"}},{"base_weights":[-1.4855037E1,2.22488E-1,-3.6590954E1,-3.1875795E1,2.8746056E1,-1.3992831E2,-9.449797E0,1.0879725E1,-1.6195564E2,-7.165087E1,6.746752E1,-2.1025392E2,2.3923828E1,1.2823058E1,-4.0215527E1,5.6113907E1,-1.26998764E2,-2.7171978E1,-8.6304596E1,-1.8838057E1,-6.6201096E1,1.6378545E2,-2.6227634E1,-1.061994E2,-9.397081E1,9.676758E0,1.0889649E0,-2.2170538E1,1.012418E2,-5.9689014E1,-7.6963224E0,-3.9320312E0,7.830625E1,-4.080713E1,-7.076479E1,-1.3495745E1,3.94043E0,-4.7196484E1,2.2696877E1,2.721224E2,1.0240186E0,-1.3129912E2,1.26117966E2,3.2180275E1,-2.1311092E2,-5.602248E1,6.800195E1,4.2600197E1,8.020703E0,6.4532646E1,-1.0727761E2,-1.2333203E1,1.0367188E1,5.4434044E1,1.0567611E1,2.7427735E0,-1.815137E1,-2.3471426E1,2.977344E0,3.626631E1,1.1491836E2,1.2241471E1,-1.1729461E1,3.9375002E0,-4.726719E1,-1.5055665E0,9.759962E1,-7.851514E1,-1.7384783E1,-2.4221075E1,3.7001956E-1,2.696211E1,3.5800782E-1,-7.0091796E0,3.130922E1,2.7109718E1,-1.3467764E2],"categories":[],"categories_nodes":[],"categories_segments":[],"categories_sizes":[],"default_left":[0,0,0,0,0,0,0,0,0,0,0,0,0,0,0,0,0,0,0,0,0,0,0,0,0,0,0,0,0,0,0,0,0,0,0,0,0,0,0,0,0,0,0,0,0,0,0,0,0,0,0,0,0,0,0,0,0,0,0,0,0,0,0,0,0,0,0,0,0,0,0,0,0,0,0,0,0],"id":25,"left_children":[1,3,5,7,9,11,13,15,17,19,21,23,25,27,29,31,33,35,-1,37,-1,39,41,43,-1,-1,-1,45,47,-1,49,51,53,55,-1,-1,-1,57,-1,59,61,63,65,-1,67,69,71,-1,-1,73,75,-1,-1,-1,-1,-1,-1,-1,-1,-1,-1,-1,-1,-1,-1,-1,-1,-1,-1,-1,-1,-1,-1,-1,-1,-1,-1],"loss_changes":[2.720922E4,4.669418E4,9.403734E4,1.3524119E5,1.0979706E5,8.569111E4,1.9702424E4,1.25625984E5,9.385825E4,5.8804094E4,1.8478616E5,2.0313281E4,3.901842E2,5.484411E4,6.041696E4,2.02963E4,3.729871E4,3.4629487E3,0E0,2.2328676E4,0E0,1.7605212E5,1.9263812E5,1.1414822E5,0E0,0E0,0E0,4.349232E4,1.1387441E4,0E0,8.604209E4,8.575578E3,4.248572E4,4.488692E3,0E0,0E0,0E0,1.141523E4,0E0,5.4359375E4,9.575885E3,2.8614156E4,1.322539E5,0E0,7.459125E3,1.4250051E4,5.737629E3,0E0,0E0,2.6945674E4,3.7818956E5,0E0,0E0,0E0,0E0,0E0,0E0,0E0,0E0,0E0,0E0,0E0,0E0,0E0,0E0,0E0,0E0,0E0,0E0,0E0,0E0,0E0,0E0,0E0,0E0,0E0,0E0],"parents":[2147483647,0,0,1,1,2,2,3,3,4,4,5,5,6,6,7,7,8,8,9,9,10,10,11,11,12,12,13,13,14,14,15,15,16,16,17,17,19,19,21,21,22,22,23,23,27,27,28,28,30,30,31,31,32,32,33,33,37,37,39,39,40,40,41,41,42,42,44,44,45,45,46,46,49,49,50,50],"right_children":[2,4,6,8,10,12,14,16,18,20,22,24,26,28,30,32,34,36,-1,38,-1,40,42,44,-1,-1,-1,46,48,-1,50,52,54,56,-1,-1,-1,58,-1,60,62,64,66,-1,68,70,72,-1,-1,74,76,-1,-1,-1,-1,-1,-1,-1,-1,-1,-1,-1,-1,-1,-1,-1,-1,-1,-1,-1,-1,-1,-1,-1,-1,-1,-1],"split_conditions":[3.2E4,6.5E3,3.3E4,3.3E4,6.5E3,3.1E4,3.15E4,1.3E1,3.1E4,3.1E4,3.1E4,3.1E4,1.0666667E4,3.15E4,1.3E1,1.3E1,3.3E4,3.2E1,-8.6304596E1,3.1E4,-6.6201096E1,3.1E4,3.3E4,1.3E1,-9.397081E1,9.676758E0,1.0889649E0,3E4,3.1E4,-5.9689014E1,3.3E4,3.15E4,1.3E1,1.3E1,-7.076479E1,-1.3495745E1,3.94043E0,3.3E4,2.2696877E1,2.505E4,1.3E1,3E4,3.3E4,3.2180275E1,1.3E1,3.1E4,3.1E4,4.2600197E1,8.020703E0,2.505E4,3.3E4,-1.2333203E1,1.0367188E1,5.4434044E1,1.0567611E1,2.7427735E0,-1.815137E1,-2.3471426E1,2.977344E0,3.626631E1,1.1491836E2,1.2241471E1,-1.1729461E1,3.9375002E0,-4.726719E1,-1.5055665E0,9.759962E1,-7.851514E1,-1.7384783E1,-2.4221075E1,3.7001956E-1,2.696211E1,3.5800782E-1,-7.0091796E0,3.130922E1,2.7109718E1,-1.3467764E2],"split_indices":[4,4,4,3,0,1,1,4,1,4,2,3,0,2,2,1,0,1,0,2,0,3,1,0,0,0,0,1,0,0,3,0,3,2,0,0,0,1,0,2,1,0,3,0,1,0,1,0,0,2,0,0,0,0,0,0,0,0,0,0,0,0,0,0,0,0,0,0,0,0,0,0,0,0,0,0,0],"split_type":[0,0,0,0,0,0,0,0,0,0,0,0,0,0,0,0,0,0,0,0,0,0,0,0,0,0,0,0,0,0,0,0,0,0,0,0,0,0,0,0,0,0,0,0,0,0,0,0,0,0,0,0,0,0,0,0,0,0,0,0,0,0,0,0,0,0,0,0,0,0,0,0,0,0,0,0,0],"sum_hessian":[8.2E1,4.9E1,3.3E1,2.3E1,2.6E1,6E0,2.7E1,1.8E1,5E0,7E0,1.9E1,4E0,2E0,1.6E1,1.1E1,1.4E1,4E0,3E0,2E0,6E0,1E0,9E0,1E1,3E0,1E0,1E0,1E0,1.2E1,4E0,1E0,1E1,4E0,1E1,3E0,1E0,2E0,1E0,5E0,1E0,5E0,4E0,6E0,4E0,1E0,2E0,9E0,3E0,2E0,2E0,6E0,4E0,2E0,2E0,2E0,8E0,1E0,2E0,3E0,2E0,3E0,2E0,2E0,2E0,1E0,5E0,3E0,1E0,1E0,1E0,6E0,3E0,2E0,1E0,2E0,4E0,3E0,1E0],"tree_param":{"num_deleted":"0","num_feature":"5","num_nodes":"77","size_leaf_vector":"1"}},{"base_weights":[-1.2980643E1,5.851605E-1,-3.254857E1,-2.7271107E1,2.5324615E1,-1.1893896E2,-9.788524E0,9.242175E0,-1.3835132E2,-2.886897E1,7.77093E1,-1.7871571E2,2.0335287E1,1.2158085E1,-4.0063843E1,2.911302E1,-5.2218796E1,-9.0625E-1,-6.2054188E1,-2.2327738E0,-5.627093E1,1.2986828E1,9.418026E1,-9.026934E1,-7.987518E1,8.225391E0,9.254883E-1,-1.5252258E1,8.099336E1,-5.07356E1,-1.2957165E1,4.7196777E1,-3.2416504E1,-2.1409458E1,-2.6318422E1,1.6910157E0,-2.0988283E0,-7.785316E1,1.3433047E2,-1.7526855E1,1.6879303E1,5.6446877E1,6.596703E1,2.7353321E1,-1.8114427E2,-5.850489E1,3.017927E1,3.408008E1,2.1388672E1,4.864453E1,-9.660811E1,2.9792871E1,5.6374354E0,2.3314455E0,-1.45209E1,-1.0796596E1,3.3492188E0,-8.09404E1,-6.040341E0,2.3820312E0,6.478321E1,4.9463463E0,3.3644608E1,-6.673786E1,-1.4777065E1,-2.3174007E1,-2.3300784E0,1.4691154E1,-3.3597658E0,8.001563E0,1.6233399E0,3.7427735E0,3.984844E1,2.1009962E1,-1.14476006E2],"categories":[],"categories_nodes":[],"categories_segments":[],"categories_sizes":[],"default_left":[0,0,0,0,0,0,0,0,0,0,0,0,0,0,0,0,0,0,0,0,0,0,0,0,0,0,0,0,0,0,0,0,0,0,0,0,0,0,0,0,0,0,0,0,0,0,0,0,0,0,0,0,0,0,0,0,0,0,0,0,0,0,0,0,0,0,0,0,0,0,0,0,0,0,0],"id":26,"left_children":[1,3,5,7,9,11,13,15,17,19,21,23,25,27,29,31,33,35,-1,37,-1,39,41,43,-1,-1,-1,45,47,-1,49,51,53,55,-1,-1,-1,57,59,-1,-1,-1,61,-1,63,65,67,-1,69,71,73,-1,-1,-1,-1,-1,-1,-1,-1,-1,-1,-1,-1,-1,-1,-1,-1,-1,-1,-1,-1,-1,-1,-1,-1],"loss_changes":[2.2051785E4,3.5148074E4,6.5688234E4,9.862034E4,7.889406E4,6.191178E4,1.9091436E4,2.4724594E4,5.629915E4,5.8761805E4,1.3701469E4,1.4676469E4,2.8195227E2,3.3310906E4,3.978767E4,1.8220229E4,3.591876E3,1.5897198E2,0E0,1.447086E5,0E0,1.5648855E4,1.6752914E4,8.24723E4,0E0,0E0,0E0,2.7311066E4,7.2878633E3,0E0,6.1382895E4,1.5897199E4,2.9460225E3,2.3013628E3,0E0,0E0,0E0,9.4278664E4,4.986122E4,0E0,0E0,0E0,2.1001234E4,0E0,5.3892188E3,6.0564746E3,5.9913022E3,0E0,1.0891272E2,1.9656479E4,2.6416975E5,0E0,0E0,0E0,0E0,0E0,0E0,0E0,0E0,0E0,0E0,0E0,0E0,0E0,0E0,0E0,0E0,0E0,0E0,0E0,0E0,0E0,0E0,0E0,0E0],"parents":[2147483647,0,0,1,1,2,2,3,3,4,4,5,5,6,6,7,7,8,8,9,9,10,10,11,11,12,12,13,13,14,14,15,15,16,16,17,17,19,19,21,21,22,22,23,23,27,27,28,28,30,30,31,31,32,32,33,33,37,37,38,38,42,42,44,44,45,45,46,46,48,48,49,49,50,50],"right_children":[2,4,6,8,10,12,14,16,18,20,22,24,26,28,30,32,34,36,-1,38,-1,40,42,44,-1,-1,-1,46,48,-1,50,52,54,56,-1,-1,-1,58,60,-1,-1,-1,62,-1,64,66,68,-1,70,72,74,-1,-1,-1,-1,-1,-1,-1,-1,-1,-1,-1,-1,-1,-1,-1,-1,-1,-1,-1,-1,-1,-1,-1,-1],"split_conditions":[3.2E4,6.5E3,3.3E4,3.3E4,3.15E4,3.1E4,3.15E4,3.3E4,3.1E4,3.1E4,1.3E1,3.1E4,1.0666667E4,3.15E4,1.3E1,1.3E1,3.1E4,1.3E1,-6.2054188E1,3.3E4,-5.627093E1,3.3E4,3.3E1,1.3E1,-7.987518E1,8.225391E0,9.254883E-1,3.3E1,3.1E4,-5.07356E1,3.3E4,3.1E4,1.3E1,3.2E1,-2.6318422E1,1.6910157E0,-2.0988283E0,1.3E1,1.3E1,-1.7526855E1,1.6879303E1,5.6446877E1,3.3E4,2.7353321E1,1.3E1,3.1E4,3.3E1,3.408008E1,1.2E4,3.15E4,3.3E4,2.9792871E1,5.6374354E0,2.3314455E0,-1.45209E1,-1.0796596E1,3.3492188E0,-8.09404E1,-6.040341E0,2.3820312E0,6.478321E1,4.9463463E0,3.3644608E1,-6.673786E1,-1.4777065E1,-2.3174007E1,-2.3300784E0,1.4691154E1,-3.3597658E0,8.001563E0,1.6233399E0,3.7427735E0,3.984844E1,2.1009962E1,-1.14476006E2],"split_indices":[4,4,4,0,0,1,1,3,1,4,3,3,0,2,2,4,1,1,0,1,0,0,3,0,0,0,0,1,0,0,3,2,2,1,0,0,0,3,0,0,0,0,3,0,1,0,2,0,1,2,0,0,0,0,0,0,0,0,0,0,0,0,0,0,0,0,0,0,0,0,0,0,0,0,0],"split_type":[0,0,0,0,0,0,0,0,0,0,0,0,0,0,0,0,0,0,0,0,0,0,0,0,0,0,0,0,0,0,0,0,0,0,0,0,0,0,0,0,0,0,0,0,0,0,0,0,0,0,0,0,0,0,0,0,0,0,0,0,0,0,0,0,0,0,0,0,0,0,0,0,0,0,0],"sum_hessian":[8.2E1,4.9E1,3.3E1,2.3E1,2.6E1,6E0,2.7E1,1.8E1,5E0,1.3E1,1.3E1,4E0,2E0,1.6E1,1.1E1,1.4E1,4E0,2E0,3E0,1.2E1,1E0,3E0,1E1,3E0,1E0,1E0,1E0,1.2E1,4E0,1E0,1E1,1.1E1,3E0,3E0,1E0,1E0,1E0,8E0,4E0,1E0,2E0,1E0,9E0,1E0,2E0,6E0,6E0,2E0,2E0,6E0,4E0,3E0,8E0,1E0,2E0,2E0,1E0,1E0,7E0,2E0,2E0,5E0,4E0,1E0,1E0,4E0,2E0,4E0,2E0,1E0,1E0,5E0,1E0,3E0,1E0],"tree_param":{"num_deleted":"0","num_feature":"5","num_nodes":"75","size_leaf_vector":"1"}},{"base_weights":[-1.2106277E1,-6.8398803E-1,-2.8547695E1,-2.2130726E1,1.8405113E1,-1.01098076E2,-9.39054E0,7.2800484E0,-1.1157639E2,-2.5643166E1,6.113874E1,-1.51908E2,1.7284506E1,3.7211678E1,-2.1139357E1,3.8681484E1,-8.838027E1,-1.6848562E1,-6.0206413E1,-3.087363E0,-4.783029E1,4.0396076E1,1.2372982E2,-7.67285E1,-6.7893906E1,6.9914064E0,7.8662115E-1,7.277453E0,2.8032423E1,7.7650623E0,-5.9491608E1,-6.865625E0,5.586822E1,-2.573877E1,-5.0841946E1,-8.637277E0,2.8467774E0,-6.416157E1,1.0746367E2,7.182437E1,-1.7968409E1,-2.2234571E1,7.7912994E1,2.3250587E1,-1.5397264E2,-1.4865098E1,1.4377149E1,-2.1847076E1,6.5436325E1,3.3663504E0,-1.5462013E2,-1.099375E1,7.560938E0,4.918903E1,4.088672E0,1.9816407E0,-1.1616602E1,-6.879934E1,-4.4546933E0,1.9054688E0,5.182637E1,4.0070976E1,-6.9941006E0,-1.0104631E1,6.7329555E0,-5.6727184E1,-1.2560505E1,-6.7124457E0,1.1496094E0,-2.8756472E1,-8.92032E-1,2.7263868E1,5.454297E0,-3.219473E1,2.0730703E1,3.0216799E0,-9.73046E1],"categories":[],"categories_nodes":[],"categories_segments":[],"categories_sizes":[],"default_left":[0,0,0,0,0,0,0,0,0,0,0,0,0,0,0,0,0,0,0,0,0,0,0,0,0,0,0,0,0,0,0,0,0,0,0,0,0,0,0,0,0,0,0,0,0,0,0,0,0,0,0,0,0,0,0,0,0,0,0,0,0,0,0,0,0,0,0,0,0,0,0,0,0,0,0,0,0],"id":27,"left_children":[1,3,5,7,9,11,13,15,17,19,21,23,25,27,29,31,33,35,-1,37,-1,39,41,43,-1,-1,-1,45,-1,47,49,51,53,55,-1,-1,-1,57,59,61,63,-1,-1,-1,65,67,-1,69,71,73,75,-1,-1,-1,-1,-1,-1,-1,-1,-1,-1,-1,-1,-1,-1,-1,-1,-1,-1,-1,-1,-1,-1,-1,-1,-1,-1],"loss_changes":[1.5567761E4,2.0877266E4,4.6305832E4,6.3948277E4,5.2391047E4,4.4730734E4,1.6117217E4,6.0492242E4,4.7266812E4,4.1756496E4,1.3178082E4,1.0604008E4,2.0370502E2,9.4191455E3,2.5958594E4,1.2125662E4,2.1036867E4,1.5313473E3,0E0,9.466865E4,0E0,2.3302123E4,9.995747E4,5.9586777E4,0E0,0E0,0E0,5.212465E3,0E0,2.5338367E4,6.0316355E4,5.6986597E3,4.7989895E4,1.9355088E3,0E0,0E0,0E0,6.989912E4,3.1911223E4,5.010881E4,3.9310107E3,0E0,0E0,0E0,3.893711E3,6.473818E2,0E0,1.3682951E4,4.3593594E3,5.834635E4,1.1507893E5,0E0,0E0,0E0,0E0,0E0,0E0,0E0,0E0,0E0,0E0,0E0,0E0,0E0,0E0,0E0,0E0,0E0,0E0,0E0,0E0,0E0,0E0,0E0,0E0,0E0,0E0],"parents":[2147483647,0,0,1,1,2,2,3,3,4,4,5,5,6,6,7,7,8,8,9,9,10,10,11,11,12,12,13,13,14,14,15,15,16,16,17,17,19,19,21,21,22,22,23,23,27,27,29,29,30,30,31,31,32,32,33,33,37,37,38,38,39,39,40,40,44,44,45,45,47,47,48,48,49,49,50,50],"right_children":[2,4,6,8,10,12,14,16,18,20,22,24,26,28,30,32,34,36,-1,38,-1,40,42,44,-1,-1,-1,46,-1,48,50,52,54,56,-1,-1,-1,58,60,62,64,-1,-1,-1,66,68,-1,70,72,74,76,-1,-1,-1,-1,-1,-1,-1,-1,-1,-1,-1,-1,-1,-1,-1,-1,-1,-1,-1,-1,-1,-1,-1,-1,-1,-1],"split_conditions":[3.2E4,6.5E3,3.3E4,3.3E4,3.15E4,3.1E4,6.5E3,1.3E1,3.1E4,3.1E4,3.3E4,3.1E4,1.0666667E4,3E4,3.15E4,1.3E1,3.3E4,3.2E1,-6.0206413E1,3.3E4,-4.783029E1,3.1E4,3.3E4,1.3E1,-6.7893906E1,6.9914064E0,7.8662115E-1,1.3E1,2.8032423E1,3.15E4,3.3E4,3.15E4,1.3E1,1.3E1,-5.0841946E1,-8.637277E0,2.8467774E0,1.3E1,1.3E1,3.1E4,3.1E4,-2.2234571E1,7.7912994E1,2.3250587E1,1.3E1,1.2E4,1.4377149E1,1.3E1,3.1E4,2.505E4,3.3E4,-1.099375E1,7.560938E0,4.918903E1,4.088672E0,1.9816407E0,-1.1616602E1,-6.879934E1,-4.4546933E0,1.9054688E0,5.182637E1,4.0070976E1,-6.9941006E0,-1.0104631E1,6.7329555E0,-5.6727184E1,-1.2560505E1,-6.7124457E0,1.1496094E0,-2.8756472E1,-8.92032E-1,2.7263868E1,5.454297E0,-3.219473E1,2.0730703E1,3.0216799E0,-9.73046E1],"split_indices":[4,4,4,3,0,1,0,4,1,4,2,3,0,2,1,1,0,1,0,1,0,2,0,0,0,0,0,0,0,2,3,0,3,2,0,0,0,3,0,3,4,0,0,0,1,2,0,3,0,2,0,0,0,0,0,0,0,0,0,0,0,0,0,0,0,0,0,0,0,0,0,0,0,0,0,0,0],"split_type":[0,0,0,0,0,0,0,0,0,0,0,0,0,0,0,0,0,0,0,0,0,0,0,0,0,0,0,0,0,0,0,0,0,0,0,0,0,0,0,0,0,0,0,0,0,0,0,0,0,0,0,0,0,0,0,0,0,0,0,0,0,0,0,0,0,0,0,0,0,0,0,0,0,0,0,0,0],"sum_hessian":[8.2E1,4.9E1,3.3E1,2.3E1,2.6E1,6E0,2.7E1,1.8E1,5E0,1.3E1,1.3E1,4E0,2E0,5E0,2.2E1,1.4E1,4E0,3E0,2E0,1.2E1,1E0,1.1E1,2E0,3E0,1E0,1E0,1E0,4E0,1E0,1.3E1,9E0,4E0,1E1,3E0,1E0,2E0,1E0,8E0,4E0,7E0,4E0,1E0,1E0,1E0,2E0,3E0,1E0,9E0,4E0,6E0,3E0,2E0,2E0,2E0,8E0,1E0,2E0,1E0,7E0,2E0,2E0,4E0,3E0,3E0,1E0,1E0,1E0,2E0,1E0,1E0,8E0,2E0,2E0,2E0,4E0,2E0,1E0],"tree_param":{"num_deleted":"0","num_feature":"5","num_nodes":"77","size_leaf_vector":"1"}},{"base_weights":[-1.1252536E1,-1.650732E0,-2.504188E1,-1.868446E1,1.35514965E1,-8.5933464E1,-8.924631E0,7.626581E0,-9.888868E1,-2.2761282E1,4.8896313E1,-1.2912169E2,1.4691406E1,3.2189144E1,-1.9261936E1,5.1026367E1,-3.7000265E0,-4.0122417E1,-5.8907997E1,-3.66305E0,-4.0655746E1,3.0753054E1,1.0517057E2,-6.5219086E1,-5.770982E1,5.9425783E0,6.685547E-1,6.856661E0,2.3827736E1,5.654576E0,-5.221886E1,4.3808205E1,-8.794922E0,1.5304957E1,-3.0321428E1,2.1873062E1,-4.3215652E1,-5.3052357E1,8.5970314E1,5.441201E1,-1.3251886E1,-1.8899414E1,6.622617E1,1.9763086E1,-1.3087674E2,-1.1796362E1,