{"learner":{"attributes":{"scikit_learn":"{\"_estimator_type\": \"regressor\"}"},"feature_names":[],"feature_types":[],"gradient_booster":{"model":{"gbtree_model_param":{"num_parallel_tree":"1","num_trees":"100"},"iteration_indptr":[0,1,2,3,4,5,6,7,8,9,10,11,12,13,14,15,16,17,18,19,20,21,22,23,24,25,26,27,28,29,30,31,32,33,34,35,36,37,38,39,40,41,42,43,44,45,46,47,48,49,50,51,52,53,54,55,56,57,58,59,60,61,62,63,64,65,66,67,68,69,70,71,72,73,74,75,76,77,78,79,80,81,82,83,84,85,86,87,88,89,90,91,92,93,94,95,96,97,98,99,100],"tree_info":[0,0,0,0,0,0,0,0,0,0,0,0,0,0,0,0,0,0,0,0,0,0,0,0,0,0,0,0,0,0,0,0,0,0,0,0,0,0,0,0,0,0,0,0,0,0,0,0,0,0,0,0,0,0,0,0,0,0,0,0,0,0,0,0,0,0,0,0,0,0,0,0,0,0,0,0,0,0,0,0,0,0,0,0,0,0,0,0,0,0,0,0,0,0,0,0,0,0,0,0],"trees":[{"base_weights":[2.8722428E-4,-5.5631953E3,9.962002E3,-7.7421353E3,-1.1080868E2,1.1679266E3,1.5130049E4,-2.7045496E3,-2.4291829E3,-5.384783E3,4.360309E3,5.3498306E3,-2.981583E3,6.2396895E3,2.7494236E4,5.6613906E3,-7.1821436E3,-7.9809355E3,3.086511E3,1.1357809E4,-1.432854E3,3.4210425E2,1.1135161E4,1.1939424E4,-1.5334375E2,3.1485986E4,-1.8634894E3,8.217825E3,1.2178256E3,-2.4014524E3,-2.1348927E2,-5.019385E3,-2.981583E3,2.7178254E3,4.4995034E3,-7.7386094E3,6.8075537E3,-4.3472183E3,2.8820142E3,4.399312E3,2.7178254E3,4.495428E3,-1.8634894E3,5.981615E3,-2.795234E3,5.0627E3,4.9182555E4,6.1151074E2,3.086511E3,6.1151074E2,-6.348926E1,-3.9523392E2,-2.4846526E3,3.086511E3,-1.8634894E3,-2.1348927E2,-2.795234E3,3.086511E3,6.6534766E2,-9.275889E1,-2.4846526E3,3.086511E3,-1.8634894E3,-3.947839E2,4.1153477E3,2.9153477E3,2.5136512E4],"categories":[],"categories_nodes":[],"categories_segments":[],"categories_sizes":[],"default_left":[0,0,0,0,0,0,0,0,0,0,0,0,0,0,0,0,0,0,0,0,0,0,0,0,0,0,0,0,0,0,0,0,0,0,0,0,0,0,0,0,0,0,0,0,0,0,0,0,0,0,0,0,0,0,0,0,0,0,0,0,0,0,0,0,0,0,0],"id":0,"left_children":[1,3,5,7,9,11,13,-1,15,17,19,21,-1,23,25,27,29,31,-1,33,35,37,39,41,43,45,-1,47,49,-1,-1,51,-1,53,-1,55,57,59,-1,-1,61,-1,-1,63,-1,-1,65,-1,-1,-1,-1,-1,-1,-1,-1,-1,-1,-1,-1,-1,-1,-1,-1,-1,-1,-1,-1],"loss_changes":[6.650468E9,9.139346E8,1.9366016E9,3.500956E8,5.658322E8,8.427598E8,2.7963402E9,0E0,5.0211104E8,5.296996E8,5.432636E8,3.7281818E8,0E0,6.212869E8,1.6755789E9,4.6790544E7,3.6889664E7,8.091776E6,0E0,1.4796211E8,4.6837696E8,3.8932042E8,1.3838413E8,5.9056435E8,5.617259E8,1.7555374E9,0E0,1.7413008E7,3.950176E6,0E0,0E0,6.1560544E7,0E0,2.6671006E8,0E0,4.8841696E7,4.1086176E7,9.2775816E7,0E0,0E0,2.6671006E8,0E0,0E0,3.567847E8,0E0,0E0,4.6485944E9,0E0,0E0,0E0,0E0,0E0,0E0,0E0,0E0,0E0,0E0,0E0,0E0,0E0,0E0,0E0,0E0,0E0,0E0,0E0,0E0],"parents":[2147483647,0,0,1,1,2,2,3,3,4,4,5,5,6,6,8,8,9,9,10,10,11,11,13,13,14,14,15,15,16,16,17,17,19,19,20,20,21,21,22,22,23,23,24,24,25,25,27,27,28,28,31,31,33,33,35,35,36,36,37,37,40,40,43,43,46,46],"right_children":[2,4,6,8,10,12,14,-1,16,18,20,22,-1,24,26,28,30,32,-1,34,36,38,40,42,44,46,-1,48,50,-1,-1,52,-1,54,-1,56,58,60,-1,-1,62,-1,-1,64,-1,-1,66,-1,-1,-1,-1,-1,-1,-1,-1,-1,-1,-1,-1,-1,-1,-1,-1,-1,-1,-1,-1],"split_conditions":[1.55E4,1.55E4,1.65E4,3.4736843E3,2.1E4,1.55E4,3.1263158E4,-2.7045496E3,1.55E4,1.8E5,2.9927273E4,1.65E1,-2.981583E3,3.3E4,1.8E5,1.55E4,3.2E1,1.65E1,3.086511E3,1.6506E4,1.55E4,3.276923E4,1.5E4,2.8090908E4,1.65E1,1.6506E4,-1.8634894E3,1.65E1,2.79E4,-2.4014524E3,-2.1348927E2,3.276923E4,-2.981583E3,1.65E4,4.4995034E3,3E4,2.2E4,3.1263158E4,2.8820142E3,4.399312E3,1.6506E4,4.495428E3,-1.8634894E3,3.276923E4,-2.795234E3,5.0627E3,2.8090908E4,6.1151074E2,3.086511E3,6.1151074E2,-6.348926E1,-3.9523392E2,-2.4846526E3,3.086511E3,-1.8634894E3,-2.1348927E2,-2.795234E3,3.086511E3,6.6534766E2,-9.275889E1,-2.4846526E3,3.086511E3,-1.8634894E3,-3.947839E2,4.1153477E3,2.9153477E3,2.5136512E4],"split_indices":[4,0,3,3,1,1,2,0,3,0,0,0,0,3,4,1,0,2,0,0,3,4,2,2,1,0,0,1,1,0,0,0,0,0,0,0,1,4,0,0,4,0,0,4,0,0,3,0,0,0,0,0,0,0,0,0,0,0,0,0,0,0,0,0,0,0,0],"split_type":[0,0,0,0,0,0,0,0,0,0,0,0,0,0,0,0,0,0,0,0,0,0,0,0,0,0,0,0,0,0,0,0,0,0,0,0,0,0,0,0,0,0,0,0,0,0,0,0,0,0,0,0,0,0,0,0,0,0,0,0,0,0,0,0,0,0,0],"sum_hessian":[1.18E2,7.6E1,4.2E1,5.4E1,2.2E1,1.6E1,2.6E1,4.3E1,1.1E1,1E1,1.2E1,1.2E1,4E0,1.6E1,1E1,4E0,7E0,9E0,1E0,5E0,7E0,7E0,5E0,8E0,8E0,9E0,1E0,2E0,2E0,6E0,1E0,5E0,4E0,2E0,3E0,4E0,3E0,5E0,2E0,3E0,2E0,7E0,1E0,5E0,3E0,6E0,3E0,1E0,1E0,1E0,1E0,3E0,2E0,1E0,1E0,1E0,3E0,1E0,2E0,3E0,2E0,1E0,1E0,3E0,2E0,2E0,1E0],"tree_param":{"num_deleted":"0","num_feature":"5","num_nodes":"67","size_leaf_vector":"1"}},{"base_weights":[3.3925192E2,-3.8602463E3,7.851394E3,-5.4390117E3,8.289912E1,3.6760745E3,1.5400253E4,-6.372082E3,-1.564503E3,-4.0216172E3,3.5495745E3,7.916214E2,5.970216E3,-2.3905806E3,2.2086973E4,-5.6283867E3,-2.5916567E3,4.8121816E3,-5.354368E3,-1.8518406E3,2.6235342E3,8.904219E3,-9.1010583E2,5.2430073E3,-2.4808425E3,3.0785503E3,-1.013555E3,2.6235342E3,-2.2082349E3,2.5351646E4,-1.583966E3,-1.4907567E3,-2.428853E3,6.9851514E3,1.0351517E3,-1.783936E3,-1.8146588E2,1.8391539E3,3.593089E3,-6.018771E3,5.703252E3,6.4386414E2,3.5942268E3,-2.2361873E3,5.6802354E3,3.7608628E3,4.144075E4,5.197842E2,2.6235342E3,5.197842E2,-5.396587E1,-1.583966E3,2.4115852E3,-1.8146588E2,-2.1663062E3,2.6235342E3,5.3227814E2,-8.2073773E2,1.8186011E3,-1.4162518E3,3.2162625E3,2.332278E3,2.1366033E4],"categories":[],"categories_nodes":[],"categories_segments":[],"categories_sizes":[],"default_left":[0,0,0,0,0,0,0,0,0,0,0,0,0,0,0,0,0,0,0,0,0,0,0,0,0,0,0,0,0,0,0,0,0,0,0,0,0,0,0,0,0,0,0,0,0,0,0,0,0,0,0,0,0,0,0,0,0,0,0,0,0,0,0],"id":1,"left_children":[1,3,5,7,9,11,13,15,17,19,21,23,25,27,29,31,-1,33,35,-1,-1,37,39,41,-1,-1,43,-1,-1,45,-1,-1,-1,47,49,-1,-1,51,-1,53,55,57,-1,-1,59,-1,61,-1,-1,-1,-1,-1,-1,-1,-1,-1,-1,-1,-1,-1,-1,-1,-1],"loss_changes":[3.7844283E9,4.7979917E8,1.2987E9,1.8886618E8,3.4154262E8,1.8717683E8,1.8372355E9,2.5552E7,3.157675E8,3.5608138E8,3.185438E8,6.0803904E8,4.8994778E8,3.4110413E8,1.1166362E9,1.8332032E7,0E0,3.3806176E7,1.8899856E7,0E0,0E0,1.0822733E8,3.0461002E8,3.021648E8,0E0,0E0,3.4411514E8,0E0,0E0,1.542379E9,0E0,0E0,0E0,1.2580896E7,2.854002E6,0E0,0E0,1.7484568E8,0E0,2.8176304E7,3.2289688E7,1.4476451E8,0E0,0E0,2.6032373E8,0E0,3.4565827E9,0E0,0E0,0E0,0E0,0E0,0E0,0E0,0E0,0E0,0E0,0E0,0E0,0E0,0E0,0E0,0E0],"parents":[2147483647,0,0,1,1,2,2,3,3,4,4,5,5,6,6,7,7,8,8,9,9,10,10,11,11,12,12,13,13,14,14,15,15,17,17,18,18,21,21,22,22,23,23,26,26,29,29,33,33,34,34,37,37,39,39,40,40,41,41,44,44,46,46],"right_children":[2,4,6,8,10,12,14,16,18,20,22,24,26,28,30,32,-1,34,36,-1,-1,38,40,42,-1,-1,44,-1,-1,46,-1,-1,-1,48,50,-1,-1,52,-1,54,56,58,-1,-1,60,-1,62,-1,-1,-1,-1,-1,-1,-1,-1,-1,-1,-1,-1,-1,-1,-1,-1],"split_conditions":[1.55E4,1.55E4,3.1263158E4,3.4736843E3,2.1E4,3.276923E4,1.65E1,1.65E1,1.55E4,1.8E5,2.9927273E4,3.1263158E4,1.6506E4,1.6506E4,1.8E5,1.65E1,-2.5916567E3,1.55E4,3.2E1,-1.8518406E3,2.6235342E3,3E4,1.55E4,2.79E4,-2.4808425E3,3.0785503E3,2.75E4,2.6235342E3,-2.2082349E3,1.6506E4,-1.583966E3,-1.4907567E3,-2.428853E3,1.65E1,2.79E4,-1.783936E3,-1.8146588E2,1.6506E4,3.593089E3,3E4,2.2E4,1.65E1,3.5942268E3,-2.2361873E3,1.65E1,3.7608628E3,2.8090908E4,5.197842E2,2.6235342E3,5.197842E2,-5.396587E1,-1.583966E3,2.4115852E3,-1.8146588E2,-2.1663062E3,2.6235342E3,5.3227814E2,-8.2073773E2,1.8186011E3,-1.4162518E3,3.2162625E3,2.332278E3,2.1366033E4],"split_indices":[4,0,2,3,1,4,3,2,3,0,0,4,2,4,4,1,0,1,0,0,0,1,3,4,0,0,1,0,0,0,0,0,0,1,1,0,0,0,0,0,1,0,0,0,0,0,3,0,0,0,0,0,0,0,0,0,0,0,0,0,0,0,0],"split_type":[0,0,0,0,0,0,0,0,0,0,0,0,0,0,0,0,0,0,0,0,0,0,0,0,0,0,0,0,0,0,0,0,0,0,0,0,0,0,0,0,0,0,0,0,0,0,0,0,0,0,0,0,0,0,0,0,0,0,0,0,0,0,0],"sum_hessian":[1.18E2,7.6E1,4.2E1,5.4E1,2.2E1,2.8E1,1.4E1,4.3E1,1.1E1,1E1,1.2E1,1.3E1,1.5E1,4E0,1E1,3.5E1,8E0,4E0,7E0,9E0,1E0,5E0,7E0,9E0,4E0,9E0,6E0,1E0,3E0,9E0,1E0,3E1,5E0,2E0,2E0,6E0,1E0,2E0,3E0,4E0,3E0,6E0,3E0,3E0,3E0,6E0,3E0,1E0,1E0,1E0,1E0,1E0,1E0,1E0,3E0,1E0,2E0,4E0,2E0,1E0,2E0,2E0,1E0],"tree_param":{"num_deleted":"0","num_feature":"5","num_nodes":"63","size_leaf_vector":"1"}},{"base_weights":[5.0787177E2,-2.6874592E3,6.2179326E3,-3.8958086E3,3.1891824E2,2.73717E3,1.2532878E4,-4.6084404E3,-9.581739E2,-2.7449778E3,2.8869136E3,6.7159424E2,4.902316E3,3.8014275E3,2.1968617E4,-4.0487485E3,-1.9005481E3,4.0903547E3,-3.9937324E3,-4.506145E3,2.2300042E3,6.969738E3,-5.3606903E2,2.7727522E3,-4.5055034E3,7.9580894E3,-2.1896948E3,9.505212E3,-1.711382E3,2.500916E3,3.736613E4,-3.526521E3,-1.8216398E3,5.937379E3,8.798789E2,-1.3252095E3,-1.54246E2,-2.4503496E3,-1.8215612E3,1.5632806E3,2.784644E3,-4.682694E3,4.7812295E3,6.654092E2,2.6618933E3,7.94739E2,-2.0869333E3,3.0177417E3,2.2917305E3,-1.6939476E3,1.997E3,3.2221296E3,4.99367E2,1.816113E4,-1.3463711E3,-9.606853E2,-1.6455911E3,4.4181653E2,2.2300042E3,4.4181653E2,-4.5871E1,1.1035796E2,-1.6173539E3,-1.3463711E3,2.0498474E3,-1.54246E2,-1.6788873E3,2.2300042E3,4.2582248E2,6.453557E2,-1.9059868E3,-1.0441255E3,1.6127759E3,2.007426E3,-1.108776E3],"categories":[],"categories_nodes":[],"categories_segments":[],"categories_sizes":[],"default_left":[0,0,0,0,0,0,0,0,0,0,0,0,0,0,0,0,0,0,0,0,0,0,0,0,0,0,0,0,0,0,0,0,0,0,0,0,0,0,0,0,0,0,0,0,0,0,0,0,0,0,0,0,0,0,0,0,0,0,0,0,0,0,0,0,0,0,0,0,0,0,0,0,0,0,0],"id":2,"left_children":[1,3,5,7,9,11,13,15,17,19,21,23,25,27,29,31,-1,33,35,37,-1,39,41,43,45,47,49,51,-1,-1,53,55,-1,57,59,-1,-1,61,-1,63,-1,65,67,69,-1,-1,-1,-1,71,-1,73,-1,-1,-1,-1,-1,-1,-1,-1,-1,-1,-1,-1,-1,-1,-1,-1,-1,-1,-1,-1,-1,-1,-1,-1],"loss_changes":[2.1879288E9,2.809646E8,9.108709E8,1.1072422E8,1.8889014E8,1.2640352E8,1.1523034E9,1.6873408E7,2.0023704E8,2.3067875E8,1.8541693E8,1.8653904E8,3.208279E8,5.422068E8,1.1578186E9,1.6626496E7,0E0,2.442496E7,9.52128E6,1.730992E7,0E0,6.0501024E7,1.9877979E8,1.4835904E8,1.0610643E8,9.600019E7,8.36388E7,4.023155E7,0E0,0E0,3.1810798E9,2.122912E6,0E0,9.089696E6,2.0620168E6,0E0,0E0,5.171043E7,0E0,1.2632599E8,0E0,1.6164472E7,2.5112824E7,1.1794926E8,0E0,0E0,0E0,0E0,8.992003E7,0E0,1.0490582E8,0E0,0E0,0E0,0E0,0E0,0E0,0E0,0E0,0E0,0E0,0E0,0E0,0E0,0E0,0E0,0E0,0E0,0E0,0E0,0E0,0E0,0E0,0E0,0E0],"parents":[2147483647,0,0,1,1,2,2,3,3,4,4,5,5,6,6,7,7,8,8,9,9,10,10,11,11,12,12,13,13,14,14,15,15,17,17,18,18,19,19,21,21,22,22,23,23,24,24,25,25,26,26,27,27,30,30,31,31,33,33,34,34,37,37,39,39,41,41,42,42,43,43,48,48,50,50],"right_children":[2,4,6,8,10,12,14,16,18,20,22,24,26,28,30,32,-1,34,36,38,-1,40,42,44,46,48,50,52,-1,-1,54,56,-1,58,60,-1,-1,62,-1,64,-1,66,68,70,-1,-1,-1,-1,72,-1,74,-1,-1,-1,-1,-1,-1,-1,-1,-1,-1,-1,-1,-1,-1,-1,-1,-1,-1,-1,-1,-1,-1,-1,-1],"split_conditions":[1.55E4,1.55E4,3.1263158E4,3.4736843E3,2.1E4,1.65E1,2.8090908E4,1.65E1,1.55E4,1.8E5,2.9927273E4,1.2E4,3.3E4,3.3E4,1.6506E4,1.65E1,-1.9005481E3,1.55E4,3.2E1,1.65E1,2.2300042E3,3E4,1.55E4,1.5E4,1.65E1,3.3E4,3.3E4,3.1263158E4,-1.711382E3,2.500916E3,1.8E5,1.65E1,-1.8216398E3,1.65E1,2.79E4,-1.3252095E3,-1.54246E2,3.276923E4,-1.8215612E3,1.6506E4,2.784644E3,3E4,2.2E4,1.65E1,2.6618933E3,7.94739E2,-2.0869333E3,3.0177417E3,1.65E1,-1.6939476E3,1.65E1,3.2221296E3,4.99367E2,1.816113E4,-1.3463711E3,-9.606853E2,-1.6455911E3,4.4181653E2,2.2300042E3,4.4181653E2,-4.5871E1,1.1035796E2,-1.6173539E3,-1.3463711E3,2.0498474E3,-1.54246E2,-1.6788873E3,2.2300042E3,4.2582248E2,6.453557E2,-1.9059868E3,-1.0441255E3,1.6127759E3,2.007426E3,-1.108776E3],"split_indices":[4,0,2,3,1,0,3,2,3,0,0,2,3,4,0,1,0,1,0,2,0,1,3,1,1,1,0,1,0,0,4,3,0,1,1,0,0,0,0,0,0,0,1,1,0,0,0,0,2,0,1,0,0,0,0,0,0,0,0,0,0,0,0,0,0,0,0,0,0,0,0,0,0,0,0],"split_type":[0,0,0,0,0,0,0,0,0,0,0,0,0,0,0,0,0,0,0,0,0,0,0,0,0,0,0,0,0,0,0,0,0,0,0,0,0,0,0,0,0,0,0,0,0,0,0,0,0,0,0,0,0,0,0,0,0,0,0,0,0,0,0,0,0,0,0,0,0,0,0,0,0,0,0],"sum_hessian":[1.18E2,7.6E1,4.2E1,5.4E1,2.2E1,2.8E1,1.4E1,4.3E1,1.1E1,1E1,1.2E1,1.5E1,1.3E1,8E0,6E0,3.5E1,8E0,4E0,7E0,9E0,1E0,5E0,7E0,1.1E1,4E0,9E0,4E0,5E0,3E0,4E0,2E0,3E1,5E0,2E0,2E0,6E0,1E0,5E0,4E0,2E0,3E0,4E0,3E0,9E0,2E0,1E0,3E0,6E0,3E0,2E0,2E0,4E0,1E0,1E0,1E0,2.8E1,2E0,1E0,1E0,1E0,1E0,3E0,2E0,1E0,1E0,1E0,3E0,1E0,2E0,8E0,1E0,1E0,2E0,1E0,1E0],"tree_param":{"num_deleted":"0","num_feature":"5","num_nodes":"75","size_leaf_vector":"1"}},{"base_weights":[5.462503E2,-1.9010641E3,4.915947E3,-2.8132505E3,3.6290622E2,2.0160247E3,1.0194733E4,-3.369737E3,-5.383625E2,-2.0213529E3,2.3524404E3,4.732143E-1,3.6536306E3,2.8843455E3,1.8137414E4,-2.9571213E3,-1.3937351E3,3.4768015E3,-2.9805447E3,-3.4871572E3,1.8955035E3,2.4252493E3,5.7538495E2,2.9983267E3,-1.7985985E3,6.5839985E3,-9.973706E1,7.273898E3,-1.326321E3,1.9006962E3,3.1761209E4,-2.552638E3,-1.36623E3,5.046772E3,7.4789716E2,-1.6751718E3,-1.3793328E3,-1.6367324E3,-1.8640675E3,4.2290435E3,-2.1165688E3,-6.803418E1,7.6148765E3,2.3118088E3,1.7712601E3,7.0550757E3,-1.7410919E3,2.4488186E3,4.2446194E2,1.543696E4,-1.1444154E3,-6.824178E2,-1.3164729E3,3.7554407E2,1.8955035E3,3.7554407E2,-3.8990334E1,-1.6982298E2,-7.786724E2,4.2439752E2,-1.403033E3,-1.1444154E3,2.158099E3,-1.0933538E3,3.4065802E2,4.3394412E2,-1.3732682E3,2.5899255E3,6.8403754E2,-8.90774E2,1.6878411E3,6.1611066E2,2.41129E3],"categories":[],"categories_nodes":[],"categories_segments":[],"categories_sizes":[],"default_left":[0,0,0,0,0,0,0,0,0,0,0,0,0,0,0,0,0,0,0,0,0,0,0,0,0,0,0,0,0,0,0,0,0,0,0,0,0,0,0,0,0,0,0,0,0,0,0,0,0,0,0,0,0,0,0,0,0,0,0,0,0,0,0,0,0,0,0,0,0,0,0,0,0],"id":3,"left_children":[1,3,5,7,9,11,13,15,17,19,21,23,25,27,29,31,-1,33,35,37,-1,-1,39,41,-1,43,45,47,-1,-1,49,51,-1,53,55,57,-1,-1,59,61,63,65,67,-1,69,71,-1,-1,-1,-1,-1,-1,-1,-1,-1,-1,-1,-1,-1,-1,-1,-1,-1,-1,-1,-1,-1,-1,-1,-1,-1,-1,-1],"loss_changes":[1.2819341E9,1.600385E8,6.376943E8,6.78128E7,1.138571E8,9.571795E7,8.1864666E8,9.428608E6,1.2803191E8,1.5650106E8,1.2776117E8,2.6961946E8,1.7663664E8,3.2076595E8,9.242652E8,1.162928E7,0E0,1.7647032E7,9.186648E6,2.1782504E7,0E0,0E0,1.1714134E8,1.4207814E8,0E0,3.495101E7,3.6742794E8,1.9696864E7,0E0,0E0,2.2983304E9,5.832208E6,0E0,6.567304E6,1.4898069E6,4.655592E6,0E0,0E0,7.117075E7,1.4667526E8,3.8921576E7,5.442955E7,2.04304E6,0E0,7.152759E7,3.149648E6,0E0,0E0,0E0,0E0,0E0,0E0,0E0,0E0,0E0,0E0,0E0,0E0,0E0,0E0,0E0,0E0,0E0,0E0,0E0,0E0,0E0,0E0,0E0,0E0,0E0,0E0,0E0],"parents":[2147483647,0,0,1,1,2,2,3,3,4,4,5,5,6,6,7,7,8,8,9,9,10,10,11,11,12,12,13,13,14,14,15,15,17,17,18,18,19,19,22,22,23,23,25,25,26,26,27,27,30,30,31,31,33,33,34,34,35,35,38,38,39,39,40,40,41,41,42,42,44,44,45,45],"right_children":[2,4,6,8,10,12,14,16,18,20,22,24,26,28,30,32,-1,34,36,38,-1,-1,40,42,-1,44,46,48,-1,-1,50,52,-1,54,56,58,-1,-1,60,62,64,66,68,-1,70,72,-1,-1,-1,-1,-1,-1,-1,-1,-1,-1,-1,-1,-1,-1,-1,-1,-1,-1,-1,-1,-1,-1,-1,-1,-1,-1,-1],"split_conditions":[1.55E4,1.55E4,3.1263158E4,3.4736843E3,2.1E4,3.276923E4,2.8090908E4,1.65E1,1.55E4,1.8E5,2.475E4,3.1263158E4,2.475E4,3.3E4,1.6506E4,1.65E1,-1.3937351E3,1.55E4,1.65E1,3.2E4,1.8955035E3,2.4252493E3,2.9927273E4,2.79E4,-1.7985985E3,2.1666666E4,1.65E1,3.1263158E4,-1.326321E3,1.9006962E3,1.8E5,1.65E1,-1.36623E3,1.65E1,2.79E4,1.65E1,-1.3793328E3,-1.6367324E3,3.276923E4,3E4,1.55E4,2.75E4,1.65E1,2.3118088E3,1.65E1,1.65E1,-1.7410919E3,2.4488186E3,4.2446194E2,1.543696E4,-1.1444154E3,-6.824178E2,-1.3164729E3,3.7554407E2,1.8955035E3,3.7554407E2,-3.8990334E1,-1.6982298E2,-7.786724E2,4.2439752E2,-1.403033E3,-1.1444154E3,2.158099E3,-1.0933538E3,3.4065802E2,4.3394412E2,-1.3732682E3,2.5899255E3,6.8403754E2,-8.90774E2,1.6878411E3,6.1611066E2,2.41129E3],"split_indices":[4,0,2,3,1,4,3,2,3,0,1,4,3,4,0,1,0,1,1,0,0,0,0,4,0,2,1,1,0,0,4,3,0,1,1,2,0,0,0,1,3,4,1,0,0,2,0,0,0,0,0,0,0,0,0,0,0,0,0,0,0,0,0,0,0,0,0,0,0,0,0,0,0],"split_type":[0,0,0,0,0,0,0,0,0,0,0,0,0,0,0,0,0,0,0,0,0,0,0,0,0,0,0,0,0,0,0,0,0,0,0,0,0,0,0,0,0,0,0,0,0,0,0,0,0,0,0,0,0,0,0,0,0,0,0,0,0,0,0,0,0,0,0,0,0,0,0,0,0],"sum_hessian":[1.18E2,7.6E1,4.2E1,5.4E1,2.2E1,2.8E1,1.4E1,4.3E1,1.1E1,1E1,1.2E1,1.3E1,1.5E1,8E0,6E0,3.5E1,8E0,4E0,7E0,9E0,1E0,2E0,1E1,9E0,4E0,8E0,7E0,5E0,3E0,4E0,2E0,3E1,5E0,2E0,2E0,5E0,2E0,3E0,6E0,4E0,6E0,6E0,3E0,6E0,2E0,3E0,4E0,4E0,1E0,1E0,1E0,2.8E1,2E0,1E0,1E0,1E0,1E0,3E0,2E0,3E0,3E0,1E0,3E0,4E0,2E0,5E0,1E0,2E0,1E0,1E0,1E0,1E0,2E0],"tree_param":{"num_deleted":"0","num_feature":"5","num_nodes":"73","size_leaf_vector":"1"}},{"base_weights":[5.5177625E2,-1.3633774E3,3.9684055E3,-2.0507131E3,3.3952856E2,1.5189279E3,8.439502E3,-2.4669714E3,-3.535394E2,-1.4803893E3,1.8533414E3,2.4683838E3,-1.281942E3,2.8299167E3,1.9092688E4,-2.172642E3,-1.0559622E3,2.9552812E3,-2.3773599E3,-2.7025466E3,1.6111779E3,1.9401991E3,4.2649533E2,3.124215E2,4.238984E3,1.4822438E3,-2.450378E3,-1.002118E3,5.561332E3,2.5487115E4,-9.7275305E2,-1.8845585E3,-1.0918396E3,4.2897563E3,6.357126E2,-1.3307029E3,-1.1034663E3,-1.2684678E3,-1.4446522E3,3.1630667E3,-1.5891263E3,-2.292716E3,3.8971296E3,2.049117E3,5.510444E3,1.296371E3,-6.293612E2,-1.32323E3,1.1027347E3,2.0434692E3,3.6212738E2,1.447236E3,1.3121416E4,-4.8475186E2,-9.1986523E2,3.1921246E2,1.6111779E3,3.1921246E2,-3.31418E1,-1.3161287E2,-6.229379E2,3.2890814E2,-1.0873506E3,-9.7275305E2,1.6725266E3,-8.309489E2,2.7252637E2,-1.760563E3,9.339703E1,1.7030159E3,2.4554904E2,1.1352623E3,-2.8421286E2,1.8160771E3,3.3773468E2],"categories":[],"categories_nodes":[],"categories_segments":[],"categories_sizes":[],"default_left":[0,0,0,0,0,0,0,0,0,0,0,0,0,0,0,0,0,0,0,0,0,0,0,0,0,0,0,0,0,0,0,0,0,0,0,0,0,0,0,0,0,0,0,0,0,0,0,0,0,0,0,0,0,0,0,0,0,0,0,0,0,0,0,0,0,0,0,0,0,0,0,0,0,0,0],"id":4,"left_children":[1,3,5,7,9,11,13,15,17,19,21,23,25,27,29,31,-1,33,35,37,-1,-1,39,41,43,45,47,-1,49,51,-1,53,-1,55,57,59,-1,-1,61,63,65,67,69,71,73,-1,-1,-1,-1,-1,-1,-1,-1,-1,-1,-1,-1,-1,-1,-1,-1,-1,-1,-1,-1,-1,-1,-1,-1,-1,-1,-1,-1,-1,-1],"loss_changes":[7.840714E8,9.082232E7,4.581106E8,3.798328E7,6.6109016E7,8.0284104E7,8.423685E8,5.988192E6,8.738327E7,1.0661704E8,8.282658E7,8.26573E7,2.9470248E7,2.0396752E8,7.9674624E8,8.776224E6,0E0,1.2749984E7,5.997824E6,1.308312E7,0E0,0E0,6.570133E7,1.1166024E8,2.2120368E7,3.9557148E7,8.827094E7,0E0,3.5328304E7,1.2974784E9,0E0,5.524104E6,0E0,4.744872E6,1.0763859E6,3.080297E6,0E0,0E0,4.2746936E7,9.5329224E7,2.3158212E7,6.7008172E7,2.2747144E7,3.478019E7,9.855584E6,0E0,0E0,0E0,0E0,0E0,0E0,0E0,0E0,0E0,0E0,0E0,0E0,0E0,0E0,0E0,0E0,0E0,0E0,0E0,0E0,0E0,0E0,0E0,0E0,0E0,0E0,0E0,0E0,0E0,0E0],"parents":[2147483647,0,0,1,1,2,2,3,3,4,4,5,5,6,6,7,7,8,8,9,9,10,10,11,11,12,12,13,13,14,14,15,15,17,17,18,18,19,19,22,22,23,23,24,24,25,25,26,26,28,28,29,29,31,31,33,33,34,34,35,35,38,38,39,39,40,40,41,41,42,42,43,43,44,44],"right_children":[2,4,6,8,10,12,14,16,18,20,22,24,26,28,30,32,-1,34,36,38,-1,-1,40,42,44,46,48,-1,50,52,-1,54,-1,56,58,60,-1,-1,62,64,66,68,70,72,74,-1,-1,-1,-1,-1,-1,-1,-1,-1,-1,-1,-1,-1,-1,-1,-1,-1,-1,-1,-1,-1,-1,-1,-1,-1,-1,-1,-1,-1,-1],"split_conditions":[1.55E4,1.55E4,2.75E4,3.4736843E3,2.1E4,1.2E4,3.3E4,1.65E1,1.55E4,1.8E5,2.475E4,1.65E1,1.65E1,1.65E4,1.8E5,1.65E1,-1.0559622E3,1.55E4,1.65E1,3.2E4,1.6111779E3,1.9401991E3,2.9927273E4,1.65E1,1.65E1,1.65E1,3E4,-1.002118E3,2.75E4,1.6506E4,-9.7275305E2,1.65E1,-1.0918396E3,1.65E1,2.79E4,1.65E1,-1.1034663E3,-1.2684678E3,3.276923E4,3E4,1.55E4,2.79E4,1.6506E4,3.1263158E4,1.65E1,1.296371E3,-6.293612E2,-1.32323E3,1.1027347E3,2.0434692E3,3.6212738E2,1.447236E3,1.3121416E4,-4.8475186E2,-9.1986523E2,3.1921246E2,1.6111779E3,3.1921246E2,-3.31418E1,-1.3161287E2,-6.229379E2,3.2890814E2,-1.0873506E3,-9.7275305E2,1.6725266E3,-8.309489E2,2.7252637E2,-1.760563E3,9.339703E1,1.7030159E3,2.4554904E2,1.1352623E3,-2.8421286E2,1.8160771E3,3.3773468E2],"split_indices":[4,0,1,3,1,1,3,1,3,0,1,3,3,3,4,3,0,1,1,0,0,0,0,0,2,0,2,0,3,0,0,2,0,1,1,2,0,0,0,1,3,4,4,3,1,0,0,0,0,0,0,0,0,0,0,0,0,0,0,0,0,0,0,0,0,0,0,0,0,0,0,0,0,0,0],"split_type":[0,0,0,0,0,0,0,0,0,0,0,0,0,0,0,0,0,0,0,0,0,0,0,0,0,0,0,0,0,0,0,0,0,0,0,0,0,0,0,0,0,0,0,0,0,0,0,0,0,0,0,0,0,0,0,0,0,0,0,0,0,0,0,0,0,0,0,0,0,0,0,0,0,0,0],"sum_hessian":[1.18E2,7.6E1,4.2E1,5.4E1,2.2E1,2.8E1,1.4E1,4.3E1,1.1E1,1E1,1.2E1,2.1E1,7E0,1E1,4E0,3.6E1,7E0,4E0,7E0,9E0,1E0,2E0,1E1,1E1,1.1E1,2E0,5E0,3E0,7E0,3E0,1E0,3.2E1,4E0,2E0,2E0,5E0,2E0,3E0,6E0,4E0,6E0,6E0,4E0,5E0,6E0,1E0,1E0,4E0,1E0,5E0,2E0,2E0,1E0,2.8E1,4E0,1E0,1E0,1E0,1E0,3E0,2E0,3E0,3E0,1E0,3E0,4E0,2E0,2E0,4E0,2E0,2E0,3E0,2E0,5E0,1E0],"tree_param":{"num_deleted":"0","num_feature":"5","num_nodes":"75","size_leaf_vector":"1"}},{"base_weights":[5.3081476E2,-9.7421045E2,3.2135154E3,-1.1071606E3,1.3695012E3,1.1919661E3,6.90761E3,-1.4455256E3,1.2706011E3,2.8279392E3,1.8208858E2,2.108531E3,1.6084062E4,-1.2137487E3,-9.7763794E2,-6.6447974E2,1.9039862E3,1.1945562E3,5.3877207E3,-1.3925038E3,1.3766499E3,-7.766414E2,4.1936323E3,2.1483145E4,-8.268401E2,-1.501985E3,8.8356464E2,1.304491E3,-4.2889484E1,-6.7794635E2,1.3624127E3,1.8809932E3,4.111427E2,3.5571272E3,-1.248468E3,1.532602E3,2.8970197E2,1.1577887E3,1.1153203E4,-5.493215E2,3.8730785E1,5.8243286E2,-9.782374E2,-8.268401E2,3.1529584E2,-1.4084502E3,7.5126184E2,1.3887563E3,-3.9016846E1,3.742748E2,-8.986845E2],"categories":[],"categories_nodes":[],"categories_segments":[],"categories_sizes":[],"default_left":[0,0,0,0,0,0,0,0,0,0,0,0,0,0,0,0,0,0,0,0,0,0,0,0,0,0,0,0,0,0,0,0,0,0,0,0,0,0,0,0,0,0,0,0,0,0,0,0,0,0,0],"id":5,"left_children":[1,3,5,7,-1,9,11,13,15,17,19,21,23,25,-1,-1,27,29,31,-1,33,-1,35,37,-1,39,41,-1,43,45,-1,-1,-1,47,49,-1,-1,-1,-1,-1,-1,-1,-1,-1,-1,-1,-1,-1,-1,-1,-1],"loss_changes":[4.83597E8,6.1760064E7,3.1288144E8,6.2982584E7,0E0,4.7396904E7,6.2666406E8,2.4202992E7,2.6294052E7,3.955621E7,1.1587341E8,1.1859512E8,5.678093E8,3.820293E7,0E0,0E0,4.301553E7,5.321423E7,5.58412E6,0E0,9.602512E7,0E0,1.86964E7,9.628904E8,0E0,2.9221896E7,4.1404428E7,0E0,2.0704364E7,8.845093E7,0E0,0E0,0E0,3.617801E7,3.862502E7,0E0,0E0,0E0,0E0,0E0,0E0,0E0,0E0,0E0,0E0,0E0,0E0,0E0,0E0,0E0,0E0],"parents":[2147483647,0,0,1,1,2,2,3,3,5,5,6,6,7,7,8,8,9,9,10,10,11,11,12,12,13,13,16,16,17,17,18,18,20,20,22,22,23,23,25,25,26,26,28,28,29,29,33,33,34,34],"right_children":[2,4,6,8,-1,10,12,14,16,18,20,22,24,26,-1,-1,28,30,32,-1,34,-1,36,38,-1,40,42,-1,44,46,-1,-1,-1,48,50,-1,-1,-1,-1,-1,-1,-1,-1,-1,-1,-1,-1,-1,-1,-1,-1],"split_conditions":[1.55E4,1.8E5,2.75E4,3.276923E4,1.3695012E3,3.1263158E4,3.3E4,3.276923E4,1.65E1,2.79E4,3.276923E4,1.65E4,1.8E5,1.6506E4,-9.7763794E2,-6.6447974E2,1.65E4,1.65E1,1.65E1,-1.3925038E3,1.6506E4,-7.766414E2,2.75E4,1.6506E4,-8.268401E2,3.4736843E3,1.2E4,1.304491E3,2.9927273E4,1.65E1,1.3624127E3,1.8809932E3,4.111427E2,1.65E1,1.65E1,1.532602E3,2.8970197E2,1.1577887E3,1.1153203E4,-5.493215E2,3.8730785E1,5.8243286E2,-9.782374E2,-8.268401E2,3.1529584E2,-1.4084502E3,7.5126184E2,1.3887563E3,-3.9016846E1,3.742748E2,-8.986845E2],"split_indices":[4,0,1,3,0,4,3,0,0,4,4,3,4,0,0,0,2,0,1,0,2,0,3,0,0,3,4,0,2,3,0,0,0,1,0,0,0,0,0,0,0,0,0,0,0,0,0,0,0,0,0],"split_type":[0,0,0,0,0,0,0,0,0,0,0,0,0,0,0,0,0,0,0,0,0,0,0,0,0,0,0,0,0,0,0,0,0,0,0,0,0,0,0,0,0,0,0,0,0,0,0,0,0,0,0],"sum_hessian":[1.18E2,7.6E1,4.2E1,7.5E1,1E0,2.8E1,1.4E1,6.6E1,9E0,1E1,1.8E1,1E1,4E0,6E1,6E0,1E0,8E0,7E0,3E0,3E0,1.5E1,3E0,7E0,3E0,1E0,5.3E1,7E0,3E0,5E0,5E0,2E0,2E0,1E0,8E0,7E0,5E0,2E0,2E0,1E0,4.4E1,9E0,6E0,1E0,1E0,4E0,2E0,3E0,6E0,2E0,3E0,4E0],"tree_param":{"num_deleted":"0","num_feature":"5","num_nodes":"51","size_leaf_vector":"1"}},{"base_weights":[4.940405E2,-3.2825137E2,3.598988E3,-8.8971893E2,8.5960803E2,1.1884258E3,7.7523843E3,-1.3528181E3,6.130736E2,3.6204724E3,5.4435974E2,2.6399604E3,-3.9515604E2,1.0848104E3,1.5815649E4,-1.01830206E3,-7.767157E2,1.02037665E3,-2.9198798E2,1.3636917E3,2.6552097E2,-3.567672E2,2.0513645E3,7.906619E2,1.4261754E3,8.5987286E2,-6.5367316E2,-5.6859424E2,3.0487012E3,2.2649342E4,-7.02814E2,-8.1383466E2,-1.0010833E3,-9.630291E2,1.1640759E3,-1.5801254E3,9.022677E2,2.6943381E3,-6.5675574E2,2.4882449E3,-1.154588E3,-5.63718E2,2.4713699E3,1.044135E3,2.6301828E2,7.119809E2,9.480223E3,-3.442512E2,1.7798397E3,-4.604195E2,3.790966E2,-2.3495879E2,-7.7391626E2,-5.648078E2,4.2626874E2,5.162234E2,9.971348E2,3.7920792E2,1.107768E3,-6.2143005E2,5.939142E2,2.3093321E2,8.811832E2],"categories":[],"categories_nodes":[],"categories_segments":[],"categories_sizes":[],"default_left":[0,0,0,0,0,0,0,0,0,0,0,0,0,0,0,0,0,0,0,0,0,0,0,0,0,0,0,0,0,0,0,0,0,0,0,0,0,0,0,0,0,0,0,0,0,0,0,0,0,0,0,0,0,0,0,0,0,0,0,0,0,0,0],"id":6,"left_children":[1,3,5,7,9,11,13,15,17,19,21,23,25,27,29,31,-1,-1,33,-1,-1,35,37,39,-1,41,-1,-1,43,45,-1,47,-1,49,-1,51,53,55,-1,57,-1,59,61,-1,-1,-1,-1,-1,-1,-1,-1,-1,-1,-1,-1,-1,-1,-1,-1,-1,-1,-1,-1],"loss_changes":[3.0500896E8,6.4124536E7,2.4108736E8,4.6065616E7,2.5010254E7,4.01198E7,4.667047E8,1.8040568E7,4.1368744E7,3.568896E6,4.0113936E7,3.1425308E7,2.2021556E7,4.0894076E7,5.4941555E8,1.6721836E7,0E0,0E0,4.013349E7,0E0,0E0,3.069046E7,3.5890588E7,5.6829784E7,0E0,1.515783E7,0E0,0E0,6.99584E5,4.6950067E8,0E0,9.460253E7,0E0,1.7215384E7,0E0,5.94564E6,1.7118696E7,4.08856E5,0E0,2.704232E6,0E0,1.943993E7,1.17304E5,0E0,0E0,0E0,0E0,0E0,0E0,0E0,0E0,0E0,0E0,0E0,0E0,0E0,0E0,0E0,0E0,0E0,0E0,0E0,0E0],"parents":[2147483647,0,0,1,1,2,2,3,3,4,4,5,5,6,6,7,7,8,8,9,9,10,10,11,11,12,12,13,13,14,14,15,15,18,18,21,21,22,22,23,23,25,25,28,28,29,29,31,31,33,33,35,35,36,36,37,37,39,39,41,41,42,42],"right_children":[2,4,6,8,10,12,14,16,18,20,22,24,26,28,30,32,-1,-1,34,-1,-1,36,38,40,-1,42,-1,-1,44,46,-1,48,-1,50,-1,52,54,56,-1,58,-1,60,62,-1,-1,-1,-1,-1,-1,-1,-1,-1,-1,-1,-1,-1,-1,-1,-1,-1,-1,-1,-1],"split_conditions":[3.276923E4,3.4736843E3,3.3E4,1.6506E4,1.5E4,1.6506E4,2.8090908E4,1.65E1,2.9927273E4,1.55E4,3.4736843E3,1.65E1,2.8090908E4,1.65E4,1.8E5,3.1263158E4,-7.767157E2,1.02037665E3,1.8E5,1.3636917E3,2.6552097E2,3.276923E4,3E4,3.1263158E4,1.4261754E3,2.9927273E4,-6.5367316E2,-5.6859424E2,3.1263158E4,1.6506E4,-7.02814E2,2.79E4,-1.0010833E3,1.55E4,1.1640759E3,1.65E1,1.65E1,3.1263158E4,-6.5675574E2,1.65E1,-1.154588E3,2.2E4,1.2E4,1.044135E3,2.6301828E2,7.119809E2,9.480223E3,-3.442512E2,1.7798397E3,-4.604195E2,3.790966E2,-2.3495879E2,-7.7391626E2,-5.648078E2,4.2626874E2,5.162234E2,9.971348E2,3.7920792E2,1.107768E3,-6.2143005E2,5.939142E2,2.3093321E2,8.811832E2],"split_indices":[4,3,1,0,3,2,3,1,0,1,4,2,0,3,4,4,0,0,0,0,0,3,4,3,0,3,0,0,0,0,0,4,0,4,0,0,0,2,0,1,0,0,1,0,0,0,0,0,0,0,0,0,0,0,0,0,0,0,0,0,0,0,0],"split_type":[0,0,0,0,0,0,0,0,0,0,0,0,0,0,0,0,0,0,0,0,0,0,0,0,0,0,0,0,0,0,0,0,0,0,0,0,0,0,0,0,0,0,0,0,0,0,0,0,0,0,0,0,0,0,0,0,0,0,0,0,0,0,0],"sum_hessian":[1.18E2,9.4E1,2.4E1,6.4E1,3E1,1.6E1,8E0,4.9E1,1.5E1,2E0,2.8E1,8E0,8E0,5E0,3E0,4E1,9E0,3E0,1.2E1,1E0,1E0,1.8E1,1E1,5E0,3E0,5E0,3E0,2E0,3E0,2E0,1E0,3.8E1,2E0,1.1E1,1E0,9E0,9E0,9E0,1E0,4E0,1E0,3E0,2E0,2E0,1E0,1E0,1E0,3.7E1,1E0,9E0,2E0,6E0,3E0,1E0,8E0,5E0,4E0,3E0,1E0,2E0,1E0,1E0,1E0],"tree_param":{"num_deleted":"0","num_feature":"5","num_nodes":"63","size_leaf_vector":"1"}},{"base_weights":[4.7622128E2,-1.971516E2,3.0159895E3,-4.7040337E1,-8.6692395E2,9.606917E2,6.5631084E3,-4.4277078E2,1.987512E3,1.8263131E3,-5.368122E2,8.824607E2,1.3443303E4,-5.3539185E2,9.894645E2,1.4090658E3,1.5128638E3,8.8410626E2,4.0121994E2,-6.733849E2,1.3051948E3,-4.5487534E2,2.4608794E3,1.9251941E4,-5.9739197E2,-3.8731342E2,-7.681928E2,-4.1487924E2,2.8288845E3,2.6540923E3,-2.7363499E3,2.100664E3,-1.621819E2,8.3530804E2,2.2356563E2,6.0518384E2,8.05819E3,-1.99894E2,1.2780557E2,-1.0146635E3,4.3454886E2,4.965755E2,1.0766115E3,8.821026E1,1.0028301E3,-9.813998E2,-2.4995769E2,1.9629317E2,7.490057E2],"categories":[],"categories_nodes":[],"categories_segments":[],"categories_sizes":[],"default_left":[0,0,0,0,0,0,0,0,0,0,0,0,0,0,0,0,0,0,0,0,0,0,0,0,0,0,0,0,0,0,0,0,0,0,0,0,0,0,0,0,0,0,0,0,0,0,0,0,0],"id":7,"left_children":[1,3,5,7,-1,9,11,13,15,17,19,21,23,25,-1,27,-1,-1,29,-1,31,-1,33,35,-1,37,-1,39,41,43,45,47,-1,-1,-1,-1,-1,-1,-1,-1,-1,-1,-1,-1,-1,-1,-1,-1,-1],"loss_changes":[2.0410971E8,3.8262E7,1.7595453E8,7.4147224E7,0E0,2.3017002E7,3.3989245E8,2.8445876E7,1.9404728E7,1.6385836E7,2.4950172E7,2.644834E7,3.969529E8,2.180032E7,0E0,3.742904E7,0E0,0E0,4.967379E7,0E0,7.008743E6,0E0,1.44974E5,3.392142E8,0E0,1.6622068E7,0E0,4.36039E7,1.193792E6,5.51836E6,3.28818E5,8.4754E4,0E0,0E0,0E0,0E0,0E0,0E0,0E0,0E0,0E0,0E0,0E0,0E0,0E0,0E0,0E0,0E0,0E0],"parents":[2147483647,0,0,1,1,2,2,3,3,5,5,6,6,7,7,8,8,9,9,10,10,11,11,12,12,13,13,15,15,18,18,20,20,22,22,23,23,25,25,27,27,28,28,29,29,30,30,31,31],"right_children":[2,4,6,8,-1,10,12,14,16,18,20,22,24,26,-1,28,-1,-1,30,-1,32,-1,34,36,-1,38,-1,40,42,44,46,48,-1,-1,-1,-1,-1,-1,-1,-1,-1,-1,-1,-1,-1,-1,-1,-1,-1],"split_conditions":[3.276923E4,3.1263158E4,3.3E4,1.55E4,-8.6692395E2,2.1666666E4,2.8090908E4,1.8E5,3E4,2.475E4,2.9927273E4,1.65E4,1.8E5,1.2E4,9.894645E2,1.65E1,1.5128638E3,8.8410626E2,1.65E1,-6.733849E2,1.65E1,-4.5487534E2,3.1263158E4,1.6506E4,-5.9739197E2,2.1E4,-7.681928E2,1.65E1,2.8090908E4,1.65E1,1.65E1,1.2E4,-1.621819E2,8.3530804E2,2.2356563E2,6.0518384E2,8.05819E3,-1.99894E2,1.2780557E2,-1.0146635E3,4.3454886E2,4.965755E2,1.0766115E3,8.821026E1,1.0028301E3,-9.813998E2,-2.4995769E2,1.9629317E2,7.490057E2],"split_indices":[4,4,1,4,0,2,3,0,4,3,3,3,4,4,0,0,0,0,1,0,0,0,0,0,0,1,0,3,2,2,0,1,0,0,0,0,0,0,0,0,0,0,0,0,0,0,0,0,0],"split_type":[0,0,0,0,0,0,0,0,0,0,0,0,0,0,0,0,0,0,0,0,0,0,0,0,0,0,0,0,0,0,0,0,0,0,0,0,0,0,0,0,0,0,0,0,0,0,0,0,0],"sum_hessian":[1.18E2,9.4E1,2.4E1,9E1,4E0,1.6E1,8E0,7.6E1,1.4E1,1E1,6E0,5E0,3E0,7.5E1,1E0,1.3E1,1E0,5E0,5E0,3E0,3E0,2E0,3E0,2E0,1E0,7.1E1,4E0,6E0,7E0,3E0,2E0,2E0,1E0,2E0,1E0,1E0,1E0,5.3E1,1.8E1,2E0,4E0,4E0,3E0,1E0,2E0,1E0,1E0,1E0,1E0],"tree_param":{"num_deleted":"0","num_feature":"5","num_nodes":"49","size_leaf_vector":"1"}},{"base_weights":[4.284113E2,-1.1918293E2,2.4921328E3,-3.751022E0,-6.588621E2,7.226915E2,5.557507E3,-1.7060712E2,2.9002954E3,1.5268247E3,-1.6174068E2,7.1838855E2,1.1426809E4,-5.333022E2,8.0368835E2,1.2859342E3,4.4464368E2,3.1567392E2,8.8855347E2,7.022386E2,-4.2518234E2,-3.639003E2,5.962001E2,1.6364151E4,-5.077831E2,-2.5186316E2,-1.5204514E3,-2.259329E2,1.4365233E3,1.4910618E3,-8.341898E2,-2.8581543E2,1.7855645E3,5.1440625E2,6.849462E3,-1.8367926E2,2.9113864E2,-5.7280646E2,1.6259395E2,4.1465137E2,-4.5850925E2,6.292858E2,2.8582863E1,1.546547E2,8.0898694E2,-3.6246698E2,3.7221124E2,1.6684923E2,6.366548E2],"categories":[],"categories_nodes":[],"categories_segments":[],"categories_sizes":[],"default_left":[0,0,0,0,0,0,0,0,0,0,0,0,0,0,0,0,0,0,0,0,0,0,0,0,0,0,0,0,0,0,0,0,0,0,0,0,0,0,0,0,0,0,0,0,0,0,0,0,0],"id":8,"left_children":[1,3,5,7,-1,9,11,13,15,17,19,21,23,25,27,-1,-1,29,-1,31,-1,-1,-1,33,-1,35,37,39,41,43,-1,45,47,-1,-1,-1,-1,-1,-1,-1,-1,-1,-1,-1,-1,-1,-1,-1,-1],"loss_changes":[1.3477677E8,2.2768474E7,1.3158363E8,4.4589576E7,0E0,1.2337372E7,2.474113E8,3.117199E7,3.475716E6,1.4707252E7,1.0758062E7,1.71156E7,2.8679843E8,1.7397682E7,1.5962486E7,0E0,0E0,2.598226E7,0E0,6.932649E6,0E0,0E0,0E0,2.450823E8,0E0,2.3061068E7,1.226405E7,2.305691E7,1.3100542E7,4.490252E6,0E0,7.131342E6,6.1234E4,0E0,0E0,0E0,0E0,0E0,0E0,0E0,0E0,0E0,0E0,0E0,0E0,0E0,0E0,0E0,0E0],"parents":[2147483647,0,0,1,1,2,2,3,3,5,5,6,6,7,7,8,8,9,9,10,10,11,11,12,12,13,13,14,14,17,17,19,19,23,23,25,25,26,26,27,27,28,28,29,29,31,31,32,32],"right_children":[2,4,6,8,-1,10,12,14,16,18,20,22,24,26,28,-1,-1,30,-1,32,-1,-1,-1,34,-1,36,38,40,42,44,-1,46,48,-1,-1,-1,-1,-1,-1,-1,-1,-1,-1,-1,-1,-1,-1,-1,-1],"split_conditions":[3.276923E4,3.1263158E4,3.3E4,2.79E4,-6.588621E2,1.6506E4,2.8090908E4,1.6506E4,1.65E1,1.65E1,2.8090908E4,1.65E4,1.8E5,3.4736843E3,1.65E1,1.2859342E3,4.4464368E2,3.1263158E4,8.8855347E2,2.9927273E4,-4.2518234E2,-3.639003E2,5.962001E2,1.6506E4,-5.077831E2,3.3E1,1.6506E4,3.276923E4,2.8090908E4,1.65E1,-8.341898E2,2.2E4,1.2E4,5.1440625E2,6.849462E3,-1.8367926E2,2.9113864E2,-5.7280646E2,1.6259395E2,4.1465137E2,-4.5850925E2,6.292858E2,2.8582863E1,1.546547E2,8.0898694E2,-3.6246698E2,3.7221124E2,1.6684923E2,6.366548E2],"split_indices":[4,4,1,4,0,2,3,0,0,2,0,3,4,2,2,0,0,3,0,3,0,0,0,0,0,3,4,0,1,1,0,0,1,0,0,0,0,0,0,0,0,0,0,0,0,0,0,0,0],"split_type":[0,0,0,0,0,0,0,0,0,0,0,0,0,0,0,0,0,0,0,0,0,0,0,0,0,0,0,0,0,0,0,0,0,0,0,0,0,0,0,0,0,0,0,0,0,0,0,0,0],"sum_hessian":[1.18E2,9.4E1,2.4E1,9E1,4E0,1.6E1,8E0,8.6E1,4E0,8E0,8E0,5E0,3E0,6.3E1,2.3E1,1E0,3E0,5E0,3E0,5E0,3E0,2E0,3E0,2E0,1E0,5E1,1.3E1,9E0,1.4E1,4E0,1E0,3E0,2E0,1E0,1E0,3.9E1,1.1E1,1.1E1,2E0,4E0,5E0,9E0,5E0,3E0,1E0,2E0,1E0,1E0,1E0],"tree_param":{"num_deleted":"0","num_feature":"5","num_nodes":"49","size_leaf_vector":"1"}},{"base_weights":[3.828915E2,-6.1166862E1,2.1431711E3,-1.1420735E2,7.46652E2,5.885944E2,5.1787505E3,-3.845093E2,4.2996558E2,1.0686326E3,-2.4983609E2,9.156385E2,1.1978724E4,-2.740096E2,-4.2210147E2,2.9073389E3,1.6789604E2,1.8137565E3,1.4540309E2,-4.3561456E2,1.01483527E3,-2.9112024E2,6.303775E2,5.8220415E3,-4.3161563E2,-1.788716E2,-4.612318E2,1.1454513E3,1.6285123E2,-4.700838E2,8.3721484E2,6.699388E2,6.654542E2,1.6476846E3,-1.9061066E3,1.5177299E3,-7.407726E1,-9.438421E1,1.0930442E3,5.713205E0,-7.787958E2,1.1185615E3,-5.889825E1,-3.8616653E2,6.87639E2,5.178047E1,6.245535E2,-7.090613E2,-1.4868668E2,1.4182178E2,5.411567E2],"categories":[],"categories_nodes":[],"categories_segments":[],"categories_sizes":[],"default_left":[0,0,0,0,0,0,0,0,0,0,0,0,0,0,0,0,0,0,0,0,0,0,0,0,0,0,0,0,0,0,0,0,0,0,0,0,0,0,0,0,0,0,0,0,0,0,0,0,0,0,0],"id":9,"left_children":[1,3,5,7,-1,9,11,13,15,17,19,21,23,25,-1,27,29,31,33,-1,35,-1,-1,-1,-1,37,-1,-1,-1,39,41,43,-1,45,47,49,-1,-1,-1,-1,-1,-1,-1,-1,-1,-1,-1,-1,-1,-1,-1],"loss_changes":[9.314946E7,1.326859E7,1.102088E8,1.4138973E7,0E0,7.1091185E6,2.2094422E8,6.845537E6,2.0287678E7,7.303399E6,1.2116414E7,1.5455817E7,3.2691846E8,6.8168075E6,0E0,4.388344E6,1.3203919E7,1.28948E6,2.1632332E7,0E0,2.912892E6,0E0,0E0,0E0,0E0,3.0202186E7,0E0,0E0,0E0,1.6686843E7,4.5556584E7,1.2475144E7,0E0,2.202361E6,7.64176E5,4.42425E4,0E0,0E0,0E0,0E0,0E0,0E0,0E0,0E0,0E0,0E0,0E0,0E0,0E0,0E0,0E0],"parents":[2147483647,0,0,1,1,2,2,3,3,5,5,6,6,7,7,8,8,9,9,10,10,11,11,12,12,13,13,15,15,16,16,17,17,18,18,20,20,25,25,29,29,30,30,31,31,33,33,34,34,35,35],"right_children":[2,4,6,8,-1,10,12,14,16,18,20,22,24,26,-1,28,30,32,34,-1,36,-1,-1,-1,-1,38,-1,-1,-1,40,42,44,-1,46,48,50,-1,-1,-1,-1,-1,-1,-1,-1,-1,-1,-1,-1,-1,-1,-1],"split_conditions":[3.3E4,1.8E5,3.3E4,3.4736843E3,7.46652E2,2.1666666E4,3.1263158E4,1.65E1,1.5E4,2.475E4,2.9927273E4,1.65E4,1.8E5,3.1263158E4,-4.2210147E2,1.55E4,2.1E4,1.65E1,1.65E1,-4.3561456E2,1.65E1,-2.9112024E2,6.303775E2,5.8220415E3,-4.3161563E2,2.79E4,-4.612318E2,1.1454513E3,1.6285123E2,1.1E4,2.8090908E4,1.65E1,6.654542E2,1.65E1,1.65E1,1.2E4,-7.407726E1,-9.438421E1,1.0930442E3,5.713205E0,-7.787958E2,1.1185615E3,-5.889825E1,-3.8616653E2,6.87639E2,5.178047E1,6.245535E2,-7.090613E2,-1.4868668E2,1.4182178E2,5.411567E2],"split_indices":[4,0,1,3,0,2,0,3,3,3,3,3,4,4,0,1,1,0,1,0,0,0,0,0,0,4,0,0,0,1,1,1,0,2,0,1,0,0,0,0,0,0,0,0,0,0,0,0,0,0,0],"split_type":[0,0,0,0,0,0,0,0,0,0,0,0,0,0,0,0,0,0,0,0,0,0,0,0,0,0,0,0,0,0,0,0,0,0,0,0,0,0,0,0,0,0,0,0,0,0,0,0,0,0,0],"sum_hessian":[1.18E2,9.5E1,2.3E1,9.4E1,1E0,1.6E1,7E0,6.3E1,3.1E1,1E1,6E0,5E0,2E0,5.8E1,5E0,2E0,2.9E1,5E0,5E0,3E0,3E0,2E0,3E0,1E0,1E0,5.5E1,3E0,1E0,1E0,1.5E1,1.4E1,2E0,3E0,3E0,2E0,2E0,1E0,5.4E1,1E0,1.3E1,2E0,3E0,1.1E1,1E0,1E0,1E0,2E0,1E0,1E0,1E0,1E0],"tree_param":{"num_deleted":"0","num_feature":"5","num_nodes":"51","size_leaf_vector":"1"}},{"base_weights":[3.448756E2,-1.722452E1,1.7789064E3,-2.5429329E2,4.0321802E2,4.6841592E2,4.341335E3,-1.1130993E2,-4.0854977E2,-8.429956E1,8.683346E2,9.347552E2,-4.9969555E1,6.974901E2,1.0181914E4,-4.865815E0,-1.9902007E3,-6.7373346E2,1.206857E3,8.668852E2,2.714369E2,1.909394E2,5.4503705E2,5.475744E2,-9.337931E2,-2.328962E2,4.885427E2,4.9487344E3,-3.668733E2,1.7817877E2,-8.2807983E2,-7.092855E2,-1.8630486E2,-2.0062725E3,4.0988754E2,1.8885371E3,-3.3023145E2,7.24734E2,-2.4429126E2,1.0327301E3,-6.027021E2,-1.4619116E2,1.2900703E3,-6.2965675E1,-3.315401E2,1.2369925E2,-2.4127321E2,-3.613026E2,1.3539375E2,-8.690001E1,-1.0878969E3,3.4837436E2,-7.274452E2,1.2999786E2,6.432025E2,-6.9116943E2,3.580024E1,9.50272E1,5.8449316E2,-2.028507E2,2.1656134E2,1.2054844E2,4.5998322E2],"categories":[],"categories_nodes":[],"categories_segments":[],"categories_sizes":[],"default_left":[0,0,0,0,0,0,0,0,0,0,0,0,0,0,0,0,0,0,0,0,0,0,0,0,0,0,0,0,0,0,0,0,0,0,0,0,0,0,0,0,0,0,0,0,0,0,0,0,0,0,0,0,0,0,0,0,0,0,0,0,0,0,0],"id":10,"left_children":[1,3,5,7,9,11,13,15,-1,17,19,21,23,25,27,29,31,33,35,-1,37,39,-1,41,43,-1,-1,-1,-1,45,47,-1,-1,49,51,53,-1,-1,55,57,-1,59,61,-1,-1,-1,-1,-1,-1,-1,-1,-1,-1,-1,-1,-1,-1,-1,-1,-1,-1,-1,-1],"loss_changes":[6.18229E7,9.671219E6,7.855937E7,9.666714E6,8.0095375E6,4.1563482E6,1.6315554E8,1.1190142E7,0E0,1.4512027E7,2.0932632E7,5.557746E6,5.2644315E6,9.496797E6,2.361985E8,8.2845295E6,6.8311E4,1.959392E7,1.1517234E7,0E0,1.7178624E7,1.3186128E7,0E0,3.279306E6,2.6418775E5,0E0,0E0,0E0,0E0,1.0683249E7,5.3574035E6,0E0,0E0,1.5635504E7,1.985489E7,9.29768E5,0E0,0E0,1.0010963E7,2.660512E6,0E0,2.3283215E6,3.1966E4,0E0,0E0,0E0,0E0,0E0,0E0,0E0,0E0,0E0,0E0,0E0,0E0,0E0,0E0,0E0,0E0,0E0,0E0,0E0,0E0],"parents":[2147483647,0,0,1,1,2,2,3,3,4,4,5,5,6,6,7,7,9,9,10,10,11,11,12,12,13,13,14,14,15,15,16,16,17,17,18,18,20,20,21,21,23,23,24,24,29,29,30,30,33,33,34,34,35,35,38,38,39,39,41,41,42,42],"right_children":[2,4,6,8,10,12,14,16,-1,18,20,22,24,26,28,30,32,34,36,-1,38,40,-1,42,44,-1,-1,-1,-1,46,48,-1,-1,50,52,54,-1,-1,56,58,-1,60,62,-1,-1,-1,-1,-1,-1,-1,-1,-1,-1,-1,-1,-1,-1,-1,-1,-1,-1,-1,-1],"split_conditions":[3.3E4,3E3,3.3E4,3.1263158E4,2.1E4,1.6506E4,3.1263158E4,3.2E1,-4.0854977E2,1.5E4,2.8090908E4,1.65E1,2.8090908E4,1.65E4,1.8E5,3.4736843E3,3.3E1,3.2E4,3E4,8.668852E2,1.65E4,3.1263158E4,5.4503705E2,2.9927273E4,3.3E4,-2.328962E2,4.885427E2,4.9487344E3,-3.668733E2,3.2E1,1.6506E4,-7.092855E2,-1.8630486E2,1.6506E4,1.65E1,3.4736843E3,-3.3023145E2,7.24734E2,1.6506E4,1.65E1,-6.027021E2,2.2E4,1.2E4,-6.2965675E1,-3.315401E2,1.2369925E2,-2.4127321E2,-3.613026E2,1.3539375E2,-8.690001E1,-1.0878969E3,3.4837436E2,-7.274452E2,1.2999786E2,6.432025E2,-6.9116943E2,3.580024E1,9.50272E1,5.8449316E2,-2.028507E2,2.1656134E2,1.2054844E2,4.5998322E2],"split_indices":[4,0,1,1,1,2,0,0,0,4,1,2,0,3,4,2,0,0,3,0,0,3,0,3,0,0,0,0,0,4,4,0,0,0,4,0,0,0,0,1,0,0,1,0,0,0,0,0,0,0,0,0,0,0,0,0,0,0,0,0,0,0,0],"split_type":[0,0,0,0,0,0,0,0,0,0,0,0,0,0,0,0,0,0,0,0,0,0,0,0,0,0,0,0,0,0,0,0,0,0,0,0,0,0,0,0,0,0,0,0,0,0,0,0,0,0,0,0,0,0,0,0,0,0,0,0,0,0,0],"sum_hessian":[1.18E2,9.5E1,2.3E1,6.1E1,3.4E1,1.6E1,7E0,5.5E1,6E0,1.7E1,1.7E1,8E0,8E0,5E0,2E0,5.3E1,2E0,1.2E1,5E0,3E0,1.4E1,5E0,3E0,5E0,3E0,2E0,3E0,1E0,1E0,4.4E1,9E0,1E0,1E0,5E0,7E0,4E0,1E0,2E0,1.2E1,4E0,1E0,3E0,2E0,1E0,2E0,3.6E1,8E0,7E0,2E0,3E0,2E0,6E0,1E0,1E0,3E0,1E0,1.1E1,3E0,1E0,2E0,1E0,1E0,1E0],"tree_param":{"num_deleted":"0","num_feature":"5","num_nodes":"63","size_leaf_vector":"1"}},{"base_weights":[2.7365518E2,-3.1039146E1,1.4810303E3,-7.22359E1,5.823979E2,4.3856488E2,3.9500798E3,-2.1999602E2,4.9286435E2,-2.216112E2,7.0952576E2,3.3733582E2,8.654627E3,-1.26213165E2,-1.5264698E3,1.0236096E3,-9.1614294E2,-4.1251663E2,1.3901849E3,-1.0188483E2,1.0814733E3,4.3390002E2,-8.84107E2,4.2064243E3,-3.118423E2,-1.812611E2,5.673284E2,-5.787421E2,-6.1497595E2,6.3706824E2,9.6527844E2,-3.7143765E2,1.0406544E2,4.9681937E2,1.2876387E2,2.58854E2,-1.6763382E2,1.261258E3,-5.3520824E1,-3.211955E2,-7.6652664E1,-3.109159E1,-4.366583E2,-3.339714E1,-2.4334206E2,-3.8323437E1,5.0343295E2,1.7775923E2,4.631965E2],"categories":[],"categories_nodes":[],"categories_segments":[],"categories_sizes":[],"default_left":[0,0,0,0,0,0,0,0,0,0,0,0,0,0,0,0,0,0,0,0,0,0,0,0,0,0,0,0,0,0,0,0,0,0,0,0,0,0,0,0,0,0,0,0,0,0,0,0,0],"id":11,"left_children":[1,3,5,7,-1,9,11,13,15,17,19,21,23,25,27,29,31,-1,33,35,37,-1,39,-1,-1,41,-1,-1,43,45,-1,-1,-1,-1,-1,-1,-1,47,-1,-1,-1,-1,-1,-1,-1,-1,-1,-1,-1],"loss_changes":[4.3823732E7,7.940718E6,6.00412E7,8.0408595E6,0E0,3.3771128E6,1.1605476E8,9.119226E6,1.5894253E7,1.3066283E7,4.0336145E6,8.051599E6,1.7065342E8,8.338282E6,6.48784E5,1.0671165E7,2.8695235E6,0E0,5.57045E4,2.6860438E6,2.26357E6,0E0,7.822375E4,0E0,0E0,6.871882E6,0E0,0E0,2.0609638E5,1.1361199E7,0E0,0E0,0E0,0E0,0E0,0E0,0E0,5.97695E5,0E0,0E0,0E0,0E0,0E0,0E0,0E0,0E0,0E0,0E0,0E0],"parents":[2147483647,0,0,1,1,2,2,3,3,5,5,6,6,7,7,8,8,9,9,10,10,11,11,12,12,13,13,14,14,15,15,16,16,18,18,19,19,20,20,22,22,25,25,28,28,29,29,37,37],"right_children":[2,4,6,8,-1,10,12,14,16,18,20,22,24,26,28,30,32,-1,34,36,38,-1,40,-1,-1,42,-1,-1,44,46,-1,-1,-1,-1,-1,-1,-1,48,-1,-1,-1,-1,-1,-1,-1,-1,-1,-1,-1],"split_conditions":[3.3E4,1.8E5,3.3E4,1.55E4,5.823979E2,1.65E1,2.75E4,1.2E4,3.1263158E4,1.5E4,1.65E4,1.6506E4,1.8E5,1.1E4,1.55E4,3E4,1.65E1,-4.1251663E2,1.55E4,1.65E1,3.1263158E4,4.3390002E2,1.65E1,4.2064243E3,-3.118423E2,3.3E1,5.673284E2,-5.787421E2,1.65E1,3.1263158E4,9.6527844E2,-3.7143765E2,1.0406544E2,4.9681937E2,1.2876387E2,2.58854E2,-1.6763382E2,2.9927273E4,-5.3520824E1,-3.211955E2,-7.6652664E1,-3.109159E1,-4.366583E2,-3.339714E1,-2.4334206E2,-3.8323437E1,5.0343295E2,1.7775923E2,4.631965E2],"split_indices":[4,0,0,4,0,2,1,4,4,1,3,2,4,4,2,4,2,0,1,1,0,0,1,0,0,4,0,0,0,2,0,0,0,0,0,0,0,3,0,0,0,0,0,0,0,0,0,0,0],"split_type":[0,0,0,0,0,0,0,0,0,0,0,0,0,0,0,0,0,0,0,0,0,0,0,0,0,0,0,0,0,0,0,0,0,0,0,0,0,0,0,0,0,0,0,0,0,0,0,0,0],"sum_hessian":[1.18E2,9.5E1,2.3E1,9.4E1,1E0,1.7E1,6E0,7.5E1,1.9E1,5E0,1.2E1,4E0,2E0,7.1E1,4E0,1.4E1,5E0,3E0,2E0,4E0,8E0,2E0,2E0,1E0,1E0,7E1,1E0,2E0,2E0,1.3E1,1E0,4E0,1E0,1E0,1E0,1E0,3E0,7E0,1E0,1E0,1E0,6.7E1,3E0,1E0,1E0,8E0,5E0,3E0,4E0],"tree_param":{"num_deleted":"0","num_feature":"5","num_nodes":"49","size_leaf_vector":"1"}},{"base_weights":[2.4039789E2,-1.5225929E1,1.2528766E3,-1.8826483E2,3.910455E2,2.2213191E2,3.2865994E3,-6.2706867E1,-1.2734547E3,-9.4676384E1,7.916118E2,-3.740168E2,7.935993E2,9.454305E2,5.3914106E3,-1.9820692E2,1.2349948E3,-7.931233E2,-6.233165E2,3.762255E2,-2.9489532E2,1.2190007E3,2.1184778E2,6.492296E1,-5.8283026E2,1.1598303E3,-3.2043732E2,1.5557592E3,1.9958374E1,7.777583E3,-2.6506595E2,-2.6067944E2,4.9503812E2,8.2138165E2,-2.0096198E2,-4.9122067E2,1.7908691E2,-1.54022E3,2.3272403E2,7.2114984E2,4.4191547E2,4.4896115E2,-1.8547029E2,-6.124586E2,1.398045E3,8.827222E1,1.6203359E3,1.25736336E2,5.743553E2,-6.515477E1,7.413604E1,3.5754612E3,-7.5548584E1,-3.8200497E1,-4.7859775E2,9.182363E1,-2.5831265E2,-6.492831E2,4.979268E1,8.204866E2,-1.0475567E2,3.0011572E2,-5.936908E1,-2.7301617E2,2.6090784E1,1.8367691E2,-6.1237775E2,6.7461304E2,-4.5492702E1,5.940719E2,2.160961E2],"categories":[],"categories_nodes":[],"categories_segments":[],"categories_sizes":[],"default_left":[0,0,0,0,0,0,0,0,0,0,0,0,0,0,0,0,0,0,0,0,0,0,0,0,0,0,0,0,0,0,0,0,0,0,0,0,0,0,0,0,0,0,0,0,0,0,0,0,0,0,0,0,0,0,0,0,0,0,0,0,0,0,0,0,0,0,0,0,0,0,0],"id":12,"left_children":[1,3,5,7,9,11,13,15,17,19,21,23,25,27,29,31,33,35,-1,-1,37,39,41,43,-1,45,-1,47,49,51,-1,53,-1,-1,55,-1,-1,57,59,61,-1,-1,63,65,67,-1,69,-1,-1,-1,-1,-1,-1,-1,-1,-1,-1,-1,-1,-1,-1,-1,-1,-1,-1,-1,-1,-1,-1,-1,-1],"loss_changes":[3.0817902E7,6.8224935E6,4.957992E7,9.185434E6,5.717298E6,6.0883715E6,3.4324544E7,1.114678E7,1.056313E6,4.1504898E6,3.706314E6,6.323414E6,7.3752315E6,2.7931605E6,6.676447E7,7.011948E6,1.3499196E7,8.019148E6,0E0,0E0,8.900192E6,7.6024E4,4.361005E6,8.080503E6,0E0,2.712101E6,0E0,4.209205E5,2.152782E5,1.027416E8,0E0,9.763049E6,0E0,0E0,1.6022968E6,0E0,0E0,4.618271E6,1.5515729E7,1.4811275E6,0E0,0E0,1.4609832E6,1.1749013E7,4.295794E6,0E0,1.93189E5,0E0,0E0,0E0,0E0,0E0,0E0,0E0,0E0,0E0,0E0,0E0,0E0,0E0,0E0,0E0,0E0,0E0,0E0,0E0,0E0,0E0,0E0,0E0,0E0],"parents":[2147483647,0,0,1,1,2,2,3,3,4,4,5,5,6,6,7,7,8,8,9,9,10,10,11,11,12,12,13,13,14,14,15,15,16,16,17,17,20,20,21,21,22,22,23,23,25,25,27,27,28,28,29,29,31,31,34,34,37,37,38,38,39,39,42,42,43,43,44,44,46,46],"right_children":[2,4,6,8,10,12,14,16,18,20,22,24,26,28,30,32,34,36,-1,-1,38,40,42,44,-1,46,-1,48,50,52,-1,54,-1,-1,56,-1,-1,58,60,62,-1,-1,64,66,68,-1,70,-1,-1,-1,-1,-1,-1,-1,-1,-1,-1,-1,-1,-1,-1,-1,-1,-1,-1,-1,-1,-1,-1,-1,-1],"split_conditions":[3.3E4,1.55E4,3.3E4,1.55E4,1.65E1,2.9927273E4,2.1E4,3.4736843E3,1.65E1,1.65E4,2.75E4,2.475E4,2.1666666E4,2.2E4,1.8E5,1.8E5,1.55E4,3.2E4,-6.233165E2,3.762255E2,2.79E4,3.2E4,1.6506E4,1.55E4,-5.8283026E2,1.2E4,-3.2043732E2,1.65E1,2.75E4,1.8E5,-2.6506595E2,3.276923E4,4.9503812E2,8.2138165E2,1.65E1,-4.9122067E2,1.7908691E2,3.2E1,3.1263158E4,2.79E4,4.4191547E2,4.4896115E2,1.65E1,1.65E1,1.65E4,8.827222E1,2.475E4,1.25736336E2,5.743553E2,-6.515477E1,7.413604E1,3.5754612E3,-7.5548584E1,-3.8200497E1,-4.7859775E2,9.182363E1,-2.5831265E2,-6.492831E2,4.979268E1,8.204866E2,-1.0475567E2,3.0011572E2,-5.936908E1,-2.7301617E2,2.6090784E1,1.8367691E2,-6.1237775E2,6.7461304E2,-4.5492702E1,5.940719E2,2.160961E2],"split_indices":[3,4,0,3,0,2,2,3,2,4,2,2,0,1,4,0,1,3,0,0,4,4,4,0,0,1,0,1,1,3,0,0,0,0,0,0,0,1,4,0,0,0,1,1,0,0,1,0,0,0,0,0,0,0,0,0,0,0,0,0,0,0,0,0,0,0,0,0,0,0,0],"split_type":[0,0,0,0,0,0,0,0,0,0,0,0,0,0,0,0,0,0,0,0,0,0,0,0,0,0,0,0,0,0,0,0,0,0,0,0,0,0,0,0,0,0,0,0,0,0,0,0,0,0,0,0,0,0,0,0,0,0,0,0,0,0,0,0,0,0,0,0,0,0,0],"sum_hessian":[1.18E2,9.5E1,2.3E1,6.7E1,2.8E1,1.6E1,7E0,6.1E1,6E0,1.3E1,1.5E1,8E0,8E0,4E0,3E0,5.6E1,5E0,5E0,1E0,1E0,1.2E1,8E0,7E0,7E0,1E0,7E0,1E0,2E0,2E0,2E0,1E0,5.5E1,1E0,2E0,3E0,3E0,2E0,3E0,9E0,4E0,4E0,1E0,6E0,5E0,2E0,3E0,4E0,1E0,1E0,1E0,1E0,1E0,1E0,5.1E1,4E0,2E0,1E0,2E0,1E0,1E0,8E0,3E0,1E0,1E0,5E0,3E0,2E0,1E0,1E0,2E0,2E0],"tree_param":{"num_deleted":"0","num_feature":"5","num_nodes":"71","size_leaf_vector":"1"}},{"base_weights":[2.1209668E2,3.0207792E-1,1.0960958E3,7.427394E1,-9.613753E2,2.2775583E2,2.4215405E3,-2.1553146E1,1.227278E3,-3.8108502E2,-4.824202E2,5.995148E2,-4.298017E2,3.1970203E2,4.968913E3,-1.1795718E2,5.214505E2,6.4579517E2,4.2659894E2,-2.1837805E2,9.278516E1,-3.552404E2,1.295225E3,-6.2848474E2,8.454199E1,-3.7629065E2,8.853633E2,7.125898E3,-2.2530605E2,-2.978239E1,-9.6998126E2,1.3401135E3,-1.5772807E2,-5.538155E1,1.8766539E2,4.232373E1,-5.704102E-1,-1.957965E2,1.251627E2,5.753774E2,5.0439407E2,-2.3641121E2,-7.7831154E1,1.4782734E3,-2.6679688E0,1.6751338E2,3.0391406E3,2.3596525E1,-1.15570885E2,8.877361E2,-6.275097E1,-5.25787E2,9.614665E1,-5.4607895E1,2.3816289E2,9.1802055E1,5.73421E2,6.3015675E1,-6.421626E1],"categories":[],"categories_nodes":[],"categories_segments":[],"categories_sizes":[],"default_left":[0,0,0,0,0,0,0,0,0,0,0,0,0,0,0,0,0,0,0,0,0,0,0,0,0,0,0,0,0,0,0,0,0,0,0,0,0,0,0,0,0,0,0,0,0,0,0,0,0,0,0,0,0,0,0,0,0,0,0],"id":13,"left_children":[1,3,5,7,9,11,13,15,17,19,-1,21,23,25,27,29,31,-1,33,-1,35,37,39,41,-1,-1,43,45,-1,47,-1,49,51,-1,-1,-1,-1,-1,-1,-1,53,-1,-1,55,57,-1,-1,-1,-1,-1,-1,-1,-1,-1,-1,-1,-1,-1,-1],"loss_changes":[2.2279588E7,6.9717E6,2.5920028E7,1.0080953E7,2.014073E6,3.9244658E6,4.6598924E7,4.5110665E6,4.268165E6,8.893309E5,0E0,7.1024455E6,1.0254181E6,6.452632E6,5.470291E7,1.995623E7,7.439612E6,0E0,7.2348244E5,0E0,1.39866E4,1.420982E6,1.98731E6,8.996625E4,0E0,0E0,2.6365582E6,5.354112E7,0E0,2.8055062E6,0E0,1.5668759E7,6.6633425E6,0E0,0E0,0E0,0E0,0E0,0E0,0E0,9.3933225E5,0E0,0E0,9.383285E5,1.7986092E5,0E0,0E0,0E0,0E0,0E0,0E0,0E0,0E0,0E0,0E0,0E0,0E0,0E0,0E0],"parents":[2147483647,0,0,1,1,2,2,3,3,4,4,5,5,6,6,7,7,8,8,9,9,11,11,12,12,13,13,14,14,15,15,16,16,18,18,20,20,21,21,22,22,23,23,26,26,27,27,29,29,31,31,32,32,40,40,43,43,44,44],"right_children":[2,4,6,8,10,12,14,16,18,20,-1,22,24,26,28,30,32,-1,34,-1,36,38,40,42,-1,-1,44,46,-1,48,-1,50,52,-1,-1,-1,-1,-1,-1,-1,54,-1,-1,56,58,-1,-1,-1,-1,-1,-1,-1,-1,-1,-1,-1,-1,-1,-1],"split_conditions":[3.276923E4,2.9927273E4,3.3E4,2.1666666E4,1.65E1,3.1263158E4,2.8090908E4,3.2E4,2.475E4,1.65E1,-4.824202E2,1.65E1,3.2E4,1.65E1,1.8E5,2.79E4,1.65E1,6.4579517E2,2.75E4,-2.1837805E2,3.1263158E4,1.65E4,1.2E4,1.55E4,8.454199E1,-3.7629065E2,1.65E4,1.6506E4,-2.2530605E2,1.5E4,-9.6998126E2,3.276923E4,3.276923E4,-5.538155E1,1.8766539E2,4.232373E1,-5.704102E-1,-1.957965E2,1.251627E2,5.753774E2,2.475E4,-2.3641121E2,-7.7831154E1,1.2E4,1.65E1,1.6751338E2,3.0391406E3,2.3596525E1,-1.15570885E2,8.877361E2,-6.275097E1,-5.25787E2,9.614665E1,-5.4607895E1,2.3816289E2,9.1802055E1,5.73421E2,6.3015675E1,-6.421626E1],"split_indices":[1,1,3,1,0,0,4,0,1,3,0,0,4,0,4,0,2,0,1,0,1,3,4,4,0,0,0,0,0,2,0,0,0,0,0,0,0,0,0,0,0,0,0,0,2,0,0,0,0,0,0,0,0,0,0,0,0,0,0],"split_type":[0,0,0,0,0,0,0,0,0,0,0,0,0,0,0,0,0,0,0,0,0,0,0,0,0,0,0,0,0,0,0,0,0,0,0,0,0,0,0,0,0,0,0,0,0,0,0,0,0,0,0,0,0,0,0,0,0,0,0],"sum_hessian":[1.18E2,9.6E1,2.2E1,9E1,6E0,1.4E1,8E0,8.4E1,6E0,4E0,2E0,9E0,5E0,5E0,3E0,7.2E1,1.2E1,2E0,4E0,2E0,2E0,4E0,5E0,4E0,1E0,1E0,4E0,2E0,1E0,7.1E1,1E0,5E0,7E0,1E0,3E0,1E0,1E0,3E0,1E0,2E0,3E0,2E0,2E0,2E0,2E0,1E0,1E0,5.5E1,1.6E1,2E0,3E0,1E0,6E0,1E0,2E0,1E0,1E0,1E0,1E0],"tree_param":{"num_deleted":"0","num_feature":"5","num_nodes":"59","size_leaf_vector":"1"}},{"base_weights":[1.751912E2,-1.6094295E0,9.5479443E2,-1.4716357E2,3.0319485E2,2.0431918E2,2.2425862E3,-3.85249E1,-1.0728488E3,7.8375824E2,-2.4331068E1,-8.16539E2,5.275787E2,3.326044E2,5.315021E3,-1.26828926E2,1.2515148E3,-4.664182E2,8.789858E1,4.6358572E2,6.9387427E2,-3.2655286E2,2.2749512E2,-3.0284073E2,-3.566233E1,1.6745231E3,-2.5520892E2,-1.19883255E2,2.3958443E2,2.5832695E3,-1.9151015E2,-2.74499E2,7.076524E2,-7.20986E2,3.2708774E3,4.487622E1,-5.321859E0,-2.1531194E2,9.792715E2,5.800134E2,-1.5030045E2,7.803165E1,5.8893036E2,-5.374708E2,2.1642384E1,2.280768E1,-4.5725385E2,7.10189E2,-3.1415056E1,1.529014E3,-5.711917E1,1.0439048E2,-4.5475696E2,4.6954825E2,1.295651E2,8.7136955E1,4.3447034E2,-1.5582114E2,7.465888E1,-1.8912897E2,-3.8789047E1,7.186055E1,-2.781438E1],"categories":[],"categories_nodes":[],"categories_segments":[],"categories_sizes":[],"default_left":[0,0,0,0,0,0,0,0,0,0,0,0,0,0,0,0,0,0,0,0,0,0,0,0,0,0,0,0,0,0,0,0,0,0,0,0,0,0,0,0,0,0,0,0,0,0,0,0,0,0,0,0,0,0,0,0,0,0,0,0,0,0,0],"id":14,"left_children":[1,3,5,7,9,11,13,15,17,19,21,23,25,27,29,31,33,-1,35,37,-1,-1,39,-1,-1,41,43,-1,-1,-1,-1,45,47,-1,49,-1,-1,51,53,55,57,-1,-1,59,61,-1,-1,-1,-1,-1,-1,-1,-1,-1,-1,-1,-1,-1,-1,-1,-1,-1,-1],"loss_changes":[1.6403823E7,4.392441E6,2.0803824E7,6.6965375E6,5.0557725E6,5.38082E6,4.5178556E7,7.1075865E6,4.0520335E6,5.2924835E6,5.6073905E6,4.184015E5,1.120112E7,2.3664542E6,6.4361816E7,7.3414685E6,3.7382336E7,0E0,2.2203682E4,4.412023E6,0E0,0E0,2.3512338E6,0E0,0E0,1.530235E6,6.3678875E5,0E0,0E0,0E0,0E0,2.2018062E7,1.238209E7,0E0,1.9929562E7,0E0,0E0,4.9228955E6,1.568994E6,1.8419452E6,1.455253E6,0E0,0E0,7.0261375E4,1.467962E5,0E0,0E0,0E0,0E0,0E0,0E0,0E0,0E0,0E0,0E0,0E0,0E0,0E0,0E0,0E0,0E0,0E0,0E0],"parents":[2147483647,0,0,1,1,2,2,3,3,4,4,5,5,6,6,7,7,8,8,9,9,10,10,11,11,12,12,13,13,14,14,15,15,16,16,18,18,19,19,22,22,25,25,26,26,31,31,32,32,34,34,37,37,38,38,39,39,40,40,43,43,44,44],"right_children":[2,4,6,8,10,12,14,16,18,20,22,24,26,28,30,32,34,-1,36,38,-1,-1,40,-1,-1,42,44,-1,-1,-1,-1,46,48,-1,50,-1,-1,52,54,56,58,-1,-1,60,62,-1,-1,-1,-1,-1,-1,-1,-1,-1,-1,-1,-1,-1,-1,-1,-1,-1,-1],"split_conditions":[3.3E4,1.55E4,3.3E4,3.3E1,3.1263158E4,1.65E1,3.1263158E4,1.65E1,1.55E4,3E4,3.276923E4,1.65E1,2.9927273E4,1.65E4,1.8E5,3.2E4,1.65E1,-4.664182E2,2.79E4,1.55E4,6.9387427E2,-3.2655286E2,1.6506E4,-3.0284073E2,-3.566233E1,1.2E4,1.55E4,-1.19883255E2,2.3958443E2,2.5832695E3,-1.9151015E2,1.65E1,3.276923E4,-7.20986E2,3.2E1,4.487622E1,-5.321859E0,1.1E4,1.6506E4,1.5E4,2.9927273E4,7.803165E1,5.8893036E2,1.55E4,2.8090908E4,2.280768E1,-4.5725385E2,7.10189E2,-3.1415056E1,1.529014E3,-5.711917E1,1.0439048E2,-4.5475696E2,4.6954825E2,1.295651E2,8.7136955E1,4.3447034E2,-1.5582114E2,7.465888E1,-1.8912897E2,-3.8789047E1,7.186055E1,-2.781438E1],"split_indices":[1,4,4,4,4,0,0,4,2,4,4,2,0,3,4,0,0,0,2,2,0,0,2,0,0,0,3,0,0,0,0,0,0,0,0,0,0,2,4,1,3,0,0,4,3,0,0,0,0,0,0,0,0,0,0,0,0,0,0,0,0,0,0],"split_type":[0,0,0,0,0,0,0,0,0,0,0,0,0,0,0,0,0,0,0,0,0,0,0,0,0,0,0,0,0,0,0,0,0,0,0,0,0,0,0,0,0,0,0,0,0,0,0,0,0,0,0,0,0,0,0,0,0,0,0,0,0,0,0],"sum_hessian":[1.18E2,9.7E1,2.1E1,6.6E1,3.1E1,1.4E1,7E0,6E1,6E0,1.2E1,1.9E1,3E0,1.1E1,5E0,2E0,5.7E1,3E0,4E0,2E0,1.1E1,1E0,3E0,1.6E1,2E0,1E0,4E0,7E0,2E0,3E0,1E0,1E0,4.9E1,8E0,1E0,2E0,1E0,1E0,5E0,6E0,8E0,8E0,1E0,3E0,3E0,4E0,3.9E1,1E1,2E0,6E0,1E0,1E0,4E0,1E0,2E0,4E0,7E0,1E0,4E0,4E0,2E0,1E0,1E0,3E0],"tree_param":{"num_deleted":"0","num_feature":"5","num_nodes":"63","size_leaf_vector":"1"}},{"base_weights":[1.5860817E2,-1.0780381E1,8.2955365E2,-3.9741062E1,4.1107266E2,2.0741884E2,2.047896E3,-1.9240765E2,2.8164825E2,-2.3157446E2,7.302331E2,6.331878E2,3.3043071E3,-6.9437126E1,-6.354119E2,1.4433948E3,2.720291E0,4.292104E2,-7.4363275E2,1.01212164E3,-1.8644803E2,1.0565078E3,-1.1947733E0,4.7674844E3,-1.6278363E2,-1.8339372E2,8.347958E2,-1.169728E3,6.600823E1,7.2574854E2,-3.3875925E2,-3.3950336E2,2.7631787E2,8.816616E2,-2.0708919E2,-1.3231947E3,2.769941E2,4.170248E2,5.829207E2,7.93834E1,3.9604514E2,-5.8273148E1,5.77355E1,2.1957798E3,-5.041172E1,-2.3349125E1,-7.5589594E2,5.6815094E2,-5.045507E1,-1.9201003E2,-5.5176245E2,1.519507E2,-3.8654343E2,-2.044732E2,5.2031544E1,-1.6669441E2,-3.1720808E1,2.3502872E2,-7.959992E1,3.3428253E2,2.7573195E1,-4.8641815E2,-6.428963E1,-2.7442093E2,3.9906827E2,2.5882618E1,2.0565396E2],"categories":[],"categories_nodes":[],"categories_segments":[],"categories_sizes":[],"default_left":[0,0,0,0,0,0,0,0,0,0,0,0,0,0,0,0,0,0,0,0,0,0,0,0,0,0,0,0,0,0,0,0,0,0,0,0,0,0,0,0,0,0,0,0,0,0,0,0,0,0,0,0,0,0,0,0,0,0,0,0,0,0,0,0,0,0,0],"id":15,"left_children":[1,3,5,7,-1,9,11,13,15,17,19,21,23,25,27,29,31,33,35,37,-1,39,41,43,-1,45,47,49,51,-1,53,55,57,59,-1,61,63,-1,65,-1,-1,-1,-1,-1,-1,-1,-1,-1,-1,-1,-1,-1,-1,-1,-1,-1,-1,-1,-1,-1,-1,-1,-1,-1,-1,-1,-1],"loss_changes":[1.3533352E7,3.894009E6,1.7766584E7,4.7154055E6,0E0,4.0708068E6,1.2127392E7,3.4968492E6,1.0041425E7,3.7027788E6,3.6773165E6,1.3439965E6,2.5101792E7,5.511348E6,5.324134E6,1.1253315E7,2.5282312E6,3.1412215E6,3.915616E6,3.252405E5,0E0,2.77006E5,1.4953231E5,3.901305E7,0E0,1.1395188E7,6.691686E6,1.659804E6,4.829119E6,0E0,6.449836E5,5.4757875E5,4.328028E6,6.3241325E5,0E0,9.752245E5,4.982319E6,0E0,1.9561738E5,0E0,0E0,0E0,0E0,0E0,0E0,0E0,0E0,0E0,0E0,0E0,0E0,0E0,0E0,0E0,0E0,0E0,0E0,0E0,0E0,0E0,0E0,0E0,0E0,0E0,0E0,0E0,0E0],"parents":[2147483647,0,0,1,1,2,2,3,3,5,5,6,6,7,7,8,8,9,9,10,10,11,11,12,12,13,13,14,14,15,15,16,16,17,17,18,18,19,19,21,21,22,22,23,23,25,25,26,26,27,27,28,28,30,30,31,31,32,32,33,33,35,35,36,36,38,38],"right_children":[2,4,6,8,-1,10,12,14,16,18,20,22,24,26,28,30,32,34,36,38,-1,40,42,44,-1,46,48,50,52,-1,54,56,58,60,-1,62,64,-1,66,-1,-1,-1,-1,-1,-1,-1,-1,-1,-1,-1,-1,-1,-1,-1,-1,-1,-1,-1,-1,-1,-1,-1,-1,-1,-1,-1,-1],"split_conditions":[3.3E4,1.8E5,3.3E4,3E3,4.1107266E2,3.1263158E4,2.1E4,1.5E4,1.55E4,1.65E1,2.1666666E4,2.2E4,1.8E5,3.2E4,1.5E4,1.5E4,1.65E1,1.65E1,3E4,1.65E1,-1.8644803E2,1.65E1,2.75E4,1.8E5,-1.6278363E2,1.6506E4,3.276923E4,3.276923E4,1.65E1,7.2574854E2,3.2E1,3.3E1,3.1263158E4,1.2E4,-2.0708919E2,1.6506E4,1.65E1,4.170248E2,1.2E4,7.93834E1,3.9604514E2,-5.8273148E1,5.77355E1,2.1957798E3,-5.041172E1,-2.3349125E1,-7.5589594E2,5.6815094E2,-5.045507E1,-1.9201003E2,-5.5176245E2,1.519507E2,-3.8654343E2,-2.044732E2,5.2031544E1,-1.6669441E2,-3.1720808E1,2.3502872E2,-7.959992E1,3.3428253E2,2.7573195E1,-4.8641815E2,-6.428963E1,-2.7442093E2,3.9906827E2,2.5882618E1,2.0565396E2],"split_indices":[3,0,0,1,0,2,2,2,1,1,0,1,4,0,4,3,0,0,1,4,0,1,1,3,0,0,0,2,1,0,0,3,0,2,0,0,0,0,1,0,0,0,0,0,0,0,0,0,0,0,0,0,0,0,0,0,0,0,0,0,0,0,0,0,0,0,0],"split_type":[0,0,0,0,0,0,0,0,0,0,0,0,0,0,0,0,0,0,0,0,0,0,0,0,0,0,0,0,0,0,0,0,0,0,0,0,0,0,0,0,0,0,0,0,0,0,0,0,0,0,0,0,0,0,0,0,0,0,0,0,0,0,0,0,0,0,0],"sum_hessian":[1.18E2,9.5E1,2.3E1,9.4E1,1E0,1.6E1,7E0,6.4E1,3E1,9E0,7E0,4E0,3E0,5.1E1,1.3E1,5E0,2.5E1,4E0,5E0,6E0,1E0,2E0,2E0,2E0,1E0,4.6E1,5E0,7E0,6E0,3E0,2E0,1.1E1,1.4E1,3E0,1E0,3E0,2E0,2E0,4E0,1E0,1E0,1E0,1E0,1E0,1E0,4.5E1,1E0,2E0,3E0,5E0,2E0,5E0,1E0,1E0,1E0,5E0,6E0,7E0,7E0,2E0,1E0,2E0,1E0,1E0,1E0,1E0,3E0],"tree_param":{"num_deleted":"0","num_feature":"5","num_nodes":"67","size_leaf_vector":"1"}},{"base_weights":[1.3077173E2,-1.148629E2,4.720448E2,-1.5028717E2,3.4941183E2,1.6055618E3,3.385746E2,-6.9404564E1,-5.2869586E2,7.02186E2,1.00594925E2,-6.622901E0,9.8623376E2,-1.4130675E2,2.8098047E2,-6.4251154E2,-1.8735823E2,9.056437E1,-6.852781E2,2.0219989E2,2.259257E3,-7.699227E1,-7.6905304E2,5.5604395E2,-5.356395E2,-1.7544118E2,4.5985852E2,2.3437208E1,-2.8973605E2,-3.1592627E2,5.434043E2,5.088081E2,3.8401033E3,-4.2813255E1,7.366537E1,-2.7852E2,-1.974979E1,4.5452072E2,-3.481547E2,-2.9526077E2,-2.0898354E1,-1.1154293E2,1.2126262E1,2.9278836E2,-1.4462756E1,2.4390236E2,-2.4042354E2,3.896558E2,6.030625E1,2.2000196E1,1.8885645E2,1.8664126E3,-1.3836607E2],"categories":[],"categories_nodes":[],"categories_segments":[],"categories_sizes":[],"default_left":[0,0,0,0,0,0,0,0,0,0,0,0,0,0,0,0,0,0,0,0,0,0,0,0,0,0,0,0,0,0,0,0,0,0,0,0,0,0,0,0,0,0,0,0,0,0,0,0,0,0,0,0,0],"id":16,"left_children":[1,3,5,7,-1,9,11,13,15,-1,-1,17,19,21,-1,-1,23,25,27,29,31,33,35,37,39,41,43,-1,-1,45,47,49,51,-1,-1,-1,-1,-1,-1,-1,-1,-1,-1,-1,-1,-1,-1,-1,-1,-1,-1,-1,-1],"loss_changes":[1.0029811E7,3.347987E6,7.020933E6,2.0751672E6,0E0,3.883672E6,1.0290766E7,4.3277225E6,6.205703E6,0E0,0E0,2.1067178E6,1.5512673E7,2.161313E6,0E0,0E0,3.145883E6,2.8312382E6,9.320149E5,2.116332E6,1.4649266E7,1.116095E6,4.99161E5,8.3431555E6,1.6036048E6,7.356339E5,3.1936312E6,0E0,0E0,3.3919595E6,1.5494744E6,1.6410488E5,3.359729E7,0E0,0E0,0E0,0E0,0E0,0E0,0E0,0E0,0E0,0E0,0E0,0E0,0E0,0E0,0E0,0E0,0E0,0E0,0E0,0E0],"parents":[2147483647,0,0,1,1,2,2,3,3,5,5,6,6,7,7,8,8,11,11,12,12,13,13,16,16,17,17,18,18,19,19,20,20,21,21,22,22,23,23,24,24,25,25,26,26,29,29,30,30,31,31,32,32],"right_children":[2,4,6,8,-1,10,12,14,16,-1,-1,18,20,22,-1,-1,24,26,28,30,32,34,36,38,40,42,44,-1,-1,46,48,50,52,-1,-1,-1,-1,-1,-1,-1,-1,-1,-1,-1,-1,-1,-1,-1,-1,-1,-1,-1,-1],"split_conditions":[3E3,1.8E5,1.5E4,3E4,3.4941183E2,1.65E1,3.1263158E4,2.475E4,3.2E4,7.02186E2,1.00594925E2,2.8090908E4,3.3E4,1.65E1,2.8098047E2,-6.4251154E2,3.276923E4,1.65E1,1.65E1,2.1E4,1.6506E4,2.79E4,1.65E1,1.65E1,1.65E1,3.2E4,1.6506E4,2.3437208E1,-2.8973605E2,2.2E4,2.475E4,1.2E4,1.8E5,-4.2813255E1,7.366537E1,-2.7852E2,-1.974979E1,4.5452072E2,-3.481547E2,-2.9526077E2,-2.0898354E1,-1.1154293E2,1.2126262E1,2.9278836E2,-1.4462756E1,2.4390236E2,-2.4042354E2,3.896558E2,6.030625E1,2.2000196E1,1.8885645E2,1.8664126E3,-1.3836607E2],"split_indices":[3,0,3,0,0,2,2,0,0,0,0,2,4,3,0,0,0,2,1,1,0,4,0,2,4,3,2,0,0,3,1,1,4,0,0,0,0,0,0,0,0,0,0,0,0,0,0,0,0,0,0,0,0],"split_type":[0,0,0,0,0,0,0,0,0,0,0,0,0,0,0,0,0,0,0,0,0,0,0,0,0,0,0,0,0,0,0,0,0,0,0,0,0,0,0,0,0,0,0,0,0,0,0,0,0,0,0,0,0],"sum_hessian":[1.18E2,6.9E1,4.9E1,6.8E1,1E0,4E0,4.5E1,5.7E1,1.1E1,2E0,2E0,3E1,1.5E1,5.4E1,3E0,1E0,1E1,2.7E1,3E0,1E1,5E0,5E1,4E0,3E0,7E0,1.6E1,1.1E1,1E0,2E0,4E0,6E0,3E0,2E0,4.2E1,8E0,3E0,1E0,2E0,1E0,3E0,4E0,8E0,8E0,5E0,6E0,1E0,3E0,1E0,5E0,1E0,2E0,1E0,1E0],"tree_param":{"num_deleted":"0","num_feature":"5","num_nodes":"53","size_leaf_vector":"1"}},{"base_weights":[1.1354363E2,-8.739449E1,3.9258612E2,-1.17356735E2,2.97E2,1.7688965E2,8.3988556E2,-4.8349377E1,-4.4111255E2,1.2844496E3,-7.4551587E0,1.827618E2,1.9046315E3,-1.03776886E2,2.1775987E2,-5.461348E2,-1.5022292E2,5.6174884E2,8.047597E1,8.133872E1,-4.8545108E2,-2.2045255E2,4.4466324E2,4.0887988E2,3.2640898E3,-5.3289673E1,-5.97991E2,2.8284464E2,-5.582533E2,-1.2865689E2,3.9848297E2,1.9921583E1,-6.400165E2,2.07317E2,-6.21094E2,9.2473566E2,6.768711E1,1.8700195E1,5.036172E2,1.5864517E3,-1.1761117E2,9.914102E0,-9.246015E1,-2.5773456E2,-4.1260994E1,3.6361652E2,-1.454323E2,-3.2041138E2,-1.0905462E1,-8.365532E1,3.772261E1,2.9094815E2,1.8900154E1,-2.3178883E2,-3.632666E1,-3.970767E2,1.628017E1,3.3120734E2,8.492374E1,5.1330616E1,-5.18959E1,1.7935547E2,4.7272266E1],"categories":[],"categories_nodes":[],"categories_segments":[],"categories_sizes":[],"default_left":[0,0,0,0,0,0,0,0,0,0,0,0,0,0,0,0,0,0,0,0,0,0,0,0,0,0,0,0,0,0,0,0,0,0,0,0,0,0,0,0,0,0,0,0,0,0,0,0,0,0,0,0,0,0,0,0,0,0,0,0,0,0,0],"id":17,"left_children":[1,3,5,7,-1,9,11,13,15,17,19,21,23,25,-1,-1,27,-1,-1,29,31,33,35,37,39,41,43,45,47,49,51,-1,53,-1,55,57,59,-1,61,-1,-1,-1,-1,-1,-1,-1,-1,-1,-1,-1,-1,-1,-1,-1,-1,-1,-1,-1,-1,-1,-1,-1,-1],"loss_changes":[6.706673E6,2.3758638E6,4.6754785E6,1.5202384E6,0E0,7.155628E6,1.0846622E7,2.5642728E6,4.541344E6,2.4855505E6,1.3552224E6,1.2596538E6,1.0865852E7,1.3404655E6,0E0,0E0,2.1016508E6,0E0,0E0,1.849438E6,4.6899E5,2.255153E6,1.2042382E6,9.993081E4,2.4274066E7,1.1326011E6,4.8301862E5,4.86725E6,1.55752E6,6.8462025E5,2.0473358E6,0E0,1.8170912E5,0E0,1.9695786E6,3.2599E4,1.5404447E5,0E0,3.6214375E3,0E0,0E0,0E0,0E0,0E0,0E0,0E0,0E0,0E0,0E0,0E0,0E0,0E0,0E0,0E0,0E0,0E0,0E0,0E0,0E0,0E0,0E0,0E0,0E0],"parents":[2147483647,0,0,1,1,2,2,3,3,5,5,6,6,7,7,8,8,9,9,10,10,11,11,12,12,13,13,16,16,19,19,20,20,21,21,22,22,23,23,24,24,25,25,26,26,27,27,28,28,29,29,30,30,32,32,34,34,35,35,36,36,38,38],"right_children":[2,4,6,8,-1,10,12,14,16,18,20,22,24,26,-1,-1,28,-1,-1,30,32,34,36,38,40,42,44,46,48,50,52,-1,54,-1,56,58,60,-1,62,-1,-1,-1,-1,-1,-1,-1,-1,-1,-1,-1,-1,-1,-1,-1,-1,-1,-1,-1,-1,-1,-1,-1,-1],"split_conditions":[3E3,1.8E5,3.1263158E4,3E4,2.97E2,1.5E4,3.3E4,2.475E4,3.2E4,1.65E1,2.75E4,2.1E4,1.6506E4,1.65E1,2.1775987E2,-5.461348E2,1.65E1,5.6174884E2,8.047597E1,1.65E1,1.65E1,2.2E4,2.8090908E4,1.2E4,1.8E5,1.65E1,1.65E1,3.276923E4,1.5E4,1.55E4,1.65E4,1.9921583E1,1.6506E4,2.07317E2,1.65E1,2.1666666E4,1.8E5,1.8700195E1,1.65E1,1.5864517E3,-1.1761117E2,9.914102E0,-9.246015E1,-2.5773456E2,-4.1260994E1,3.6361652E2,-1.454323E2,-3.2041138E2,-1.0905462E1,-8.365532E1,3.772261E1,2.9094815E2,1.8900154E1,-2.3178883E2,-3.632666E1,-3.970767E2,1.628017E1,3.3120734E2,8.492374E1,5.1330616E1,-5.18959E1,1.7935547E2,4.7272266E1],"split_indices":[3,0,2,0,0,3,4,0,0,2,2,1,0,3,0,0,2,0,0,2,1,3,1,1,4,1,2,0,4,1,2,0,0,0,0,0,3,0,0,0,0,0,0,0,0,0,0,0,0,0,0,0,0,0,0,0,0,0,0,0,0,0,0],"split_type":[0,0,0,0,0,0,0,0,0,0,0,0,0,0,0,0,0,0,0,0,0,0,0,0,0,0,0,0,0,0,0,0,0,0,0,0,0,0,0,0,0,0,0,0,0,0,0,0,0,0,0,0,0,0,0,0,0,0,0,0,0,0,0],"sum_hessian":[1.18E2,6.9E1,4.9E1,6.8E1,1E0,3.4E1,1.5E1,5.7E1,1.1E1,4E0,3E1,1E1,5E0,5.4E1,3E0,1E0,1E1,2E0,2E0,2.6E1,4E0,4E0,6E0,3E0,2E0,5E1,4E0,5E0,5E0,1.6E1,1E1,1E0,3E0,1E0,3E0,2E0,4E0,1E0,2E0,1E0,1E0,3.8E1,1.2E1,2E0,2E0,2E0,3E0,2E0,3E0,1E1,6E0,3E0,7E0,2E0,1E0,1E0,2E0,1E0,1E0,3E0,1E0,1E0,1E0],"tree_param":{"num_deleted":"0","num_feature":"5","num_nodes":"63","size_leaf_vector":"1"}},{"base_weights":[9.702813E1,-6.1413498E1,3.6849484E2,2.172471E0,-5.350171E2,1.4701268E2,7.1161285E2,-1.1833616E2,2.0139165E2,-1.01201904E3,4.8988304E1,1.0830946E3,-8.6409235E0,1.7938982E2,1.1647678E3,9.7524506E1,-7.5516034E2,1.563774E3,2.270253E1,-3.874548E2,1.5895313E1,-7.0476555E1,9.49707E1,5.295862E2,-1.4452248E2,-2.8771686E2,2.3118423E2,1.6721857E2,-8.239607E0,1.7505157E2,1.9215304E3,2.6696262E2,-7.0944073E2,-7.7531573E2,-6.1511826E1,-6.044009E2,1.3080992E3,-5.3312695E2,1.6052477E2,-1.3484785E2,-2.104124E2,3.9979318E2,-5.20313E2,-7.0832924E1,2.2169043E2,6.6724347E2,-1.1264727E2,2.5685288E3,-9.996949E1,9.5535866E1,-3.6477688E1,-1.203926E2,-3.3751517E2,-8.387274E1,2.5245001E2,-2.860218E2,1.9458326E1,1.8731749E2,-8.272965E1,-6.4123055E1,8.628194E1,2.9454785E2,-4.18547E0,-2.0326312E2,-3.0877735E1,4.5533204E0,8.5640625E1,1.8733301E1,2.8152628E2,1.2842247E2,1.3484836E3],"categories":[],"categories_nodes":[],"categories_segments":[],"categories_sizes":[],"default_left":[0,0,0,0,0,0,0,0,0,0,0,0,0,0,0,0,0,0,0,0,0,0,0,0,0,0,0,0,0,0,0,0,0,0,0,0,0,0,0,0,0,0,0,0,0,0,0,0,0,0,0,0,0,0,0,0,0,0,0,0,0,0,0,0,0,0,0,0,0,0,0],"id":18,"left_children":[1,3,5,7,9,11,13,15,17,19,21,23,25,27,29,31,33,35,37,-1,-1,-1,-1,-1,-1,39,41,-1,43,45,47,49,51,-1,53,-1,-1,55,57,59,-1,61,63,-1,65,67,-1,69,-1,-1,-1,-1,-1,-1,-1,-1,-1,-1,-1,-1,-1,-1,-1,-1,-1,-1,-1,-1,-1,-1,-1],"loss_changes":[5.1410145E6,2.2898675E6,3.239142E6,1.6563509E6,2.556723E6,4.0890855E6,3.891104E6,5.984654E6,6.294014E6,1.556756E6,4.5421334E5,5.1204905E6,1.7397515E6,6.429171E5,6.404456E6,4.701506E6,1.3798266E7,3.8806584E7,1.924116E6,0E0,0E0,0E0,0E0,0E0,0E0,6.642465E5,1.9819459E6,0E0,4.1910256E5,1.6054065E6,8.15005E6,5.9891175E5,3.1688375E5,0E0,2.0074921E6,0E0,0E0,1.3184481E6,4.2197975E6,3.9477206E5,0E0,2.903455E6,1.2714156E5,0E0,4.8351375E4,4.3342462E5,0E0,1.4569452E7,0E0,0E0,0E0,0E0,0E0,0E0,0E0,0E0,0E0,0E0,0E0,0E0,0E0,0E0,0E0,0E0,0E0,0E0,0E0,0E0,0E0,0E0,0E0],"parents":[2147483647,0,0,1,1,2,2,3,3,4,4,5,5,6,6,7,7,8,8,9,9,10,10,11,11,12,12,13,13,14,14,15,15,16,16,17,17,18,18,25,25,26,26,28,28,29,29,30,30,31,31,32,32,34,34,37,37,38,38,39,39,41,41,42,42,44,44,45,45,47,47],"right_children":[2,4,6,8,10,12,14,16,18,20,22,24,26,28,30,32,34,36,38,-1,-1,-1,-1,-1,-1,40,42,-1,44,46,48,50,52,-1,54,-1,-1,56,58,60,-1,62,64,-1,66,68,-1,70,-1,-1,-1,-1,-1,-1,-1,-1,-1,-1,-1,-1,-1,-1,-1,-1,-1,-1,-1,-1,-1,-1,-1],"split_conditions":[1.5E4,1.65E1,3.276923E4,1.65E1,1.65E1,1.55E4,2.8090908E4,1.65E1,3.2E1,1.55E4,3E3,1.65E1,1.65E1,1.65E1,2.8090908E4,1.65E1,3.3E1,1.65E1,1.5E4,-3.874548E2,1.5895313E1,-7.0476555E1,9.49707E1,5.295862E2,-1.4452248E2,1.6506E4,2.75E4,1.6721857E2,1.65E1,2.1666666E4,1.8E5,1.65E1,3.276923E4,-7.7531573E2,1.8E5,-6.044009E2,1.3080992E3,1.55E4,3.1263158E4,1.65E4,-2.104124E2,3.1263158E4,1.6506E4,-7.0832924E1,1.65E1,1.2E4,-1.1264727E2,1.6506E4,-9.996949E1,9.5535866E1,-3.6477688E1,-1.203926E2,-3.3751517E2,-8.387274E1,2.5245001E2,-2.860218E2,1.9458326E1,1.8731749E2,-8.272965E1,-6.4123055E1,8.628194E1,2.9454785E2,-4.18547E0,-2.0326312E2,-3.0877735E1,4.5533204E0,8.5640625E1,1.8733301E1,2.8152628E2,1.2842247E2,1.3484836E3],"split_indices":[1,1,2,4,0,1,3,0,4,2,1,0,0,4,4,2,0,0,4,0,0,0,0,0,0,3,2,0,3,0,4,3,2,0,0,0,0,2,4,3,0,0,0,0,0,0,0,0,0,0,0,0,0,0,0,0,0,0,0,0,0,0,0,0,0,0,0,0,0,0,0],"split_type":[0,0,0,0,0,0,0,0,0,0,0,0,0,0,0,0,0,0,0,0,0,0,0,0,0,0,0,0,0,0,0,0,0,0,0,0,0,0,0,0,0,0,0,0,0,0,0,0,0,0,0,0,0,0,0,0,0,0,0,0,0,0,0,0,0,0,0,0,0,0,0],"sum_hessian":[1.18E2,7.5E1,4.3E1,6.7E1,8E0,2.7E1,1.6E1,4.2E1,2.5E1,4E0,4E0,3E0,2.4E1,8E0,8E0,3.2E1,1E1,2E0,2.3E1,3E0,1E0,2E0,2E0,2E0,1E0,1.1E1,1.3E1,2E0,6E0,4E0,4E0,2.7E1,5E0,2E0,8E0,1E0,1E0,4E0,1.9E1,9E0,2E0,1.1E1,2E0,3E0,3E0,2E0,2E0,3E0,1E0,2.4E1,3E0,4E0,1E0,7E0,1E0,2E0,2E0,9E0,1E1,8E0,1E0,4E0,7E0,1E0,1E0,1E0,2E0,1E0,1E0,2E0,1E0],"tree_param":{"num_deleted":"0","num_feature":"5","num_nodes":"71","size_leaf_vector":"1"}},{"base_weights":[7.794691E1,-8.2032776E1,3.0035953E2,-1.0395428E2,2.1458263E2,1.483711E2,6.1406177E2,-5.848745E1,-4.0056784E2,9.471219E2,1.475415E1,1.4842027E2,1.3653943E3,-1.2343136E2,1.2382386E3,-7.318655E2,1.9652061E2,4.0471368E2,6.884728E1,2.033336E2,-1.3273843E2,-2.2482666E2,3.164912E2,2.7936328E2,2.3583042E3,-8.5800224E1,-3.4590558E2,5.5266064E2,4.5467205E0,-2.852288E2,-1.960476E2,1.8381885E2,-4.3937656E1,4.201992E2,-4.438802E2,-5.1294385E2,1.5584175E2,3.3775977E2,-2.868879E2,6.869956E2,-4.321057E1,1.3511133E1,3.4245963E2,1.1462109E3,-8.497407E1,-5.1533665E1,7.742985E1,1.4050372E2,-2.2872514E2,7.8205523E0,1.9250781E2,-1.9964037E2,3.3132423E1,-5.766569E1,-2.9502374E2,1.7895436E2,-5.4356285E1,1.4812178E2,3.8701174E0,1.5923438E1,2.6418262E2,6.8512505E1,-9.011778E1,1.3318887E2,2.0917969E1],"categories":[],"categories_nodes":[],"categories_segments":[],"categories_sizes":[],"default_left":[0,0,0,0,0,0,0,0,0,0,0,0,0,0,0,0,0,0,0,0,0,0,0,0,0,0,0,0,0,0,0,0,0,0,0,0,0,0,0,0,0,0,0,0,0,0,0,0,0,0,0,0,0,0,0,0,0,0,0,0,0,0,0,0,0],"id":19,"left_children":[1,3,5,7,-1,9,11,13,15,17,19,21,23,25,27,29,31,-1,-1,33,35,37,39,41,43,45,-1,-1,-1,-1,47,-1,-1,49,51,53,55,57,-1,59,61,-1,63,-1,-1,-1,-1,-1,-1,-1,-1,-1,-1,-1,-1,-1,-1,-1,-1,-1,-1,-1,-1,-1,-1],"loss_changes":[4.258838E6,1.2978294E6,2.292847E6,9.071112E5,0E0,3.7214582E6,5.394973E6,5.2899195E6,1.9241529E6,1.1325705E6,8.892264E5,7.6120725E5,5.811163E6,2.1869982E6,2.1881725E6,5.17339E5,6.60744E5,0E0,0E0,2.1515358E6,2.0548936E6,1.9690494E6,1.0958542E6,4.3717094E4,1.2671206E7,1.7592819E6,0E0,0E0,0E0,0E0,1.4859511E6,0E0,0E0,9.435429E5,5.648185E5,1.01809725E6,1.7417972E6,1.4564478E5,0E0,4.4419788E5,4.1783678E5,0E0,5.2093906E4,0E0,0E0,0E0,0E0,0E0,0E0,0E0,0E0,0E0,0E0,0E0,0E0,0E0,0E0,0E0,0E0,0E0,0E0,0E0,0E0,0E0,0E0],"parents":[2147483647,0,0,1,1,2,2,3,3,5,5,6,6,7,7,8,8,9,9,10,10,11,11,12,12,13,13,14,14,15,15,16,16,19,19,20,20,21,21,22,22,23,23,24,24,25,25,30,30,33,33,34,34,35,35,36,36,37,37,39,39,40,40,42,42],"right_children":[2,4,6,8,-1,10,12,14,16,18,20,22,24,26,28,30,32,-1,-1,34,36,38,40,42,44,46,-1,-1,-1,-1,48,-1,-1,50,52,54,56,58,-1,60,62,-1,64,-1,-1,-1,-1,-1,-1,-1,-1,-1,-1,-1,-1,-1,-1,-1,-1,-1,-1,-1,-1,-1,-1],"split_conditions":[3E3,1.8E5,3.1263158E4,3.2E4,2.1458263E2,1.5E4,3.3E4,2.79E4,1.65E1,1.65E1,1.1E4,1.65E1,1.6506E4,1.6506E4,1.65E1,1.65E1,1.65E1,4.0471368E2,6.884728E1,1.1E4,3.2E1,2.75E4,2.1666666E4,1.2E4,1.8E5,1.65E1,-3.4590558E2,5.5266064E2,4.5467205E0,-2.852288E2,1.55E4,1.8381885E2,-4.3937656E1,3E4,1.65E1,2.9927273E4,1.65E4,1.65E1,-2.868879E2,1.2E4,2.8090908E4,1.3511133E1,1.65E1,1.1462109E3,-8.497407E1,-5.1533665E1,7.742985E1,1.4050372E2,-2.2872514E2,7.8205523E0,1.9250781E2,-1.9964037E2,3.3132423E1,-5.766569E1,-2.9502374E2,1.7895436E2,-5.4356285E1,1.4812178E2,3.8701174E0,1.5923438E1,2.6418262E2,6.8512505E1,-9.011778E1,1.3318887E2,2.0917969E1],"split_indices":[3,0,2,4,0,3,4,4,1,2,1,0,0,4,0,0,0,0,0,0,0,3,0,1,4,4,0,0,0,0,0,0,0,3,2,3,2,1,0,0,3,0,0,0,0,0,0,0,0,0,0,0,0,0,0,0,0,0,0,0,0,0,0,0,0],"split_type":[0,0,0,0,0,0,0,0,0,0,0,0,0,0,0,0,0,0,0,0,0,0,0,0,0,0,0,0,0,0,0,0,0,0,0,0,0,0,0,0,0,0,0,0,0,0,0,0,0,0,0,0,0,0,0,0,0,0,0,0,0,0,0,0,0],"sum_hessian":[1.18E2,6.9E1,4.9E1,6.8E1,1E0,3.4E1,1.5E1,6E1,8E0,4E0,3E1,1E1,5E0,5.8E1,2E0,5E0,3E0,2E0,2E0,1.3E1,1.7E1,3E0,7E0,3E0,2E0,5.7E1,1E0,1E0,1E0,3E0,2E0,1E0,2E0,1E1,3E0,7E0,1E1,2E0,1E0,3E0,4E0,1E0,2E0,1E0,1E0,4.6E1,1.1E1,1E0,1E0,4E0,6E0,2E0,1E0,5E0,2E0,4E0,6E0,1E0,1E0,1E0,2E0,2E0,2E0,1E0,1E0],"tree_param":{"num_deleted":"0","num_feature":"5","num_nodes":"65","size_leaf_vector":"1"}},{"base_weights":[7.010864E1,-4.5155006E1,2.6760703E2,1.8321362E-1,-3.826932E2,1.03499825E2,5.221596E2,6.526298E1,-1.7108897E2,-7.316019E2,4.2754112E1,7.217158E2,4.4527444E-1,2.1284323E2,9.3363403E2,-1.2620042E1,1.289637E3,-3.9498557E2,-3.4302963E1,-2.8009293E2,1.1484375E1,-4.6074505E1,6.745157E1,3.6481583E2,-1.14194244E2,4.4613E1,-1.5893701E2,5.1285156E2,-3.185461E1,1.0435405E2,2.0045559E3,9.669596E1,-2.3729555E2,-5.199332E2,1.1002699E3,-1.0784836E2,1.8239532E2,-1.5754723E2,2.2779066E2,3.738737E1,2.4520958E2,-9.444456E1,6.777468E1,1.1321046E2,-5.824152E1,9.7427814E2,-7.222796E1,6.637347E1,-1.5019452E2,-4.431919E2,1.36112175E1,-9.203361E1,4.628868E1,-2.1575512E1,-1.649197E2,1.67291E2,-4.0379055E1,3.2894533E0,1.3534863E1,4.65985E1,-5.5499027E1,1.7780273E1,-3.5150127E1],"categories":[],"categories_nodes":[],"categories_segments":[],"categories_sizes":[],"default_left":[0,0,0,0,0,0,0,0,0,0,0,0,0,0,0,0,0,0,0,0,0,0,0,0,0,0,0,0,0,0,0,0,0,0,0,0,0,0,0,0,0,0,0,0,0,0,0,0,0,0,0,0,0,0,0,0,0,0,0,0,0,0,0],"id":20,"left_children":[1,3,5,7,9,11,13,15,17,19,21,23,25,27,29,31,33,-1,35,-1,-1,-1,-1,-1,-1,37,-1,39,41,43,45,47,49,-1,-1,51,-1,53,55,57,-1,-1,59,-1,61,-1,-1,-1,-1,-1,-1,-1,-1,-1,-1,-1,-1,-1,-1,-1,-1,-1,-1],"loss_changes":[2.721045E6,1.163127E6,1.7840085E6,7.6911775E5,1.3672594E6,1.7835579E6,1.964971E6,4.784172E6,2.931992E6,8.1348125E5,2.1327953E5,2.6426425E6,6.0911775E5,8.23862E5,6.0074745E6,1.2018558E6,2.791994E7,0E0,9.1584106E5,0E0,0E0,0E0,0E0,0E0,0E0,9.2463744E5,0E0,6.9336775E5,2.1867464E5,2.4393294E5,9.154927E6,2.5659198E6,5.675174E6,0E0,0E0,9.338572E5,0E0,3.634524E5,1.6289731E6,1.1795459E2,0E0,0E0,1.615216E5,0E0,3.4641367E4,0E0,0E0,0E0,0E0,0E0,0E0,0E0,0E0,0E0,0E0,0E0,0E0,0E0,0E0,0E0,0E0,0E0,0E0],"parents":[2147483647,0,0,1,1,2,2,3,3,4,4,5,5,6,6,7,7,8,8,9,9,10,10,11,11,12,12,13,13,14,14,15,15,16,16,18,18,25,25,27,27,28,28,29,29,30,30,31,31,32,32,35,35,37,37,38,38,39,39,42,42,44,44],"right_children":[2,4,6,8,10,12,14,16,18,20,22,24,26,28,30,32,34,-1,36,-1,-1,-1,-1,-1,-1,38,-1,40,42,44,46,48,50,-1,-1,52,-1,54,56,58,-1,-1,60,-1,62,-1,-1,-1,-1,-1,-1,-1,-1,-1,-1,-1,-1,-1,-1,-1,-1,-1,-1],"split_conditions":[1.5E4,1.65E1,3.276923E4,3.2E1,1.65E1,1.55E4,3.3E4,1.65E1,3.3E1,1.55E4,3E3,1.65E1,1.8E5,2.1666666E4,2.475E4,1.65E1,1.65E1,-3.9498557E2,1.8E5,-2.8009293E2,1.1484375E1,-4.6074505E1,6.745157E1,3.6481583E2,-1.14194244E2,1.65E1,-1.5893701E2,1.2E4,2.75E4,1.65E1,1.8E5,1.65E1,3.4736843E3,-5.199332E2,1.1002699E3,1.5E4,1.8239532E2,2.9927273E4,1.65E4,1.65E1,2.4520958E2,-9.444456E1,1.8E5,1.1321046E2,1.6506E4,9.7427814E2,-7.222796E1,6.637347E1,-1.5019452E2,-4.431919E2,1.36112175E1,-9.203361E1,4.628868E1,-2.1575512E1,-1.649197E2,1.67291E2,-4.0379055E1,3.2894533E0,1.3534863E1,4.65985E1,-5.5499027E1,1.7780273E1,-3.5150127E1],"split_indices":[1,1,2,0,0,1,4,0,0,2,1,0,1,0,0,4,4,0,0,0,0,0,0,0,0,0,0,0,0,0,4,2,4,0,0,4,0,3,2,0,0,0,2,0,0,0,0,0,0,0,0,0,0,0,0,0,0,0,0,0,0,0,0],"split_type":[0,0,0,0,0,0,0,0,0,0,0,0,0,0,0,0,0,0,0,0,0,0,0,0,0,0,0,0,0,0,0,0,0,0,0,0,0,0,0,0,0,0,0,0,0,0,0,0,0,0,0,0,0,0,0,0,0,0,0,0,0,0,0],"sum_hessian":[1.18E2,7.5E1,4.3E1,6.7E1,8E0,2.7E1,1.6E1,4.9E1,1.8E1,4E0,4E0,3E0,2.4E1,1E1,6E0,4.7E1,2E0,1E0,1.7E1,3E0,1E0,2E0,2E0,2E0,1E0,2.3E1,1E0,4E0,6E0,4E0,2E0,3.2E1,1.5E1,1E0,1E0,1.6E1,1E0,1.1E1,1.2E1,2E0,2E0,1E0,5E0,1E0,3E0,1E0,1E0,2.7E1,5E0,2E0,1.3E1,9E0,7E0,1E1,1E0,6E0,6E0,1E0,1E0,4E0,1E0,1E0,2E0],"tree_param":{"num_deleted":"0","num_feature":"5","num_nodes":"63","size_leaf_vector":"1"}},{"base_weights":[5.5378933E1,-6.949356E1,2.2909285E2,-3.557943E1,-5.032614E2,6.7706946E2,1.7541946E2,1.442813E1,-3.538971E2,-7.728656E2,-1.9771029E1,2.8591153E2,3.362552E2,3.1053171E1,4.4416544E2,-3.8210266E1,9.922022E2,-5.9678284E2,9.890581E1,-2.9915607E2,-4.8633457E1,9.8032524E1,2.4498137E1,8.9637695E1,-3.8680182E2,1.0797046E2,9.864953E2,-3.0187695E0,-2.960614E2,4.6771994E2,-2.1228937E1,-2.2411484E2,-1.974998E2,1.01523636E2,-9.373366E1,1.26314766E2,-1.3509647E2,-4.9011837E1,-1.5856334E2,-1.5777917E2,2.2734897E2,2.0183936E2,1.7038715E3,-1.542755E1,6.598576E1,1.1248477E2,-2.0135968E2,-3.7989454E0,-3.8381203E1,9.4867805E1,4.137308E0,8.4438675E1,-2.2132552E2,1.5277362E2,-1.3091382E1,9.761719E0,7.4227936E1,8.28136E2,-6.1393764E1],"categories":[],"categories_nodes":[],"categories_segments":[],"categories_sizes":[],"default_left":[0,0,0,0,0,0,0,0,0,0,0,0,0,0,0,0,0,0,0,0,0,0,0,0,0,0,0,0,0,0,0,0,0,0,0,0,0,0,0,0,0,0,0,0,0,0,0,0,0,0,0,0,0,0,0,0,0,0,0],"id":21,"left_children":[1,3,5,7,9,11,13,15,17,19,-1,21,-1,23,25,27,29,31,33,-1,-1,-1,-1,35,37,39,41,43,-1,-1,-1,-1,45,-1,47,49,-1,-1,-1,51,53,55,57,-1,-1,-1,-1,-1,-1,-1,-1,-1,-1,-1,-1,-1,-1,-1,-1],"loss_changes":[2.5972792E6,1.0118545E6,1.08345E6,1.0557132E6,5.386331E5,5.4747825E5,1.7709088E6,3.023083E6,1.0488398E6,2.4936E5,0E0,6.7010938E3,0E0,7.9354694E5,2.810745E6,1.86657E6,1.9179952E6,2.1245125E5,2.1627408E5,0E0,0E0,0E0,0E0,6.113976E5,4.0327875E4,3.848437E5,3.033452E6,6.049392E5,0E0,0E0,0E0,0E0,1.0651712E6,0E0,6.6986387E3,5.72616E5,0E0,0E0,0E0,1.226641E6,6.333443E5,2.2820594E4,6.614429E6,0E0,0E0,0E0,0E0,0E0,0E0,0E0,0E0,0E0,0E0,0E0,0E0,0E0,0E0,0E0,0E0],"parents":[2147483647,0,0,1,1,2,2,3,3,4,4,5,5,6,6,7,7,8,8,9,9,11,11,13,13,14,14,15,15,16,16,17,17,18,18,23,23,24,24,25,25,26,26,27,27,32,32,34,34,35,35,39,39,40,40,41,41,42,42],"right_children":[2,4,6,8,10,12,14,16,18,20,-1,22,-1,24,26,28,30,32,34,-1,-1,-1,-1,36,38,40,42,44,-1,-1,-1,-1,46,-1,48,50,-1,-1,-1,52,54,56,58,-1,-1,-1,-1,-1,-1,-1,-1,-1,-1,-1,-1,-1,-1,-1,-1],"split_conditions":[3E3,1.65E1,1.5E4,3.2E4,1.65E1,1.2E4,3.1263158E4,2.79E4,1.65E1,1.65E1,-1.9771029E1,3.4736843E3,3.362552E2,2.8090908E4,3.3E4,1.6506E4,1.65E1,1.65E1,1.65E1,-2.9915607E2,-4.8633457E1,9.8032524E1,2.4498137E1,1.8E5,1.65E1,1.65E1,1.6506E4,1.65E1,-2.960614E2,4.6771994E2,-2.1228937E1,-2.2411484E2,1.55E4,1.01523636E2,2.2E4,1.65E1,-1.3509647E2,-4.9011837E1,-1.5856334E2,2.75E4,2.1666666E4,1.2E4,1.8E5,-1.542755E1,6.598576E1,1.1248477E2,-2.0135968E2,-3.7989454E0,-3.8381203E1,9.4867805E1,4.137308E0,8.4438675E1,-2.2132552E2,1.5277362E2,-1.3091382E1,9.761719E0,7.4227936E1,8.28136E2,-6.1393764E1],"split_indices":[3,3,3,4,2,3,2,4,1,4,0,2,0,2,4,4,0,0,0,0,0,0,0,1,0,0,0,4,0,0,0,0,0,0,0,4,0,0,0,3,0,1,4,0,0,0,0,0,0,0,0,0,0,0,0,0,0,0,0],"split_type":[0,0,0,0,0,0,0,0,0,0,0,0,0,0,0,0,0,0,0,0,0,0,0,0,0,0,0,0,0,0,0,0,0,0,0,0,0,0,0,0,0,0,0,0,0,0,0,0,0,0,0,0,0,0,0,0,0,0,0],"sum_hessian":[1.18E2,6.9E1,4.9E1,6.5E1,4E0,4E0,4.5E1,5.7E1,8E0,2E0,2E0,3E0,1E0,3E1,1.5E1,5.5E1,2E0,5E0,3E0,1E0,1E0,2E0,1E0,2.7E1,3E0,1E1,5E0,5.4E1,1E0,1E0,1E0,3E0,2E0,1E0,2E0,2.6E1,1E0,2E0,1E0,3E0,7E0,3E0,2E0,4.5E1,9E0,1E0,1E0,1E0,1E0,9E0,1.7E1,2E0,1E0,3E0,4E0,1E0,2E0,1E0,1E0],"tree_param":{"num_deleted":"0","num_feature":"5","num_nodes":"59","size_leaf_vector":"1"}},{"base_weights":[4.421427E1,-5.4648563E1,1.8173796E2,-2.5703392E1,-4.257951E2,8.197218E1,3.5454532E2,4.330883E1,-2.1214203E2,-6.569358E2,-1.5816823E1,5.854142E2,1.2114177E1,1.06754425E2,8.323347E2,-3.633289E1,9.483614E2,-4.831843E2,4.2652626E0,-2.5428267E2,-4.1338436E1,2.858168E2,4.3621143E1,3.8930065E1,-1.14832E2,4.3024298E2,-8.4823044E1,1.6228516E2,1.4482892E3,9.389812E1,-3.4071075E2,-4.687743E2,2.3062024E3,-8.2770703E2,3.669226E2,3.9756183E2,-2.6034943E2,6.709224E1,-2.2750616E2,1.5104181E2,2.0598633E1,-3.3183145E2,1.7915E2,2.0753777E2,3.9791017E0,7.0391486E2,-5.21847E1,4.6085564E1,-6.013407E1,-5.1536847E2,9.593345E0,9.253316E2,1.1245957E2,-3.07204E2,2.3073633E1,2.2218721E2,-5.7072037E1,-1.4097385E2,1.295896E1,4.4103905E1,-2.5042318E1,-1.3050484E2,2.8127052E1,-1.4771544E2,-5.0579082E1,-9.0449135E1,1.12405815E2,8.2974615E0,8.5094536E1],"categories":[],"categories_nodes":[],"categories_segments":[],"categories_sizes":[],"default_left":[0,0,0,0,0,0,0,0,0,0,0,0,0,0,0,0,0,0,0,0,0,0,0,0,0,0,0,0,0,0,0,0,0,0,0,0,0,0,0,0,0,0,0,0,0,0,0,0,0,0,0,0,0,0,0,0,0,0,0,0,0,0,0,0,0,0,0,0,0],"id":22,"left_children":[1,3,5,7,9,11,13,15,17,19,-1,21,23,25,27,29,31,33,35,-1,-1,-1,-1,37,-1,39,41,43,45,47,49,-1,51,53,55,-1,57,59,61,-1,-1,63,65,67,-1,-1,-1,-1,-1,-1,-1,-1,-1,-1,-1,-1,-1,-1,-1,-1,-1,-1,-1,-1,-1,-1,-1,-1,-1],"loss_changes":[1.6278535E6,7.410587E5,8.3295025E5,8.583795E5,3.965255E5,1.1535002E6,2.042198E6,3.5663738E6,1.0578605E6,1.801625E5,0E0,5.079485E5,3.3257916E5,8.421451E5,2.2412842E6,1.8554062E6,1.724147E7,2.646754E6,4.1899605E6,0E0,0E0,0E0,0E0,2.3286317E5,0E0,9.782275E4,6.462797E5,2.4221734E4,4.7789175E6,6.108799E5,7.2405855E6,0E0,3.352861E6,1.1442532E6,7.655339E5,0E0,6.5641994E5,3.371737E5,2.4078152E5,0E0,0E0,4.8024625E4,5.828859E5,3.3227055E4,0E0,0E0,0E0,0E0,0E0,0E0,0E0,0E0,0E0,0E0,0E0,0E0,0E0,0E0,0E0,0E0,0E0,0E0,0E0,0E0,0E0,0E0,0E0,0E0,0E0],"parents":[2147483647,0,0,1,1,2,2,3,3,4,4,5,5,6,6,7,7,8,8,9,9,11,11,12,12,13,13,14,14,15,15,16,16,17,17,18,18,23,23,25,25,26,26,27,27,28,28,29,29,30,30,32,32,33,33,34,34,36,36,37,37,38,38,41,41,42,42,43,43],"right_children":[2,4,6,8,10,12,14,16,18,20,-1,22,24,26,28,30,32,34,36,-1,-1,-1,-1,38,-1,40,42,44,46,48,50,-1,52,54,56,-1,58,60,62,-1,-1,64,66,68,-1,-1,-1,-1,-1,-1,-1,-1,-1,-1,-1,-1,-1,-1,-1,-1,-1,-1,-1,-1,-1,-1,-1,-1,-1],"split_conditions":[3E3,1.65E1,3.3E4,1.2E4,1.65E1,1.5E4,3E4,1.65E1,2.79E4,1.65E1,-1.5816823E1,1.65E1,1.8E5,1.65E1,1.6506E4,1.65E1,1.65E1,3.276923E4,3.1263158E4,-2.5428267E2,-4.1338436E1,2.858168E2,4.3621143E1,3E4,-1.14832E2,1.2E4,2.75E4,1.65E1,1.8E5,1.65E1,3.3E1,-4.687743E2,3.2E1,3.2E1,1.65E1,3.9756183E2,1.65E1,2.8090908E4,1.55E4,1.5104181E2,2.0598633E1,1.5E4,1.65E4,1.2E4,3.9791017E0,7.0391486E2,-5.21847E1,4.6085564E1,-6.013407E1,-5.1536847E2,9.593345E0,9.253316E2,1.1245957E2,-3.07204E2,2.3073633E1,2.2218721E2,-5.7072037E1,-1.4097385E2,1.295896E1,4.4103905E1,-2.5042318E1,-1.3050484E2,2.8127052E1,-1.4771544E2,-5.0579082E1,-9.0449135E1,1.12405815E2,8.2974615E0,8.5094536E1],"split_indices":[3,3,4,4,2,3,2,4,4,4,0,2,1,1,0,0,0,0,4,0,0,0,0,4,0,2,1,0,4,1,0,0,0,1,1,0,1,1,0,0,0,1,3,1,0,0,0,0,0,0,0,0,0,0,0,0,0,0,0,0,0,0,0,0,0,0,0,0,0],"split_type":[0,0,0,0,0,0,0,0,0,0,0,0,0,0,0,0,0,0,0,0,0,0,0,0,0,0,0,0,0,0,0,0,0,0,0,0,0,0,0,0,0,0,0,0,0,0,0,0,0,0,0,0,0,0,0,0,0,0,0,0,0,0,0,0,0,0,0,0,0],"sum_hessian":[1.18E2,6.9E1,4.9E1,6.5E1,4E0,3.2E1,1.7E1,4.8E1,1.7E1,2E0,2E0,3E0,2.9E1,1.2E1,5E0,4.5E1,3E0,7E0,1E1,1E0,1E0,1E0,2E0,2.8E1,1E0,4E0,8E0,3E0,2E0,3.2E1,1.3E1,1E0,2E0,5E0,2E0,1E0,9E0,2.6E1,2E0,3E0,1E0,4E0,4E0,2E0,1E0,1E0,1E0,2.7E1,5E0,2E0,1.1E1,1E0,1E0,4E0,1E0,1E0,1E0,5E0,4E0,1.7E1,9E0,1E0,1E0,1E0,3E0,1E0,3E0,1E0,1E0],"tree_param":{"num_deleted":"0","num_feature":"5","num_nodes":"69","size_leaf_vector":"1"}},{"base_weights":[3.7369987E1,-6.8849525E0,2.3280699E2,1.6190727E1,-2.685102E2,-1.26019424E2,3.752431E2,-1.3979022E1,3.8022473E2,-3.4611124E2,-7.1414065E0,3.4653915E1,-3.5180185E2,1.0216353E2,7.117506E2,-2.6519346E1,1.5591124E2,2.0685353E2,1.18607574E2,-1.5251938E2,-1.46659E2,-6.959032E1,6.774463E1,-1.5065556E2,-7.655274E0,4.0579233E2,-1.6788773E2,8.796613E2,-4.4356995E1,2.884269E1,-1.5832745E2,-2.8393393E1,5.8674538E1,-7.631166E1,2.295586E1,-1.9701215E2,4.6901276E1,1.5188594E2,1.7003409E2,-9.7412285E1,-8.300884E0,1.0755488E3,-1.4966455E1,-2.116576E0,1.5995332E2,-1.04998695E2,2.354381E1,-1.177371E1,-7.688176E1,-3.4567863E1,1.11083206E2,-1.9259027E1,2.3908009E1,1.3663536E2,4.011391E2],"categories":[],"categories_nodes":[],"categories_segments":[],"categories_sizes":[],"default_left":[0,0,0,0,0,0,0,0,0,0,0,0,0,0,0,0,0,0,0,0,0,0,0,0,0,0,0,0,0,0,0,0,0,0,0,0,0,0,0,0,0,0,0,0,0,0,0,0,0,0,0,0,0,0,0],"id":23,"left_children":[1,3,5,7,9,11,13,15,17,19,-1,21,23,25,27,29,-1,-1,31,33,-1,35,-1,-1,-1,37,39,41,-1,43,45,-1,-1,-1,-1,47,-1,-1,49,-1,51,53,-1,-1,-1,-1,-1,-1,-1,-1,-1,-1,-1,-1,-1],"loss_changes":[1.03084025E6,5.9599106E5,1.1717044E6,1.0047513E6,1.4367619E5,2.661318E5,1.3975782E6,5.8264975E5,4.84622E5,9.125269E4,0E0,1.15352E5,1.3438862E5,8.8808094E5,1.1404242E6,6.175285E5,0E0,0E0,1.00585375E5,1.12777484E5,0E0,1.45953E5,0E0,0E0,0E0,3.2375625E4,1.4746298E5,1.14618E6,0E0,1.0900371E6,1.1621756E6,0E0,0E0,0E0,0E0,1.7990305E4,0E0,0E0,2.1403E5,0E0,2.4790113E4,2.020325E5,0E0,0E0,0E0,0E0,0E0,0E0,0E0,0E0,0E0,0E0,0E0,0E0,0E0],"parents":[2147483647,0,0,1,1,2,2,3,3,4,4,5,5,6,6,7,7,8,8,9,9,11,11,12,12,13,13,14,14,15,15,18,18,19,19,21,21,25,25,26,26,27,27,29,29,30,30,35,35,38,38,40,40,41,41],"right_children":[2,4,6,8,10,12,14,16,18,20,-1,22,24,26,28,30,-1,-1,32,34,-1,36,-1,-1,-1,38,40,42,-1,44,46,-1,-1,-1,-1,48,-1,-1,50,-1,52,54,-1,-1,-1,-1,-1,-1,-1,-1,-1,-1,-1,-1,-1],"split_conditions":[3.3E4,2.9927273E4,1.2E4,2.1666666E4,1.65E1,1.6506E4,3.3E4,1.8E5,2.475E4,1.65E1,-7.1414065E0,1.65E4,1.65E1,3.1263158E4,1.8E5,3.2E1,1.5591124E2,2.0685353E2,2.75E4,1.65E1,-1.46659E2,2.2E4,6.774463E1,-1.5065556E2,-7.655274E0,1.2E4,1.55E4,1.8E5,-4.4356995E1,1.65E1,1.5E4,-2.8393393E1,5.8674538E1,-7.631166E1,2.295586E1,1.65E1,4.6901276E1,1.5188594E2,2.475E4,-9.7412285E1,2.8090908E4,1.65E1,-1.4966455E1,-2.116576E0,1.5995332E2,-1.04998695E2,2.354381E1,-1.177371E1,-7.688176E1,-3.4567863E1,1.11083206E2,-1.9259027E1,2.3908009E1,1.3663536E2,4.011391E2],"split_indices":[1,1,0,1,4,3,3,0,1,0,0,3,0,0,4,0,0,0,1,3,0,2,0,0,0,4,4,3,0,0,4,0,0,0,0,2,0,0,0,0,2,2,0,0,0,0,0,0,0,0,0,0,0,0,0],"split_type":[0,0,0,0,0,0,0,0,0,0,0,0,0,0,0,0,0,0,0,0,0,0,0,0,0,0,0,0,0,0,0,0,0,0,0,0,0,0,0,0,0,0,0,0,0,0,0,0,0,0,0,0,0,0,0],"sum_hessian":[1.18E2,9.7E1,2.1E1,9E1,7E0,6E0,1.5E1,8.4E1,6E0,5E0,2E0,4E0,2E0,9E0,6E0,8.3E1,1E0,2E0,4E0,3E0,2E0,3E0,1E0,1E0,1E0,4E0,5E0,5E0,1E0,5.9E1,2.4E1,1E0,3E0,2E0,1E0,2E0,1E0,2E0,2E0,2E0,3E0,4E0,1E0,5.6E1,3E0,1.3E1,1.1E1,1E0,1E0,1E0,1E0,2E0,1E0,2E0,2E0],"tree_param":{"num_deleted":"0","num_feature":"5","num_nodes":"55","size_leaf_vector":"1"}},{"base_weights":[3.2411514E1,-7.6603866E0,1.7604025E2,2.1896929E1,-4.1347363E2,6.4496375E2,8.683443E1,-1.9080841E1,1.5501068E2,3.5854776E2,-1.508434E2,-3.1192496E2,2.8078696E2,4.9124904E0,-5.7256494E2,2.8271075E2,2.5034708E1,-4.4894827E2,6.609662E1,6.478425E1,4.8869165E2,-1.9536966E1,4.1321277E2,-2.4036855E2,-1.7285696E1,6.630616E1,1.934527E2,1.6505115E2,-2.9626096E2,-1.4534943E2,-4.0679886E1,4.6843067E1,-1.7099588E1,2.0083328E2,-1.5354121E2,-5.124762E1,6.772127E2,-2.6129274E1,3.4048885E1,-3.8631686E2,4.2282965E2,5.3883152E1,-1.09023636E2,7.454465E1,-2.5391468E1,-6.5068364E0,-1.141665E2,1.0423547E2,-9.794372E0,-3.703897E1,1.397754E1,2.5887796E2,-3.7703445E1],"categories":[],"categories_nodes":[],"categories_segments":[],"categories_sizes":[],"default_left":[0,0,0,0,0,0,0,0,0,0,0,0,0,0,0,0,0,0,0,0,0,0,0,0,0,0,0,0,0,0,0,0,0,0,0,0,0,0,0,0,0,0,0,0,0,0,0,0,0,0,0,0,0],"id":24,"left_children":[1,3,5,7,-1,9,11,13,15,-1,-1,17,19,21,23,25,27,29,31,33,35,37,39,-1,-1,41,-1,43,45,-1,-1,-1,-1,47,-1,49,51,-1,-1,-1,-1,-1,-1,-1,-1,-1,-1,-1,-1,-1,-1,-1,-1],"loss_changes":[6.8625025E5,3.8381958E6,1.03159344E6,5.1024522E5,0E0,3.126942E6,1.8664136E6,9.5896756E5,3.580772E5,0E0,0E0,4.4405612E5,6.868681E5,7.068633E5,3.0708206E5,8.1927906E5,5.887383E5,1.139125E3,4.215302E4,8.0878575E5,8.49025E5,6.120683E5,8.592979E6,0E0,0E0,4.547842E5,0E0,2.085176E5,8.432491E4,0E0,0E0,0E0,0E0,2.852045E5,0E0,2.694897E4,1.0030985E6,0E0,0E0,0E0,0E0,0E0,0E0,0E0,0E0,0E0,0E0,0E0,0E0,0E0,0E0,0E0,0E0],"parents":[2147483647,0,0,1,1,2,2,3,3,5,5,6,6,7,7,8,8,11,11,12,12,13,13,14,14,15,15,16,16,17,17,18,18,19,19,20,20,21,21,22,22,25,25,27,27,28,28,33,33,35,35,36,36],"right_children":[2,4,6,8,-1,10,12,14,16,-1,-1,18,20,22,24,26,28,30,32,34,36,38,40,-1,-1,42,-1,44,46,-1,-1,-1,-1,48,-1,50,52,-1,-1,-1,-1,-1,-1,-1,-1,-1,-1,-1,-1,-1,-1,-1,-1],"split_conditions":[3.2E4,3.1263158E4,3.276923E4,3E3,-4.1347363E2,1.65E1,1.65E1,3.2E1,1.2E4,3.5854776E2,-1.508434E2,1.65E1,3.3E4,1.65E1,3.3E1,3E4,3E4,3.2E4,1.65E1,3.3E4,2.1666666E4,3.3E1,1.65E1,-2.4036855E2,-1.7285696E1,2.9927273E4,1.934527E2,2.75E4,1.2E4,-1.4534943E2,-4.0679886E1,4.6843067E1,-1.7099588E1,2.8090908E4,-1.5354121E2,3.3E4,1.8E5,-2.6129274E1,3.4048885E1,-3.8631686E2,4.2282965E2,5.3883152E1,-1.09023636E2,7.454465E1,-2.5391468E1,-6.5068364E0,-1.141665E2,1.0423547E2,-9.794372E0,-3.703897E1,1.397754E1,2.5887796E2,-3.7703445E1],"split_indices":[0,0,0,0,0,2,2,0,4,0,0,4,3,0,0,1,3,3,1,4,1,3,4,0,0,1,0,2,0,0,0,0,0,1,0,0,4,0,0,0,0,0,0,0,0,0,0,0,0,0,0,0,0],"split_type":[0,0,0,0,0,0,0,0,0,0,0,0,0,0,0,0,0,0,0,0,0,0,0,0,0,0,0,0,0,0,0,0,0,0,0,0,0,0,0,0,0,0,0,0,0,0,0,0,0,0,0,0,0],"sum_hessian":[1.18E2,9.3E1,2.5E1,9.2E1,1E0,3E0,2.2E1,7.1E1,2.1E1,2E0,1E0,7E0,1.5E1,6.9E1,2E0,1E1,1.1E1,5E0,2E0,8E0,7E0,6.6E1,3E0,1E0,1E0,7E0,3E0,8E0,3E0,4E0,1E0,1E0,1E0,7E0,1E0,2E0,5E0,4.4E1,2.2E1,1E0,2E0,6E0,1E0,6E0,2E0,1E0,2E0,4E0,3E0,1E0,1E0,4E0,1E0],"tree_param":{"num_deleted":"0","num_feature":"5","num_nodes":"53","size_leaf_vector":"1"}},{"base_weights":[1.958331E1,-9.49305E0,1.4821512E2,-1.7624521E1,1.1688897E2,9.694982E0,3.8941348E2,1.8906279E1,-9.600965E1,1.6571121E2,-1.4753313E2,-1.10958626E2,9.1752527E2,-9.487393E-1,1.3283888E2,-2.0503365E2,-3.1929756E1,-1.3466402E2,4.9975244E2,-7.190169E1,4.5241203E0,5.2475685E1,-6.784733E1,1.2945846E3,-3.2047928E1,4.9404743E1,-1.879082E2,1.07063385E2,-5.8561386E1,-3.094507E2,8.501069E1,1.7070782E2,4.378975E1,-1.2717696E1,2.1791016E1,8.323887E1,4.9932425E2,3.3934452E1,-4.5128002E1,-1.6242754E2,7.288656E1,-5.3549793E1,2.2938023E0,-6.088263E0,-1.3316457E2,4.3785477E1,-5.5306644E0],"categories":[],"categories_nodes":[],"categories_segments":[],"categories_sizes":[],"default_left":[0,0,0,0,0,0,0,0,0,0,0,0,0,0,0,0,0,0,0,0,0,0,0,0,0,0,0,0,0,0,0,0,0,0,0,0,0,0,0,0,0,0,0,0,0,0,0],"id":25,"left_children":[1,3,5,7,-1,9,11,13,15,17,19,21,23,25,-1,-1,27,29,31,-1,33,-1,-1,35,-1,37,39,-1,41,43,45,-1,-1,-1,-1,-1,-1,-1,-1,-1,-1,-1,-1,-1,-1,-1,-1],"loss_changes":[4.4648422E5,3.2492184E5,7.312629E5,2.795719E5,0E0,3.9239994E5,2.2158265E6,5.64315E5,1.1451052E6,8.700004E5,1.13167734E5,2.042235E5,1.6832615E6,6.2119744E5,0E0,0E0,3.2118212E5,2.182877E5,1.4974E4,0E0,1.5861641E4,0E0,0E0,6.66672E5,0E0,6.790419E5,2.2639872E6,0E0,2.2370656E5,1.0760672E5,2.1603016E4,0E0,0E0,0E0,0E0,0E0,0E0,0E0,0E0,0E0,0E0,0E0,0E0,0E0,0E0,0E0,0E0],"parents":[2147483647,0,0,1,1,2,2,3,3,5,5,6,6,7,7,8,8,9,9,10,10,11,11,12,12,13,13,16,16,17,17,18,18,20,20,23,23,25,25,26,26,28,28,29,29,30,30],"right_children":[2,4,6,8,-1,10,12,14,16,18,20,22,24,26,-1,-1,28,30,32,-1,34,-1,-1,36,-1,38,40,-1,42,44,46,-1,-1,-1,-1,-1,-1,-1,-1,-1,-1,-1,-1,-1,-1,-1,-1],"split_conditions":[3.3E4,1.8E5,3.3E4,1.5E4,1.1688897E2,2.9927273E4,2.475E4,1.1E4,1.55E4,1.2E4,1.55E4,1.65E1,1.8E5,3.2E1,1.3283888E2,-2.0503365E2,1.65E4,1.65E1,2.1E4,-7.190169E1,2.8090908E4,5.2475685E1,-6.784733E1,3.1263158E4,-3.2047928E1,3.2E1,3.2E4,1.07063385E2,1.65E1,1.65E1,1.65E1,1.7070782E2,4.378975E1,-1.2717696E1,2.1791016E1,8.323887E1,4.9932425E2,3.3934452E1,-4.5128002E1,-1.6242754E2,7.288656E1,-5.3549793E1,2.2938023E0,-6.088263E0,-1.3316457E2,4.3785477E1,-5.5306644E0],"split_indices":[1,0,4,2,0,0,0,2,2,0,4,2,4,0,0,0,2,2,0,0,2,0,0,0,0,4,0,0,4,3,0,0,0,0,0,0,0,0,0,0,0,0,0,0,0,0,0],"split_type":[0,0,0,0,0,0,0,0,0,0,0,0,0,0,0,0,0,0,0,0,0,0,0,0,0,0,0,0,0,0,0,0,0,0,0,0,0,0,0,0,0,0,0,0,0,0,0],"sum_hessian":[1.18E2,9.7E1,2.1E1,9.6E1,1E0,1.4E1,7E0,6.6E1,3E1,7E0,7E0,4E0,3E0,6.4E1,2E0,2E0,2.8E1,4E0,3E0,4E0,3E0,1E0,3E0,2E0,1E0,5.1E1,1.3E1,1E0,2.7E1,2E0,2E0,2E0,1E0,2E0,1E0,1E0,1E0,3.9E1,1.2E1,7E0,6E0,9E0,1.8E1,1E0,1E0,1E0,1E0],"tree_param":{"num_deleted":"0","num_feature":"5","num_nodes":"47","size_leaf_vector":"1"}},{"base_weights":[1.8629265E1,-1.593195E1,1.1725246E2,3.2217526E0,-3.383585E2,8.873757E2,3.354135E1,-1.9408033E1,1.9647417E2,-1.9456546E2,-9.867236E1,3.4893372E2,5.0385353E1,-8.9122925E1,2.7551578E2,1.5451952E1,-2.8451147E2,1.9252135E2,-1.3311394E2,-4.6479786E1,-8.482423E0,-1.5018556E2,2.1244217E1,-8.0745476E1,5.2648083E2,-1.3749494E1,4.934128E2,-1.1517166E2,-1.7544017E2,-1.4857854E2,3.836797E1,-3.3295126E2,5.6619186E0,2.3487265E2,-1.5390738E2,4.4604202E1,-1.7527219E2,1.310082E1,7.798956E2,4.5524282E0,-5.3172836E1,-3.993115E2,4.6357278E2,3.0911812E1,-6.691919E1,2.7935938E1,-8.751954E0,-1.25460594E2,-3.248997E1,3.7249447E1,-1.23578766E2,9.535752E1,3.0377382E1,-1.3528792E1,-6.34249E1,-5.98443E1,-1.5396865E1,-1.2626995E1,1.8522364E1,3.3011877E2,-2.724074E1],"categories":[],"categories_nodes":[],"categories_segments":[],"categories_sizes":[],"default_left":[0,0,0,0,0,0,0,0,0,0,0,0,0,0,0,0,0,0,0,0,0,0,0,0,0,0,0,0,0,0,0,0,0,0,0,0,0,0,0,0,0,0,0,0,0,0,0,0,0,0,0,0,0,0,0,0,0,0,0,0,0],"id":26,"left_children":[1,3,5,7,9,11,13,15,17,-1,19,-1,-1,21,23,25,27,-1,29,-1,-1,31,33,35,37,39,41,43,-1,-1,45,47,49,51,53,-1,55,57,59,-1,-1,-1,-1,-1,-1,-1,-1,-1,-1,-1,-1,-1,-1,-1,-1,-1,-1,-1,-1,-1,-1],"loss_changes":[4.0748397E5,5.50724E5,1.9687402E6,3.755403E5,3.077507E5,3.99769E5,8.853216E5,7.159919E5,1.4062066E6,0E0,1.1461672E4,0E0,0E0,1.3797675E5,9.3660225E5,9.698274E5,3.9030562E5,0E0,3.9161297E5,0E0,0E0,3.7217156E5,3.354875E5,1.3449408E5,7.7037125E5,3.1479844E5,9.732825E6,1.8778739E5,0E0,0E0,2.1206605E4,6.961894E4,4.470332E5,1.2166797E4,2.1754117E4,0E0,1.7647188E3,1.0652192E4,1.2161545E6,0E0,0E0,0E0,0E0,0E0,0E0,0E0,0E0,0E0,0E0,0E0,0E0,0E0,0E0,0E0,0E0,0E0,0E0,0E0,0E0,0E0,0E0],"parents":[2147483647,0,0,1,1,2,2,3,3,4,4,5,5,6,6,7,7,8,8,10,10,13,13,14,14,15,15,16,16,18,18,21,21,22,22,23,23,24,24,25,25,26,26,27,27,30,30,31,31,32,32,33,33,34,34,36,36,37,37,38,38],"right_children":[2,4,6,8,10,12,14,16,18,-1,20,-1,-1,22,24,26,28,-1,30,-1,-1,32,34,36,38,40,42,44,-1,-1,46,48,50,52,54,-1,56,58,60,-1,-1,-1,-1,-1,-1,-1,-1,-1,-1,-1,-1,-1,-1,-1,-1,-1,-1,-1,-1,-1,-1],"split_conditions":[2.9927273E4,2.475E4,3.1263158E4,1.55E4,1.65E1,1.65E1,3.3E4,3.3E1,1.65E1,-1.9456546E2,1.65E1,3.4893372E2,5.0385353E1,1.5E4,2.475E4,1.65E1,3.4736843E3,1.9252135E2,3.2E1,-4.6479786E1,-8.482423E0,1.65E1,1.65E1,1.65E1,3.3E4,3.276923E4,1.65E1,1.2E4,-1.7544017E2,-1.4857854E2,2.8090908E4,1.65E1,1.2E4,1.55E4,2.8090908E4,4.4604202E1,1.6506E4,1.65E1,1.8E5,4.5524282E0,-5.3172836E1,-3.993115E2,4.6357278E2,3.0911812E1,-6.691919E1,2.7935938E1,-8.751954E0,-1.25460594E2,-3.248997E1,3.7249447E1,-1.23578766E2,9.535752E1,3.0377382E1,-1.3528792E1,-6.34249E1,-5.98443E1,-1.5396865E1,-1.2626995E1,1.8522364E1,3.3011877E2,-2.724074E1],"split_indices":[4,4,4,4,2,0,1,4,1,0,0,0,0,1,0,4,3,0,1,0,0,3,0,2,4,0,0,4,0,0,1,0,1,1,0,0,0,2,4,0,0,0,0,0,0,0,0,0,0,0,0,0,0,0,0,0,0,0,0,0,0],"split_type":[0,0,0,0,0,0,0,0,0,0,0,0,0,0,0,0,0,0,0,0,0,0,0,0,0,0,0,0,0,0,0,0,0,0,0,0,0,0,0,0,0,0,0,0,0,0,0,0,0,0,0,0,0,0,0,0,0,0,0,0,0],"sum_hessian":[1.18E2,8.8E1,3E1,8.4E1,4E0,2E0,2.8E1,7.6E1,8E0,1E0,3E0,1E0,1E0,1.9E1,9E0,6.8E1,8E0,3E0,5E0,1E0,2E0,1.2E1,7E0,4E0,5E0,6.5E1,3E0,6E0,2E0,1E0,4E0,5E0,7E0,3E0,4E0,1E0,3E0,2E0,3E0,5.6E1,9E0,1E0,2E0,2E0,4E0,2E0,2E0,3E0,2E0,6E0,1E0,1E0,2E0,2E0,2E0,2E0,1E0,1E0,1E0,2E0,1E0],"tree_param":{"num_deleted":"0","num_feature":"5","num_nodes":"61","size_leaf_vector":"1"}},{"base_weights":[1.3878673E1,-1.4020952E1,1.1421275E2,9.324436E0,-3.2777133E2,5.326694E2,3.6471916E1,-1.788879E1,9.292507E1,2.713504E2,-8.7423965E1,-2.2460612E2,1.6473145E2,-9.4129825E-1,-1.8063199E2,2.1243222E2,9.253213E-1,-3.134341E2,2.7918543E1,1.3754082E2,9.002106E1,4.4814526E1,-1.1757159E2,4.5827246E2,4.1604626E1,1.4261389E2,-9.363654E1,-1.0650956E2,-1.5816797E1,2.329629E1,-1.07329445E1,-1.10609055E2,3.0645245E2,2.2724325E1,-4.81332E1,-5.548484E1,3.6465588E1,8.988426E0,1.7731671E2,-4.9650356E1,4.7264156E1,7.2325195E1,-1.0865255E1,-7.675491E1,9.033497E0,3.1705002E1,-7.8456345E1,-1.1990614E1,2.345011E2],"categories":[],"categories_nodes":[],"categories_segments":[],"categories_sizes":[],"default_left":[0,0,0,0,0,0,0,0,0,0,0,0,0,0,0,0,0,0,0,0,0,0,0,0,0,0,0,0,0,0,0,0,0,0,0,0,0,0,0,0,0,0,0,0,0,0,0,0,0],"id":27,"left_children":[1,3,5,7,-1,9,11,13,15,-1,-1,17,19,21,-1,23,25,27,29,-1,31,33,35,37,39,41,43,-1,-1,-1,-1,45,47,-1,-1,-1,-1,-1,-1,-1,-1,-1,-1,-1,-1,-1,-1,-1,-1],"loss_changes":[3.3471606E5,2.3770298E6,8.263829E5,2.1324133E5,0E0,1.4892644E6,8.071718E5,7.024062E5,2.526799E5,0E0,0E0,1.8820066E5,3.0985247E5,3.7882497E5,0E0,4.008967E5,2.0093058E5,4.6351875E4,1.2281958E4,0E0,6.418136E5,3.35968E5,3.447137E5,2.0978119E5,1.9416089E5,1.14388734E5,1.8836634E5,0E0,0E0,0E0,0E0,2.8876753E5,1.1836208E6,0E0,0E0,0E0,0E0,0E0,0E0,0E0,0E0,0E0,0E0,0E0,0E0,0E0,0E0,0E0,0E0],"parents":[2147483647,0,0,1,1,2,2,3,3,5,5,6,6,7,7,8,8,11,11,12,12,13,13,15,15,16,16,17,17,18,18,20,20,21,21,22,22,23,23,24,24,25,25,26,26,31,31,32,32],"right_children":[2,4,6,8,-1,10,12,14,16,-1,-1,18,20,22,-1,24,26,28,30,-1,32,34,36,38,40,42,44,-1,-1,-1,-1,46,48,-1,-1,-1,-1,-1,-1,-1,-1,-1,-1,-1,-1,-1,-1,-1,-1],"split_conditions":[3.2E4,3.1263158E4,3.276923E4,3.3E1,-3.2777133E2,1.65E1,1.65E1,3.2E1,1.65E1,2.713504E2,-8.7423965E1,1.65E1,1.65E4,1.65E1,-1.8063199E2,1.65E4,1.65E1,3.2E4,1.65E1,1.3754082E2,2.8090908E4,1.55E4,3.276923E4,3E3,1.6506E4,1.5E4,1.65E1,-1.0650956E2,-1.5816797E1,2.329629E1,-1.07329445E1,2.475E4,3.3E4,2.2724325E1,-4.81332E1,-5.548484E1,3.6465588E1,8.988426E0,1.7731671E2,-4.9650356E1,4.7264156E1,7.2325195E1,-1.0865255E1,-7.675491E1,9.033497E0,3.1705002E1,-7.8456345E1,-1.1990614E1,2.345011E2],"split_indices":[0,0,0,0,0,2,2,0,4,0,0,4,2,2,0,0,3,3,1,0,1,1,3,0,0,2,1,0,0,0,0,4,4,0,0,0,0,0,0,0,0,0,0,0,0,0,0,0,0],"split_type":[0,0,0,0,0,0,0,0,0,0,0,0,0,0,0,0,0,0,0,0,0,0,0,0,0,0,0,0,0,0,0,0,0,0,0,0,0,0,0,0,0,0,0,0,0,0,0,0,0],"sum_hessian":[1.18E2,9.3E1,2.5E1,9.2E1,1E0,3E0,2.2E1,7E1,2.2E1,2E0,1E0,7E0,1.5E1,6.9E1,1E0,9E0,1.3E1,5E0,2E0,2E0,1.3E1,5E1,1.9E1,3E0,6E0,5E0,8E0,4E0,1E0,1E0,1E0,7E0,6E0,4.4E1,6E0,1.5E1,4E0,1E0,2E0,2E0,4E0,3E0,2E0,3E0,5E0,3E0,4E0,4E0,2E0],"tree_param":{"num_deleted":"0","num_feature":"5","num_nodes":"49","size_leaf_vector":"1"}},{"base_weights":[9.818318E0,-1.7784916E1,8.8749596E1,-1.8542295E0,-2.8504962E2,7.436836E2,1.7937471E1,-1.9201412E1,1.4676659E2,-4.750371E2,-4.5572918E-2,2.9318497E2,4.1472656E1,-1.2765209E2,1.2821552E2,1.2255758E1,-2.3119003E2,1.4928311E2,-1.11590355E2,-1.6878926E2,-4.4977444E1,4.7630863E0,-4.783594E0,-2.3805278E2,4.0824177E1,3.825784E0,2.6767575E2,-1.5479522E1,6.183467E2,-1.3701656E2,-6.928758E1,-1.1796902E2,2.3383595E1,-2.9091913E2,1.9801758E1,2.6681982E2,-2.7411142E2,1.8942635E2,-1.0277822E2,2.9689028E1,4.9824023E2,-1.8782204E1,2.2605326E1,-3.428234E2,6.210794E2,2.304548E1,-4.2928078E1,1.19457035E1,-2.5390628E-1,-5.1987503E1,-1.1699757E2,9.4915825E1,1.7718164E1,-9.137989E0,-1.1421215E2,8.185254E1,-9.123003E0,-4.9693905E1,-4.264661E0,5.717051E1,-1.7451868E1,2.3818263E2,-5.8329796E1],"categories":[],"categories_nodes":[],"categories_segments":[],"categories_sizes":[],"default_left":[0,0,0,0,0,0,0,0,0,0,0,0,0,0,0,0,0,0,0,0,0,0,0,0,0,0,0,0,0,0,0,0,0,0,0,0,0,0,0,0,0,0,0,0,0,0,0,0,0,0,0,0,0,0,0,0,0,0,0,0,0,0,0],"id":28,"left_children":[1,3,5,7,9,11,13,15,17,19,21,-1,-1,23,25,27,29,-1,31,-1,-1,-1,-1,33,35,37,39,41,43,-1,45,-1,47,49,-1,51,53,55,57,59,61,-1,-1,-1,-1,-1,-1,-1,-1,-1,-1,-1,-1,-1,-1,-1,-1,-1,-1,-1,-1,-1,-1],"loss_changes":[2.6085066E5,3.7840766E5,1.4243555E6,2.219611E5,2.7071434E5,2.8919075E5,4.8197166E5,5.1631278E5,8.713149E5,1.0810625E3,1.012655E3,0E0,0E0,2.5151695E5,2.9388206E5,1.1526586E6,3.334963E5,0E0,2.3727925E5,0E0,0E0,0E0,0E0,1.4779819E5,5.0018278E5,2.1732655E5,4.24178E5,2.8724038E5,1.0036664E7,0E0,8.647662E4,0E0,2.0248472E3,1.3993375E4,0E0,2.2505438E4,6.632031E4,8.164811E4,3.661964E4,8.176175E4,9.736669E5,0E0,0E0,0E0,0E0,0E0,0E0,0E0,0E0,0E0,0E0,0E0,0E0,0E0,0E0,0E0,0E0,0E0,0E0,0E0,0E0,0E0,0E0],"parents":[2147483647,0,0,1,1,2,2,3,3,4,4,5,5,6,6,7,7,8,8,9,9,10,10,13,13,14,14,15,15,16,16,18,18,23,23,24,24,25,25,26,26,27,27,28,28,30,30,32,32,33,33,35,35,36,36,37,37,38,38,39,39,40,40],"right_children":[2,4,6,8,10,12,14,16,18,20,22,-1,-1,24,26,28,30,-1,32,-1,-1,-1,-1,34,36,38,40,42,44,-1,46,-1,48,50,-1,52,54,56,58,60,62,-1,-1,-1,-1,-1,-1,-1,-1,-1,-1,-1,-1,-1,-1,-1,-1,-1,-1,-1,-1,-1,-1],"split_conditions":[2.9927273E4,2.475E4,3.1263158E4,1.55E4,1.65E1,1.65E1,1.5E4,3.2E1,1.65E1,1.65E1,1.1E4,2.9318497E2,4.1472656E1,1.65E1,3E4,1.65E1,3.4736843E3,1.4928311E2,3.2E1,-1.6878926E2,-4.4977444E1,4.7630863E0,-4.783594E0,1.55E4,1.6506E4,1.65E1,2.475E4,3.2E1,1.65E1,-1.3701656E2,1.2E4,-1.1796902E2,2.8090908E4,3.1263158E4,1.9801758E1,1.55E4,1.65E1,1.65E1,2.2E4,1.65E1,1.8E5,-1.8782204E1,2.2605326E1,-3.428234E2,6.210794E2,2.304548E1,-4.2928078E1,1.19457035E1,-2.5390628E-1,-5.1987503E1,-1.1699757E2,9.4915825E1,1.7718164E1,-9.137989E0,-1.1421215E2,8.185254E1,-9.123003E0,-4.9693905E1,-4.264661E0,5.717051E1,-1.7451868E1,2.3818263E2,-5.8329796E1],"split_indices":[4,4,4,4,0,0,1,4,1,2,0,0,0,2,2,4,4,0,1,0,0,0,0,0,2,2,0,1,0,0,4,0,1,3,0,0,0,0,2,0,4,0,0,0,0,0,0,0,0,0,0,0,0,0,0,0,0,0,0,0,0,0,0],"split_type":[0,0,0,0,0,0,0,0,0,0,0,0,0,0,0,0,0,0,0,0,0,0,0,0,0,0,0,0,0,0,0,0,0,0,0,0,0,0,0,0,0,0,0,0,0,0,0,0,0,0,0,0,0,0,0,0,0,0,0,0,0,0,0],"sum_hessian":[1.18E2,8.8E1,3E1,8.4E1,4E0,2E0,2.8E1,7.6E1,8E0,2E0,2E0,1E0,1E0,1.2E1,1.6E1,6.7E1,9E0,3E0,5E0,1E0,1E0,1E0,1E0,7E0,5E0,9E0,7E0,6.5E1,2E0,3E0,6E0,1E0,4E0,6E0,1E0,3E0,2E0,3E0,6E0,4E0,3E0,4.3E1,2.2E1,1E0,1E0,2E0,4E0,2E0,2E0,4E0,2E0,2E0,1E0,1E0,1E0,2E0,1E0,3E0,3E0,1E0,3E0,2E0,1E0],"tree_param":{"num_deleted":"0","num_feature":"5","num_nodes":"63","size_leaf_vector":"1"}},{"base_weights":[9.961076E0,-1.2961784E1,7.545055E1,6.8070465E-1,-2.4229175E2,6.3213086E2,1.5261183E1,-6.415754E0,8.951749E1,-4.0378183E2,-3.7760418E-2,2.4920714E2,3.525176E1,-1.0165625E2,1.0377091E2,-1.9823147E1,1.075151E2,-1.4347087E2,-3.8230957E1,4.048828E0,-4.0658207E0,-2.4052147E2,1.5199703E1,4.5553846E0,2.1481895E2,4.4388447E0,-1.8039618E2,1.1569439E2,-9.582599E1,-2.1917866E1,-3.0598755E2,1.03943436E2,-9.090096E1,1.5078082E2,-7.965278E1,-4.3312683E1,3.7836047E2,-6.8366733E0,1.3169197E2,-1.1279053E2,-1.2860919E1,-1.0027367E2,5.6121097E0,-1.4841856E2,-2.3449318E1,-4.9496117E1,5.2878906E1,6.548203E1,-7.7545524E0,-3.4772263E1,2.1968193E0,1.037019E0,-1.801642E1,1.6667535E2,-4.9580326E1],"categories":[],"categories_nodes":[],"categories_segments":[],"categories_sizes":[],"default_left":[0,0,0,0,0,0,0,0,0,0,0,0,0,0,0,0,0,0,0,0,0,0,0,0,0,0,0,0,0,0,0,0,0,0,0,0,0,0,0,0,0,0,0,0,0,0,0,0,0,0,0,0,0,0,0],"id":29,"left_children":[1,3,5,7,9,11,13,15,-1,17,19,-1,-1,21,23,25,27,-1,-1,-1,-1,29,31,33,35,37,39,-1,41,-1,43,45,-1,47,49,51,53,-1,-1,-1,-1,-1,-1,-1,-1,-1,-1,-1,-1,-1,-1,-1,-1,-1,-1],"loss_changes":[1.7962148E5,2.7861312E5,1.0290462E6,1.814933E5,1.9559284E5,2.0894012E5,3.1065053E5,1.3044262E5,0E0,7.8059375E2,7.3163806E2,0E0,0E0,2.1460981E5,1.8632212E5,2.968832E5,5.459576E5,0E0,0E0,0E0,0E0,4.3423156E4,2.5740331E5,1.3514388E5,3.5410972E5,8.027071E5,2.5284588E5,0E0,1.7009422E5,0E0,1.3332806E5,1.6522372E5,0E0,5.3326758E4,2.2921684E4,3.3396562E3,5.7354E5,0E0,0E0,0E0,0E0,0E0,0E0,0E0,0E0,0E0,0E0,0E0,0E0,0E0,0E0,0E0,0E0,0E0,0E0],"parents":[2147483647,0,0,1,1,2,2,3,3,4,4,5,5,6,6,7,7,9,9,10,10,13,13,14,14,15,15,16,16,21,21,22,22,23,23,24,24,25,25,26,26,28,28,30,30,31,31,33,33,34,34,35,35,36,36],"right_children":[2,4,6,8,10,12,14,16,-1,18,20,-1,-1,22,24,26,28,-1,-1,-1,-1,30,32,34,36,38,40,-1,42,-1,44,46,-1,48,50,52,54,-1,-1,-1,-1,-1,-1,-1,-1,-1,-1,-1,-1,-1,-1,-1,-1,-1,-1],"split_conditions":[2.9927273E4,2.475E4,3.1263158E4,1.8E5,1.65E1,1.65E1,1.5E4,1.55E4,8.951749E1,1.65E1,1.1E4,2.4920714E2,3.525176E1,1.65E1,3E4,3.276923E4,1.65E1,-1.4347087E2,-3.8230957E1,4.048828E0,-4.0658207E0,3.276923E4,1.2E4,1.65E1,2.8090908E4,3.2E4,1.65E1,1.1569439E2,3.2E1,-2.1917866E1,1.65E1,3.276923E4,-9.090096E1,1.65E1,2.475E4,2.2E4,1.8E5,-6.8366733E0,1.3169197E2,-1.1279053E2,-1.2860919E1,-1.0027367E2,5.6121097E0,-1.4841856E2,-2.3449318E1,-4.9496117E1,5.2878906E1,6.548203E1,-7.7545524E0,-3.4772263E1,2.1968193E0,1.037019E0,-1.801642E1,1.6667535E2,-4.9580326E1],"split_indices":[4,4,4,0,0,0,1,4,0,2,0,0,0,3,2,0,1,0,0,0,0,4,1,2,3,0,1,0,1,0,0,4,0,0,2,0,4,0,0,0,0,0,0,0,0,0,0,0,0,0,0,0,0,0,0],"split_type":[0,0,0,0,0,0,0,0,0,0,0,0,0,0,0,0,0,0,0,0,0,0,0,0,0,0,0,0,0,0,0,0,0,0,0,0,0,0,0,0,0,0,0,0,0,0,0,0,0,0,0,0,0,0,0],"sum_hessian":[1.18E2,8.8E1,3E1,8.4E1,4E0,2E0,2.8E1,8.3E1,1E0,2E0,2E0,1E0,1E0,1.2E1,1.6E1,7.5E1,8E0,1E0,1E0,1E0,1E0,5E0,7E0,9E0,7E0,6.6E1,9E0,3E0,5E0,2E0,3E0,6E0,1E0,3E0,6E0,3E0,4E0,6.3E1,3E0,3E0,6E0,1E0,4E0,1E0,2E0,1E0,5E0,2E0,1E0,4E0,2E0,1E0,2E0,3E0,1E0],"tree_param":{"num_deleted":"0","num_feature":"5",